{"learner":{"attributes":{"scikit_learn":"{\"_estimator_type\": \"regressor\"}"},"feature_names":[],"feature_types":[],"gradient_booster":{"model":{"gbtree_model_param":{"num_parallel_tree":"1","num_trees":"100"},"iteration_indptr":[0,1,2,3,4,5,6,7,8,9,10,11,12,13,14,15,16,17,18,19,20,21,22,23,24,25,26,27,28,29,30,31,32,33,34,35,36,37,38,39,40,41,42,43,44,45,46,47,48,49,50,51,52,53,54,55,56,57,58,59,60,61,62,63,64,65,66,67,68,69,70,71,72,73,74,75,76,77,78,79,80,81,82,83,84,85,86,87,88,89,90,91,92,93,94,95,96,97,98,99,100],"tree_info":[0,0,0,0,0,0,0,0,0,0,0,0,0,0,0,0,0,0,0,0,0,0,0,0,0,0,0,0,0,0,0,0,0,0,0,0,0,0,0,0,0,0,0,0,0,0,0,0,0,0,0,0,0,0,0,0,0,0,0,0,0,0,0,0,0,0,0,0,0,0,0,0,0,0,0,0,0,0,0,0,0,0,0,0,0,0,0,0,0,0,0,0,0,0,0,0,0,0,0,0],"trees":[{"base_weights":[5.340576E-7,-3.5999466E1,1.1605092E1,-2.1446865E0,-1.2382281E0,4.022222E0,1.7860462E1,-4.25448E0,5.6374454E0,1.4607312E1,1.4398217E0,-4.6152606E0,-7.1472167E-3,-8.580962E-1,8.990495E0,1.2171761E1,1.0212953E0,-2.4054979E-1,-6.644783E-2,-3.473866E-1,1.0204702E-1,3.2108003E-1,4.9471948E-1,3.1720018E-1,6.751695E-1],"categories":[],"categories_nodes":[],"categories_segments":[],"categories_sizes":[],"default_left":[0,0,0,0,0,0,0,0,0,0,0,0,0,0,0,0,0,0,0,0,0,0,0,0,0],"id":0,"left_children":[1,3,5,-1,-1,7,9,11,13,15,-1,17,-1,19,21,23,-1,-1,-1,-1,-1,-1,-1,-1,-1],"loss_changes":[8.397319E4,2.733121E3,7.138078E3,0E0,0E0,9.5979517E2,2.5322012E3,1.714064E1,1.2927269E3,6.8669824E2,0E0,6.820984E-1,0E0,3.8491553E2,2.7020752E1,2.9459473E2,0E0,0E0,0E0,0E0,0E0,0E0,0E0,0E0,0E0],"parents":[2147483647,0,0,1,1,2,2,5,5,6,6,7,7,8,8,9,9,11,11,13,13,14,14,15,15],"right_children":[2,4,6,-1,-1,8,10,12,14,16,-1,18,-1,20,22,24,-1,-1,-1,-1,-1,-1,-1,-1,-1],"split_conditions":[7.678556E-1,6.8776083E-1,9.0048736E-1,-2.1446865E0,-1.2382281E0,8.305717E-1,6.642621E-1,8.253352E-1,4.2812812E-1,9.039013E-1,1.4398217E0,9.6626073E-1,-7.1472167E-3,8.84635E-1,6.197059E-1,3.513121E-1,1.0212953E0,-2.4054979E-1,-6.644783E-2,-3.473866E-1,1.0204702E-1,3.2108003E-1,4.9471948E-1,3.1720018E-1,6.751695E-1],"split_indices":[0,0,0,0,0,0,7,0,7,6,0,7,0,2,4,4,0,0,0,0,0,0,0,0,0],"split_type":[0,0,0,0,0,0,0,0,0,0,0,0,0,0,0,0,0,0,0,0,0,0,0,0,0],"sum_hessian":[1.99E2,4.8E1,1.51E2,2.8E1,2E1,6.9E1,8.2E1,1.1E1,5.8E1,6.5E1,1.7E1,1E1,1E0,2E1,3.8E1,4.8E1,1.7E1,9E0,1E0,6E0,1.4E1,1.2E1,2.6E1,1E1,3.8E1],"tree_param":{"num_deleted":"0","num_feature":"10","num_nodes":"25","size_leaf_vector":"1"}},{"base_weights":[1.6347504E-3,-3.4268528E1,1.1049243E1,-2.057042E0,-1.1982149E0,4.850911E0,1.8052256E1,-4.0679307E0,6.289998E0,1.4589839E1,1.3718303E0,-4.412402E0,-6.968689E-3,6.6207653E-1,9.334258E0,9.067182E0,1.6882217E1,-2.2972481E-1,-6.478653E-2,-3.3249882E-1,1.5940957E-1,1.4806113E-1,4.7783208E-1,2.7338368E-1,5.7000107E-1,6.983868E-1,1.03363E0],"categories":[],"categories_nodes":[],"categories_segments":[],"categories_sizes":[],"default_left":[0,0,0,0,0,0,0,0,0,0,0,0,0,0,0,0,0,0,0,0,0,0,0,0,0,0,0],"id":1,"left_children":[1,3,5,-1,-1,7,9,11,13,15,-1,17,-1,19,21,23,25,-1,-1,-1,-1,-1,-1,-1,-1,-1,-1],"loss_changes":[7.609931E4,2.4839648E3,6.510293E3,0E0,0E0,1.0780565E3,1.9066738E3,1.5624329E1,1.2102529E3,5.305674E2,0E0,2.8956604E-1,0E0,5.014496E2,3.6894043E1,8.8815796E1,1.1998926E2,0E0,0E0,0E0,0E0,0E0,0E0,0E0,0E0,0E0,0E0],"parents":[2147483647,0,0,1,1,2,2,5,5,6,6,7,7,8,8,9,9,11,11,13,13,14,14,15,15,16,16],"right_children":[2,4,6,-1,-1,8,10,12,14,16,-1,18,-1,20,22,24,26,-1,-1,-1,-1,-1,-1,-1,-1,-1,-1],"split_conditions":[7.678556E-1,6.8477947E-1,9.135819E-1,-2.057042E0,-1.1982149E0,8.305717E-1,6.642621E-1,8.253352E-1,4.468638E-1,5.215719E-1,1.3718303E0,9.6626073E-1,-6.968689E-3,8.84635E-1,8.420804E-1,8.8200957E-1,9.039013E-1,-2.2972481E-1,-6.478653E-2,-3.3249882E-1,1.5940957E-1,1.4806113E-1,4.7783208E-1,2.7338368E-1,5.7000107E-1,6.983868E-1,1.03363E0],"split_indices":[0,0,2,0,0,0,7,0,7,5,0,7,0,2,0,6,6,0,0,0,0,0,0,0,0,0,0],"split_type":[0,0,0,0,0,0,0,0,0,0,0,0,0,0,0,0,0,0,0,0,0,0,0,0,0,0,0],"sum_hessian":[1.99E2,4.8E1,1.51E2,2.7E1,2.1E1,8.1E1,7E1,1.1E1,7E1,5.3E1,1.7E1,1E1,1E0,2.5E1,4.5E1,1.7E1,3.6E1,9E0,1E0,6E0,1.9E1,2E0,4.3E1,8E0,9E0,2.3E1,1.3E1],"tree_param":{"num_deleted":"0","num_feature":"10","num_nodes":"27","size_leaf_vector":"1"}},{"base_weights":[5.7705687E-3,-3.262154E1,1.0523747E1,-1.9174395E0,-1.078008E0,3.6065297E0,1.6230753E1,-3.88966E0,5.0700507E0,1.3282041E1,1.3070496E0,-2.1092795E-1,-6.794357E-3,-8.381493E-1,8.121388E0,1.106179E1,9.2940825E-1,-3.1824863E-1,8.984558E-2,2.854322E-1,4.4911438E-1,3.6051205E-1,6.4413035E-1],"categories":[],"categories_nodes":[],"categories_segments":[],"categories_sizes":[],"default_left":[0,0,0,0,0,0,0,0,0,0,0,0,0,0,0,0,0,0,0,0,0,0,0],"id":2,"left_children":[1,3,5,-1,-1,7,9,11,13,15,-1,-1,-1,17,19,21,-1,-1,-1,-1,-1,-1,-1],"loss_changes":[6.897796E4,2.2774023E3,5.9419062E3,0E0,0E0,7.8767896E2,2.0782578E3,1.4242081E1,1.0704539E3,5.719219E2,0E0,0E0,0E0,3.1727115E2,2.9731445E1,2.5074854E2,0E0,0E0,0E0,0E0,0E0,0E0,0E0],"parents":[2147483647,0,0,1,1,2,2,5,5,6,6,7,7,8,8,9,9,13,13,14,14,15,15],"right_children":[2,4,6,-1,-1,8,10,12,14,16,-1,-1,-1,18,20,22,-1,-1,-1,-1,-1,-1,-1],"split_conditions":[7.678556E-1,6.9100493E-1,9.0048736E-1,-1.9174395E0,-1.078008E0,8.305717E-1,6.642621E-1,8.253352E-1,4.2812812E-1,9.039013E-1,1.3070496E0,-2.1092795E-1,-6.794357E-3,8.84635E-1,6.197059E-1,3.8780993E-1,9.2940825E-1,-3.1824863E-1,8.984558E-2,2.854322E-1,4.4911438E-1,3.6051205E-1,6.4413035E-1],"split_indices":[0,0,0,0,0,0,7,0,7,6,0,0,0,2,4,7,0,0,0,0,0,0,0],"split_type":[0,0,0,0,0,0,0,0,0,0,0,0,0,0,0,0,0,0,0,0,0,0,0],"sum_hessian":[1.99E2,4.8E1,1.51E2,3E1,1.8E1,6.9E1,8.2E1,1.1E1,5.8E1,6.5E1,1.7E1,1E1,1E0,2E1,3.8E1,4.8E1,1.7E1,6E0,1.4E1,1.2E1,2.6E1,1.7E1,3.1E1],"tree_param":{"num_deleted":"0","num_feature":"10","num_nodes":"23","size_leaf_vector":"1"}},{"base_weights":[8.1496425E-3,-3.10516E1,1.0020779E1,-1.8808492E0,-1.099717E0,4.379365E0,1.6395077E1,-3.7133255E0,5.6854625E0,1.3254305E1,1.2453277E0,-4.026811E0,-6.624603E-3,5.8094025E-1,8.44703E0,8.162253E0,1.5373294E1,-2.0989585E-1,-5.7893753E-2,-3.0460927E-1,1.4437436E-1,4.6598884E-1,3.0110183E-1,2.4521053E-1,5.1391333E-1,6.352397E-1,9.424887E-1],"categories":[],"categories_nodes":[],"categories_segments":[],"categories_sizes":[],"default_left":[0,0,0,0,0,0,0,0,0,0,0,0,0,0,0,0,0,0,0,0,0,0,0,0,0,0,0],"id":3,"left_children":[1,3,5,-1,-1,7,9,11,13,15,-1,17,-1,19,21,23,25,-1,-1,-1,-1,-1,-1,-1,-1,-1,-1],"loss_changes":[6.2509113E4,2.0863945E3,5.394128E3,0E0,0E0,8.878391E2,1.5678945E3,1.2936966E1,9.959431E2,4.571797E2,0E0,5.391388E-1,0E0,4.1777985E2,4.1230713E1,7.36864E1,1.03765625E2,0E0,0E0,0E0,0E0,0E0,0E0,0E0,0E0,0E0,0E0],"parents":[2147483647,0,0,1,1,2,2,5,5,6,6,7,7,8,8,9,9,11,11,13,13,14,14,15,15,16,16],"right_children":[2,4,6,-1,-1,8,10,12,14,16,-1,18,-1,20,22,24,26,-1,-1,-1,-1,-1,-1,-1,-1,-1,-1],"split_conditions":[7.678556E-1,5.374737E-1,9.135819E-1,-1.8808492E0,-1.099717E0,8.305717E-1,6.642621E-1,8.253352E-1,4.468638E-1,5.215719E-1,1.2453277E0,9.6626073E-1,-6.624603E-3,8.84635E-1,7.212211E-1,8.8200957E-1,9.039013E-1,-2.0989585E-1,-5.7893753E-2,-3.0460927E-1,1.4437436E-1,4.6598884E-1,3.0110183E-1,2.4521053E-1,5.1391333E-1,6.352397E-1,9.424887E-1],"split_indices":[0,7,2,0,0,0,7,0,7,5,0,7,0,2,8,6,6,0,0,0,0,0,0,0,0,0,0],"split_type":[0,0,0,0,0,0,0,0,0,0,0,0,0,0,0,0,0,0,0,0,0,0,0,0,0,0,0],"sum_hessian":[1.99E2,4.8E1,1.51E2,2.6E1,2.2E1,8.1E1,7E1,1.1E1,7E1,5.3E1,1.7E1,1E1,1E0,2.5E1,4.5E1,1.7E1,3.6E1,9E0,1E0,6E0,1.9E1,3.1E1,1.4E1,8E0,9E0,2.3E1,1.3E1],"tree_param":{"num_deleted":"0","num_feature":"10","num_nodes":"27","size_leaf_vector":"1"}},{"base_weights":[1.2411347E-2,-2.955985E1,9.545493E0,-1.7386913E0,-9.74853E-1,3.2400737E0,1.4748311E1,-3.5505245E0,4.5662956E0,1.207519E1,1.1865205E0,-3.8498118E0,-6.4590457E-3,-8.163365E-1,7.347552E0,1.0050685E1,8.4577477E-1,-2.0045038E-1,-5.644646E-2,-2.9155448E-1,7.89152E-2,3.2134736E-1,5.055763E-1,2.5768328E-1,5.587093E-1],"categories":[],"categories_nodes":[],"categories_segments":[],"categories_sizes":[],"default_left":[0,0,0,0,0,0,0,0,0,0,0,0,0,0,0,0,0,0,0,0,0,0,0,0,0],"id":4,"left_children":[1,3,5,-1,-1,7,9,11,13,15,-1,17,-1,19,21,23,-1,-1,-1,-1,-1,-1,-1,-1,-1],"loss_changes":[5.666512E4,1.8929023E3,4.9387188E3,0E0,0E0,6.466216E2,1.7062988E3,1.1790268E1,8.8925635E2,4.7673633E2,0E0,2.3878479E-1,0E0,2.613824E2,3.425049E1,2.1200098E2,0E0,0E0,0E0,0E0,0E0,0E0,0E0,0E0,0E0],"parents":[2147483647,0,0,1,1,2,2,5,5,6,6,7,7,8,8,9,9,11,11,13,13,14,14,15,15],"right_children":[2,4,6,-1,-1,8,10,12,14,16,-1,18,-1,20,22,24,-1,-1,-1,-1,-1,-1,-1,-1,-1],"split_conditions":[7.678556E-1,6.9100493E-1,9.0048736E-1,-1.7386913E0,-9.74853E-1,8.305717E-1,6.642621E-1,8.253352E-1,4.2812812E-1,9.039013E-1,1.1865205E0,9.6626073E-1,-6.4590457E-3,8.84635E-1,8.762899E-1,3.513121E-1,8.4577477E-1,-2.0045038E-1,-5.644646E-2,-2.9155448E-1,7.89152E-2,3.2134736E-1,5.055763E-1,2.5768328E-1,5.587093E-1],"split_indices":[0,0,0,0,0,0,7,0,7,6,0,7,0,2,7,4,0,0,0,0,0,0,0,0,0],"split_type":[0,0,0,0,0,0,0,0,0,0,0,0,0,0,0,0,0,0,0,0,0,0,0,0,0],"sum_hessian":[1.99E2,4.8E1,1.51E2,3E1,1.8E1,6.9E1,8.2E1,1.1E1,5.8E1,6.5E1,1.7E1,1E1,1E0,2E1,3.8E1,4.8E1,1.7E1,9E0,1E0,6E0,1.4E1,3.1E1,7E0,1E1,3.8E1],"tree_param":{"num_deleted":"0","num_feature":"10","num_nodes":"25","size_leaf_vector":"1"}},{"base_weights":[1.4218826E-2,-2.8137236E1,9.089265E0,-1.7065753E0,-9.938564E-1,3.0830822E0,1.4045212E1,-3.394942E0,4.3483906E0,1.1496608E1,1.1304902E0,-1.8403362E-1,-6.297684E-3,-7.856489E-1,7.0013766E0,9.564806E0,8.058352E-1,-2.790595E-1,7.523234E-2,3.0578196E-1,4.8345765E-1,3.106005E-1,5.575927E-1],"categories":[],"categories_nodes":[],"categories_segments":[],"categories_sizes":[],"default_left":[0,0,0,0,0,0,0,0,0,0,0,0,0,0,0,0,0,0,0,0,0,0,0],"id":5,"left_children":[1,3,5,-1,-1,7,9,11,13,15,-1,-1,-1,17,19,21,-1,-1,-1,-1,-1,-1,-1],"loss_changes":[5.13509E4,1.7477188E3,4.4811787E3,0E0,0E0,5.885315E2,1.5517666E3,1.0744995E1,8.091122E2,4.3490332E2,0E0,0E0,0E0,2.3904506E2,3.3021973E1,1.9145557E2,0E0,0E0,0E0,0E0,0E0,0E0,0E0],"parents":[2147483647,0,0,1,1,2,2,5,5,6,6,7,7,8,8,9,9,13,13,14,14,15,15],"right_children":[2,4,6,-1,-1,8,10,12,14,16,-1,-1,-1,18,20,22,-1,-1,-1,-1,-1,-1,-1],"split_conditions":[7.678556E-1,5.374737E-1,9.0048736E-1,-1.7065753E0,-9.938564E-1,8.305717E-1,6.642621E-1,8.253352E-1,4.2812812E-1,9.039013E-1,1.1304902E0,-1.8403362E-1,-6.297684E-3,8.84635E-1,8.762899E-1,3.8780993E-1,8.058352E-1,-2.790595E-1,7.523234E-2,3.0578196E-1,4.8345765E-1,3.106005E-1,5.575927E-1],"split_indices":[0,7,0,0,0,0,7,0,7,6,0,0,0,2,7,7,0,0,0,0,0,0,0],"split_type":[0,0,0,0,0,0,0,0,0,0,0,0,0,0,0,0,0,0,0,0,0,0,0],"sum_hessian":[1.99E2,4.8E1,1.51E2,2.6E1,2.2E1,6.9E1,8.2E1,1.1E1,5.8E1,6.5E1,1.7E1,1E1,1E0,2E1,3.8E1,4.8E1,1.7E1,6E0,1.4E1,3.1E1,7E0,1.7E1,3.1E1],"tree_param":{"num_deleted":"0","num_feature":"10","num_nodes":"23","size_leaf_vector":"1"}},{"base_weights":[1.6002884E-2,-2.6785488E1,8.655852E0,-1.6244068E0,-9.4632435E-1,3.7523425E0,1.4197146E1,-3.2410533E0,4.881475E0,1.1485914E1,1.0771058E0,-3.5133667E0,-6.1401366E-3,4.3654162E-1,7.287709E0,6.9412384E0,1.3386408E1,-1.8314826E-1,-5.0434496E-2,-2.671001E-1,1.2186024E-1,2.3128931E-1,3.949319E-1,2.0905466E-1,4.3656227E-1,5.5234075E-1,8.220483E-1],"categories":[],"categories_nodes":[],"categories_segments":[],"categories_sizes":[],"default_left":[0,0,0,0,0,0,0,0,0,0,0,0,0,0,0,0,0,0,0,0,0,0,0,0,0,0,0],"id":6,"left_children":[1,3,5,-1,-1,7,9,11,13,15,-1,17,-1,19,21,23,25,-1,-1,-1,-1,-1,-1,-1,-1,-1,-1],"loss_changes":[4.654402E4,1.5811523E3,4.0768398E3,0E0,0E0,6.6333167E2,1.166457E3,9.758263E0,7.5620276E2,3.7348682E2,0E0,4.2686462E-1,0E0,3.1360345E2,3.827002E1,5.2426147E1,8.279785E1,0E0,0E0,0E0,0E0,0E0,0E0,0E0,0E0,0E0,0E0],"parents":[2147483647,0,0,1,1,2,2,5,5,6,6,7,7,8,8,9,9,11,11,13,13,14,14,15,15,16,16],"right_children":[2,4,6,-1,-1,8,10,12,14,16,-1,18,-1,20,22,24,26,-1,-1,-1,-1,-1,-1,-1,-1,-1,-1],"split_conditions":[7.678556E-1,5.374737E-1,9.135819E-1,-1.6244068E0,-9.4632435E-1,8.305717E-1,6.642621E-1,8.253352E-1,4.468638E-1,5.215719E-1,1.0771058E0,9.6626073E-1,-6.1401366E-3,8.84635E-1,5.6382567E-1,8.8200957E-1,9.039013E-1,-1.8314826E-1,-5.0434496E-2,-2.671001E-1,1.2186024E-1,2.3128931E-1,3.949319E-1,2.0905466E-1,4.3656227E-1,5.5234075E-1,8.220483E-1],"split_indices":[0,7,2,0,0,0,7,0,7,5,0,7,0,2,4,6,6,0,0,0,0,0,0,0,0,0,0],"split_type":[0,0,0,0,0,0,0,0,0,0,0,0,0,0,0,0,0,0,0,0,0,0,0,0,0,0,0],"sum_hessian":[1.99E2,4.8E1,1.51E2,2.6E1,2.2E1,8.1E1,7E1,1.1E1,7E1,5.3E1,1.7E1,1E1,1E0,2.5E1,4.5E1,1.7E1,3.6E1,9E0,1E0,6E0,1.9E1,1E1,3.5E1,8E0,9E0,2.3E1,1.3E1],"tree_param":{"num_deleted":"0","num_feature":"10","num_nodes":"27","size_leaf_vector":"1"}},{"base_weights":[1.9041061E-2,-2.549868E1,8.245024E0,-1.5023576E0,-8.3677286E-1,2.7703388E0,1.276289E1,-3.0989761E0,3.9171426E0,1.0452615E1,1.0262425E0,-3.358931E0,-5.986786E-3,-7.6099217E-1,6.3356986E0,8.691918E0,7.33246E-1,-8.5457996E-2,-1.8819752E-1,-1.19324766E-1,2.4589585E-1,2.748246E-1,4.4502822E-1,2.2028053E-1,4.8390037E-1],"categories":[],"categories_nodes":[],"categories_segments":[],"categories_sizes":[],"default_left":[0,0,0,0,0,0,0,0,0,0,0,0,0,0,0,0,0,0,0,0,0,0,0,0,0],"id":7,"left_children":[1,3,5,-1,-1,7,9,11,13,15,-1,17,-1,19,21,23,-1,-1,-1,-1,-1,-1,-1,-1,-1],"loss_changes":[4.2191902E4,1.45025E3,3.7241943E3,0E0,0E0,4.833059E2,1.2738389E3,8.891434E0,6.7236694E2,3.620288E2,0E0,9.168854E-1,0E0,2.0558936E2,3.5023804E1,1.6446997E2,0E0,0E0,0E0,0E0,0E0,0E0,0E0,0E0,0E0],"parents":[2147483647,0,0,1,1,2,2,5,5,6,6,7,7,8,8,9,9,11,11,13,13,14,14,15,15],"right_children":[2,4,6,-1,-1,8,10,12,14,16,-1,18,-1,20,22,24,-1,-1,-1,-1,-1,-1,-1,-1,-1],"split_conditions":[7.678556E-1,6.9100493E-1,9.0048736E-1,-1.5023576E0,-8.3677286E-1,8.305717E-1,6.642621E-1,8.253352E-1,4.2812812E-1,9.039013E-1,1.0262425E0,6.9696957E-1,-5.986786E-3,5.2737945E-1,8.762899E-1,3.513121E-1,7.33246E-1,-8.5457996E-2,-1.8819752E-1,-1.19324766E-1,2.4589585E-1,2.748246E-1,4.4502822E-1,2.2028053E-1,4.8390037E-1],"split_indices":[0,0,0,0,0,0,7,0,7,6,0,7,0,4,7,4,0,0,0,0,0,0,0,0,0],"split_type":[0,0,0,0,0,0,0,0,0,0,0,0,0,0,0,0,0,0,0,0,0,0,0,0,0],"sum_hessian":[1.99E2,4.8E1,1.51E2,3E1,1.8E1,6.9E1,8.2E1,1.1E1,5.8E1,6.5E1,1.7E1,1E1,1E0,2E1,3.8E1,4.8E1,1.7E1,3E0,7E0,1.6E1,4E0,3.1E1,7E0,1E1,3.8E1],"tree_param":{"num_deleted":"0","num_feature":"10","num_nodes":"25","size_leaf_vector":"1"}},{"base_weights":[2.1546936E-2,-2.4271479E1,7.8527093E0,-1.4738587E0,-8.5525817E-1,3.3855214E0,1.2901396E1,-2.967327E0,4.4115586E0,1.04444065E1,9.7778094E-1,-3.2158577E0,-5.83725E-3,4.670625E-1,6.680222E0,6.2640686E0,1.2195803E1,-1.8151426E-1,-7.915192E-2,-3.4332392E-1,1.2229444E-1,7.2141014E-2,3.445134E-1,1.8997303E-1,3.9279047E-1,5.0268763E-1,7.4983805E-1],"categories":[],"categories_nodes":[],"categories_segments":[],"categories_sizes":[],"default_left":[0,0,0,0,0,0,0,0,0,0,0,0,0,0,0,0,0,0,0,0,0,0,0,0,0,0,0],"id":8,"left_children":[1,3,5,-1,-1,7,9,11,13,15,-1,17,-1,19,21,23,25,-1,-1,-1,-1,-1,-1,-1,-1,-1,-1],"loss_changes":[3.8239117E4,1.3237656E3,3.3844443E3,0E0,0E0,5.4758795E2,9.565576E2,8.126053E0,6.322401E2,3.1896143E2,0E0,1.6966553E0,0E0,4.086133E2,3.9562866E1,4.076642E1,7.121875E1,0E0,0E0,0E0,0E0,0E0,0E0,0E0,0E0,0E0,0E0],"parents":[2147483647,0,0,1,1,2,2,5,5,6,6,7,7,8,8,9,9,11,11,13,13,14,14,15,15,16,16],"right_children":[2,4,6,-1,-1,8,10,12,14,16,-1,18,-1,20,22,24,26,-1,-1,-1,-1,-1,-1,-1,-1,-1,-1],"split_conditions":[7.678556E-1,5.374737E-1,9.135819E-1,-1.4738587E0,-8.5525817E-1,8.305717E-1,6.642621E-1,8.253352E-1,5.2737945E-1,5.215719E-1,9.7778094E-1,9.350287E-1,-5.83725E-3,8.84635E-1,8.420804E-1,8.8200957E-1,9.039013E-1,-1.8151426E-1,-7.915192E-2,-3.4332392E-1,1.2229444E-1,7.2141014E-2,3.445134E-1,1.8997303E-1,3.9279047E-1,5.0268763E-1,7.4983805E-1],"split_indices":[0,7,2,0,0,0,7,0,4,5,0,5,0,2,0,6,6,0,0,0,0,0,0,0,0,0,0],"split_type":[0,0,0,0,0,0,0,0,0,0,0,0,0,0,0,0,0,0,0,0,0,0,0,0,0,0,0],"sum_hessian":[1.99E2,4.8E1,1.51E2,2.6E1,2.2E1,8.1E1,7E1,1.1E1,7E1,5.3E1,1.7E1,1E1,1E0,2.6E1,4.4E1,1.7E1,3.6E1,7E0,3E0,5E0,2.1E1,2E0,4.2E1,8E0,9E0,2.3E1,1.3E1],"tree_param":{"num_deleted":"0","num_feature":"10","num_nodes":"27","size_leaf_vector":"1"}},{"base_weights":[2.2535095E-2,-2.3105436E1,7.4781146E0,-1.3532686E0,-7.3909587E-1,2.4901466E0,1.1594737E1,-2.8411674E0,3.5322757E0,9.4997635E0,9.3160784E-1,-1.2526672E0,-3.4788342E0,-7.648555E-1,5.755544E0,7.8938766E0,6.671789E-1,-7.544613E-2,-5.691147E-3,-2.1735962E-1,-7.618389E-2,-2.4334684E-1,6.0021974E-2,2.4810699E-1,4.1048604E-1,1.9978909E-1,4.3954664E-1],"categories":[],"categories_nodes":[],"categories_segments":[],"categories_sizes":[],"default_left":[0,0,0,0,0,0,0,0,0,0,0,0,0,0,0,0,0,0,0,0,0,0,0,0,0,0,0],"id":9,"left_children":[1,3,5,-1,-1,7,9,11,13,15,-1,17,19,21,23,25,-1,-1,-1,-1,-1,-1,-1,-1,-1,-1,-1],"loss_changes":[3.4659273E4,1.2149922E3,3.0922314E3,0E0,0E0,3.9895007E2,1.0466855E3,7.797386E0,5.680691E2,3.0206787E2,0E0,1.2874246E0,6.958481E0,1.7514027E2,3.5201294E1,1.3621704E2,0E0,0E0,0E0,0E0,0E0,0E0,0E0,0E0,0E0,0E0,0E0],"parents":[2147483647,0,0,1,1,2,2,5,5,6,6,7,7,8,8,9,9,11,11,12,12,13,13,14,14,15,15],"right_children":[2,4,6,-1,-1,8,10,12,14,16,-1,18,20,22,24,26,-1,-1,-1,-1,-1,-1,-1,-1,-1,-1,-1],"split_conditions":[7.678556E-1,6.937637E-1,9.0048736E-1,-1.3532686E0,-7.3909587E-1,8.305717E-1,6.642621E-1,7.039583E-1,4.2812812E-1,9.039013E-1,9.3160784E-1,8.253352E-1,9.350287E-1,8.84635E-1,8.762899E-1,3.513121E-1,6.671789E-1,-7.544613E-2,-5.691147E-3,-2.1735962E-1,-7.618389E-2,-2.4334684E-1,6.0021974E-2,2.4810699E-1,4.1048604E-1,1.9978909E-1,4.3954664E-1],"split_indices":[0,0,0,0,0,0,7,7,7,6,0,0,5,2,7,4,0,0,0,0,0,0,0,0,0,0,0],"split_type":[0,0,0,0,0,0,0,0,0,0,0,0,0,0,0,0,0,0,0,0,0,0,0,0,0,0,0],"sum_hessian":[1.99E2,4.8E1,1.51E2,3.1E1,1.7E1,6.9E1,8.2E1,1.1E1,5.8E1,6.5E1,1.7E1,4E0,7E0,2E1,3.8E1,4.8E1,1.7E1,3E0,1E0,4E0,3E0,6E0,1.4E1,3.1E1,7E0,1E1,3.8E1],"tree_param":{"num_deleted":"0","num_feature":"10","num_nodes":"27","size_leaf_vector":"1"}},{"base_weights":[2.264E-2,-2.1992867E1,7.119595E0,-2.675475E1,-7.7233094E-1,3.0459945E0,1.1724041E1,-1.3594493E0,-3.8661614E-1,-2.472553E0,4.0273533E0,9.497509E0,8.8761514E-1,-2.958367E0,1.3294983E-1,3.2677996E-1,6.206629E0,5.6507316E0,1.1112225E1,-7.261715E-2,-1.6707917E-1,-5.5488585E-3,1.5520096E-2,-3.1887934E-1,1.070195E-1,3.4268165E-1,2.0682855E-1,1.3223013E-1,3.301752E-1,4.5753908E-1,6.840484E-1],"categories":[],"categories_nodes":[],"categories_segments":[],"categories_sizes":[],"default_left":[0,0,0,0,0,0,0,0,0,0,0,0,0,0,0,0,0,0,0,0,0,0,0,0,0,0,0,0,0,0,0],"id":10,"left_children":[1,3,5,7,-1,9,11,-1,-1,13,15,17,-1,19,21,23,25,27,29,-1,-1,-1,-1,-1,-1,-1,-1,-1,-1,-1,-1],"loss_changes":[3.1405195E4,1.1141777E3,2.8153037E3,1.2792969E1,0E0,4.540432E2,7.843672E2,0E0,0E0,1.684858E1,5.624916E2,2.7262646E2,0E0,1.4953384E0,1.643036E-1,3.4194635E2,3.05802E1,3.4091187E1,6.1230957E1,0E0,0E0,0E0,0E0,0E0,0E0,0E0,0E0,0E0,0E0,0E0,0E0],"parents":[2147483647,0,0,1,1,2,2,3,3,5,5,6,6,9,9,10,10,11,11,13,13,14,14,15,15,16,16,17,17,18,18],"right_children":[2,4,6,8,-1,10,12,-1,-1,14,16,18,-1,20,22,24,26,28,30,-1,-1,-1,-1,-1,-1,-1,-1,-1,-1,-1,-1],"split_conditions":[7.678556E-1,5.374737E-1,9.135819E-1,5.0305295E-1,-7.7233094E-1,8.359998E-1,6.642621E-1,-1.3594493E0,-3.8661614E-1,8.253352E-1,6.3130456E-1,5.215719E-1,8.8761514E-1,6.9696957E-1,8.305717E-1,8.84635E-1,7.344915E-1,8.768671E-1,9.039013E-1,-7.261715E-2,-1.6707917E-1,-5.5488585E-3,1.5520096E-2,-3.1887934E-1,1.070195E-1,3.4268165E-1,2.0682855E-1,1.3223013E-1,3.301752E-1,4.5753908E-1,6.840484E-1],"split_indices":[0,7,2,8,0,0,7,0,0,0,5,5,0,7,0,2,8,6,6,0,0,0,0,0,0,0,0,0,0,0,0],"split_type":[0,0,0,0,0,0,0,0,0,0,0,0,0,0,0,0,0,0,0,0,0,0,0,0,0,0,0,0,0,0,0],"sum_hessian":[1.99E2,4.8E1,1.51E2,2.6E1,2.2E1,8.1E1,7E1,2.5E1,1E0,1.2E1,6.9E1,5.3E1,1.7E1,1E1,2E0,2.6E1,4.3E1,1.7E1,3.6E1,3E0,7E0,1E0,1E0,5E0,2.1E1,3.1E1,1.2E1,5E0,1.2E1,2.3E1,1.3E1],"tree_param":{"num_deleted":"0","num_feature":"10","num_nodes":"31","size_leaf_vector":"1"}},{"base_weights":[2.1912612E-2,-2.0944622E1,6.780717E0,-1.2279781E0,-6.677236E-1,2.2354848E0,1.053235E1,-2.6142502E0,3.183982E0,8.63232E0,1.6913996E1,-2.9573135E0,-5.9928894E-1,-7.554765E-1,5.223588E0,7.1653886E0,1.214606E1,2.413189E-1,8.6705637E-1,-1.7291598E-1,-6.706124E-2,-3.9536666E-2,-5.410004E-3,-3.0559275E-1,6.501913E-2,2.2392873E-1,3.775347E-1,2.2438955E-1,4.163812E-1,3.9060658E-1,6.8310064E-1],"categories":[],"categories_nodes":[],"categories_segments":[],"categories_sizes":[],"default_left":[0,0,0,0,0,0,0,0,0,0,0,0,0,0,0,0,0,0,0,0,0,0,0,0,0,0,0,0,0,0,0],"id":11,"left_children":[1,3,5,-1,-1,7,9,11,13,15,17,19,21,23,25,27,29,-1,-1,-1,-1,-1,-1,-1,-1,-1,-1,-1,-1,-1,-1],"loss_changes":[2.848376E4,1.0164785E3,2.5683657E3,0E0,0E0,3.3032092E2,8.6039453E2,6.5228195E0,4.7800793E2,2.5316016E2,9.239746E0,3.458313E0,1.9649124E-1,2.3919888E2,3.379895E1,1.1511499E2,1.153125E1,0E0,0E0,0E0,0E0,0E0,0E0,0E0,0E0,0E0,0E0,0E0,0E0,0E0,0E0],"parents":[2147483647,0,0,1,1,2,2,5,5,6,6,7,7,8,8,9,9,10,10,11,11,12,12,13,13,14,14,15,15,16,16],"right_children":[2,4,6,-1,-1,8,10,12,14,16,18,20,22,24,26,28,30,-1,-1,-1,-1,-1,-1,-1,-1,-1,-1,-1,-1,-1,-1],"split_conditions":[7.678556E-1,6.937637E-1,9.0048736E-1,-1.2279781E0,-6.677236E-1,8.305717E-1,6.642621E-1,8.2044595E-1,5.012893E-1,9.039013E-1,9.1136605E-1,9.350287E-1,8.253352E-1,8.84635E-1,8.762899E-1,3.756045E-1,3.1279406E-1,2.413189E-1,8.6705637E-1,-1.7291598E-1,-6.706124E-2,-3.9536666E-2,-5.410004E-3,-3.0559275E-1,6.501913E-2,2.2392873E-1,3.775347E-1,2.2438955E-1,4.163812E-1,3.9060658E-1,6.8310064E-1],"split_indices":[0,0,0,0,0,0,7,0,4,6,0,5,0,2,7,7,7,0,0,0,0,0,0,0,0,0,0,0,0,0,0],"split_type":[0,0,0,0,0,0,0,0,0,0,0,0,0,0,0,0,0,0,0,0,0,0,0,0,0,0,0,0,0,0,0],"sum_hessian":[1.99E2,4.8E1,1.51E2,3.1E1,1.7E1,6.9E1,8.2E1,1.1E1,5.8E1,6.5E1,1.7E1,9E0,2E0,2E1,3.8E1,4.8E1,1.7E1,1E0,1.6E1,6E0,3E0,1E0,1E0,5E0,1.5E1,3.1E1,7E0,1.6E1,3.2E1,6E0,1.1E1],"tree_param":{"num_deleted":"0","num_feature":"10","num_nodes":"31","size_leaf_vector":"1"}},{"base_weights":[2.5833664E-2,-1.9936075E1,6.460753E0,-1.2457309E0,-1.4573727E1,2.7466106E0,1.0659329E1,-7.89525E-1,-4.507638E-1,-2.2850788E0,3.64183E0,8.638418E0,1.6129877E1,-2.7160368E0,5.6793213E-2,5.306641E-1,5.829468E0,5.1236897E0,1.0114815E1,2.3528595E-1,8.26254E-1,-1.5445434E-1,-6.45464E-2,-5.274582E-3,9.534073E-3,-2.928599E-1,1.0212622E-1,3.0522785E-1,1.3139588E-1,3.692374E-1,1.842997E-1,4.1646385E-1,6.226625E-1],"categories":[],"categories_nodes":[],"categories_segments":[],"categories_sizes":[],"default_left":[0,0,0,0,0,0,0,0,0,0,0,0,0,0,0,0,0,0,0,0,0,0,0,0,0,0,0,0,0,0,0,0,0],"id":12,"left_children":[1,3,5,-1,7,9,11,-1,-1,13,15,17,19,21,23,25,27,29,31,-1,-1,-1,-1,-1,-1,-1,-1,-1,-1,-1,-1,-1,-1],"loss_changes":[2.5819457E4,9.450371E2,2.3410273E3,0E0,3.34917E1,3.7768805E2,6.45603E2,0E0,0E0,1.3274475E1,4.7333386E2,2.2838818E2,3.5048828E0,1.8602142E0,8.52994E-2,3.0169016E2,2.0066895E1,3.1292694E1,5.0761963E1,0E0,0E0,0E0,0E0,0E0,0E0,0E0,0E0,0E0,0E0,0E0,0E0,0E0,0E0],"parents":[2147483647,0,0,1,1,2,2,4,4,5,5,6,6,9,9,10,10,11,11,12,12,13,13,14,14,15,15,16,16,17,17,18,18],"right_children":[2,4,6,-1,8,10,12,-1,-1,14,16,18,20,22,24,26,28,30,32,-1,-1,-1,-1,-1,-1,-1,-1,-1,-1,-1,-1,-1,-1],"split_conditions":[7.678556E-1,6.403777E-1,9.135819E-1,-1.2457309E0,7.492966E-1,8.359998E-1,6.642621E-1,-7.89525E-1,-4.507638E-1,8.253352E-1,5.3620315E-1,5.215719E-1,9.1136605E-1,9.350287E-1,8.305717E-1,8.84635E-1,8.041059E-1,2.6771927E-1,9.039013E-1,2.3528595E-1,8.26254E-1,-1.5445434E-1,-6.45464E-2,-5.274582E-3,9.534073E-3,-2.928599E-1,1.0212622E-1,3.0522785E-1,1.3139588E-1,3.692374E-1,1.842997E-1,4.1646385E-1,6.226625E-1],"split_indices":[0,5,2,0,0,0,7,0,0,0,4,5,0,5,0,2,8,4,6,0,0,0,0,0,0,0,0,0,0,0,0,0,0],"split_type":[0,0,0,0,0,0,0,0,0,0,0,0,0,0,0,0,0,0,0,0,0,0,0,0,0,0,0,0,0,0,0,0,0],"sum_hessian":[1.99E2,4.8E1,1.51E2,2.3E1,2.5E1,8.1E1,7E1,1.9E1,6E0,1.2E1,6.9E1,5.3E1,1.7E1,1E1,2E0,2.9E1,4E1,1.7E1,3.6E1,1E0,1.6E1,7E0,3E0,1E0,1E0,5E0,2.4E1,3.6E1,4E0,5E0,1.2E1,2.3E1,1.3E1],"tree_param":{"num_deleted":"0","num_feature":"10","num_nodes":"33","size_leaf_vector":"1"}},{"base_weights":[2.5539933E-2,-1.8990011E1,6.155385E0,-2.3150278E1,-6.6402835E-1,2.0079927E0,9.579024E0,-1.1769173E0,-3.265133E-1,-2.4006107E0,2.870624E0,7.8511586E0,7.691182E-1,-2.9823818E0,-9.8965454E-1,-6.387072E-1,4.8267994E0,6.5059566E0,1.1076923E1,-1.8888977E-1,-6.212597E-2,-5.9282113E-2,-5.1425933E-3,-9.521752E-2,2.0226745E-1,2.0611632E-1,3.4766418E-1,1.5994076E-1,3.6359605E-1,3.5574242E-1,6.232528E-1],"categories":[],"categories_nodes":[],"categories_segments":[],"categories_sizes":[],"default_left":[0,0,0,0,0,0,0,0,0,0,0,0,0,0,0,0,0,0,0,0,0,0,0,0,0,0,0,0,0,0,0],"id":13,"left_children":[1,3,5,7,-1,9,11,-1,-1,13,15,17,-1,19,21,23,25,27,29,-1,-1,-1,-1,-1,-1,-1,-1,-1,-1,-1,-1],"loss_changes":[2.3429367E4,8.5643945E2,2.1390405E3,2.0429688E1,0E0,2.7310126E2,7.115034E2,0E0,0E0,6.898712E0,4.0811008E2,2.1432837E2,0E0,6.3772964E0,7.470665E-1,1.381273E2,2.8262207E1,1.0086279E2,1.0311035E1,0E0,0E0,0E0,0E0,0E0,0E0,0E0,0E0,0E0,0E0,0E0,0E0],"parents":[2147483647,0,0,1,1,2,2,3,3,5,5,6,6,9,9,10,10,11,11,13,13,14,14,15,15,16,16,17,17,18,18],"right_children":[2,4,6,8,-1,10,12,-1,-1,14,16,18,-1,20,22,24,26,28,30,-1,-1,-1,-1,-1,-1,-1,-1,-1,-1,-1,-1],"split_conditions":[7.678556E-1,5.374737E-1,9.0048736E-1,5.0305295E-1,-6.6402835E-1,8.305717E-1,6.642621E-1,-1.1769173E0,-3.265133E-1,8.118369E-1,4.468638E-1,9.039013E-1,7.691182E-1,9.350287E-1,8.253352E-1,5.2737945E-1,8.762899E-1,3.513121E-1,3.1279406E-1,-1.8888977E-1,-6.212597E-2,-5.9282113E-2,-5.1425933E-3,-9.521752E-2,2.0226745E-1,2.0611632E-1,3.4766418E-1,1.5994076E-1,3.6359605E-1,3.5574242E-1,6.232528E-1],"split_indices":[0,7,0,8,0,0,7,0,0,0,7,6,0,5,0,4,7,4,7,0,0,0,0,0,0,0,0,0,0,0,0],"split_type":[0,0,0,0,0,0,0,0,0,0,0,0,0,0,0,0,0,0,0,0,0,0,0,0,0,0,0,0,0,0,0],"sum_hessian":[1.99E2,4.8E1,1.51E2,2.6E1,2.2E1,6.9E1,8.2E1,2.5E1,1E0,1.1E1,5.8E1,6.5E1,1.7E1,7E0,4E0,2.1E1,3.7E1,4.8E1,1.7E1,4E0,3E0,3E0,1E0,1.7E1,4E0,3E1,7E0,1E1,3.8E1,6E0,1.1E1],"tree_param":{"num_deleted":"0","num_feature":"10","num_nodes":"31","size_leaf_vector":"1"}},{"base_weights":[2.6508866E-2,-1.8084745E1,5.864831E0,-1.0621895E0,-5.731982E-1,2.4749558E0,9.697295E0,-2.116671E0,3.29233E0,7.4122314E0,1.3605323E1,-2.864643E0,-7.665965E-1,1.8244539E-1,5.1258426E0,5.5852013E0,5.153931E-1,4.6915793E-1,7.696921E-1,-1.8133424E-1,-5.9796523E-2,-5.7059098E-2,-5.808512E-4,-2.7669004E-1,8.665644E-2,1.4515635E-1,2.7695686E-1,1.5267064E-1,3.322707E-1],"categories":[],"categories_nodes":[],"categories_segments":[],"categories_sizes":[],"default_left":[0,0,0,0,0,0,0,0,0,0,0,0,0,0,0,0,0,0,0,0,0,0,0,0,0,0,0,0,0],"id":14,"left_children":[1,3,5,-1,-1,7,9,11,13,15,17,19,21,23,25,27,-1,-1,-1,-1,-1,-1,-1,-1,-1,-1,-1,-1,-1],"loss_changes":[2.1253934E4,7.813115E2,1.9507188E3,0E0,0E0,3.147211E2,5.331909E2,1.0931606E1,3.9820557E2,1.9107764E2,4.4342773E1,5.8357697E0,1.683569E0,2.4892116E2,2.4339111E1,6.2920105E1,0E0,0E0,0E0,0E0,0E0,0E0,0E0,0E0,0E0,0E0,0E0,0E0,0E0],"parents":[2147483647,0,0,1,1,2,2,5,5,6,6,7,7,8,8,9,9,10,10,11,11,12,12,13,13,14,14,15,15],"right_children":[2,4,6,-1,-1,8,10,12,14,16,18,20,22,24,26,28,-1,-1,-1,-1,-1,-1,-1,-1,-1,-1,-1,-1,-1],"split_conditions":[7.678556E-1,6.937637E-1,9.135819E-1,-1.0621895E0,-5.731982E-1,8.359998E-1,7.1199924E-1,8.118369E-1,6.3130456E-1,9.039013E-1,9.4050443E-1,9.350287E-1,8.253352E-1,8.84635E-1,5.6382567E-1,3.513121E-1,5.153931E-1,4.6915793E-1,7.696921E-1,-1.8133424E-1,-5.9796523E-2,-5.7059098E-2,-5.808512E-4,-2.7669004E-1,8.665644E-2,1.4515635E-1,2.7695686E-1,1.5267064E-1,3.322707E-1],"split_indices":[0,0,2,0,0,0,5,0,5,6,2,5,0,2,4,4,0,0,0,0,0,0,0,0,0,0,0,0,0],"split_type":[0,0,0,0,0,0,0,0,0,0,0,0,0,0,0,0,0,0,0,0,0,0,0,0,0,0,0,0,0],"sum_hessian":[1.99E2,4.8E1,1.51E2,3.1E1,1.7E1,8.1E1,7E1,1.2E1,6.9E1,4.6E1,2.4E1,7E0,5E0,2.6E1,4.3E1,3E1,1.6E1,9E0,1.5E1,4E0,3E0,3E0,2E0,5E0,2.1E1,8E0,3.5E1,1E1,2E1],"tree_param":{"num_deleted":"0","num_feature":"10","num_nodes":"29","size_leaf_vector":"1"}},{"base_weights":[2.786766E-2,-1.721388E1,5.58588E0,-1.0787493E0,-1.2526175E1,1.8518803E0,8.750856E0,-6.817538E-1,-3.7842146E-1,-2.0338206E0,2.6766639E0,6.457431E0,1.2315606E1,-2.7515507E0,-7.378769E-1,-7.3748636E-1,4.44642E0,4.287349E0,8.307975E0,8.148422E0,7.1000683E-1,-1.7408082E-1,-5.7554055E-2,-5.4919627E-2,-5.615234E-4,-1.01082206E-1,1.8880737E-1,1.4079045E-1,2.5334236E-1,2.2424738E-1,-1.6315078E-2,-3.9283754E-3,4.3167782E-1,4.3774176E-1,1.705452E-1],"categories":[],"categories_nodes":[],"categories_segments":[],"categories_sizes":[],"default_left":[0,0,0,0,0,0,0,0,0,0,0,0,0,0,0,0,0,0,0,0,0,0,0,0,0,0,0,0,0,0,0,0,0,0,0],"id":15,"left_children":[1,3,5,-1,7,9,11,-1,-1,13,15,17,19,21,23,25,27,29,31,33,-1,-1,-1,-1,-1,-1,-1,-1,-1,-1,-1,-1,-1,-1,-1],"loss_changes":[1.9262123E4,7.314834E2,1.7801333E3,0E0,3.974292E1,2.3298909E2,5.908633E2,0E0,0E0,1.0061485E1,3.5976978E2,1.732041E2,1.27739746E2,5.339962E0,1.5594685E0,1.2935461E2,2.518811E1,2.516632E1,7.440173E1,4.612793E0,0E0,0E0,0E0,0E0,0E0,0E0,0E0,0E0,0E0,0E0,0E0,0E0,0E0,0E0,0E0],"parents":[2147483647,0,0,1,1,2,2,4,4,5,5,6,6,9,9,10,10,11,11,12,12,13,13,14,14,15,15,16,16,17,17,18,18,19,19],"right_children":[2,4,6,-1,8,10,12,-1,-1,14,16,18,20,22,24,26,28,30,32,34,-1,-1,-1,-1,-1,-1,-1,-1,-1,-1,-1,-1,-1,-1,-1],"split_conditions":[7.678556E-1,6.403777E-1,9.017401E-1,-1.0787493E0,7.492966E-1,8.359998E-1,5.504692E-1,-6.817538E-1,-3.7842146E-1,8.118369E-1,4.2812812E-1,8.934505E-1,9.185626E-1,9.350287E-1,8.253352E-1,5.2737945E-1,6.197059E-1,9.760817E-1,9.7932085E-2,9.154125E-1,7.1000683E-1,-1.7408082E-1,-5.7554055E-2,-5.4919627E-2,-5.615234E-4,-1.01082206E-1,1.8880737E-1,1.4079045E-1,2.5334236E-1,2.2424738E-1,-1.6315078E-2,-3.9283754E-3,4.3167782E-1,4.3774176E-1,1.705452E-1],"split_indices":[0,5,0,0,0,0,7,0,0,0,7,6,0,5,0,4,4,1,7,0,0,0,0,0,0,0,0,0,0,0,0,0,0,0,0],"split_type":[0,0,0,0,0,0,0,0,0,0,0,0,0,0,0,0,0,0,0,0,0,0,0,0,0,0,0,0,0,0,0,0,0,0,0],"sum_hessian":[1.99E2,4.8E1,1.51E2,2.3E1,2.5E1,7E1,8.1E1,1.9E1,6E0,1.2E1,5.8E1,5.1E1,3E1,7E0,5E0,2E1,3.8E1,2.5E1,2.6E1,1.1E1,1.9E1,4E0,3E0,3E0,2E0,1.6E1,4E0,1.2E1,2.6E1,2.4E1,1E0,1E0,2.5E1,9E0,2E0],"tree_param":{"num_deleted":"0","num_feature":"10","num_nodes":"35","size_leaf_vector":"1"}},{"base_weights":[2.652443E-2,-1.6396841E1,5.3207245E0,-1.0270592E0,-1.1940647E1,1.667654E0,8.258119E0,-6.4937085E-1,-3.6220357E-1,-1.954213E0,2.4644368E0,6.1561947E0,1.1836375E1,-2.6429234E0,-7.102305E-1,-6.9643E-1,4.191836E0,4.1092086E0,7.983317E0,4.1601974E-1,7.017816E-1,-1.6711731E-1,-5.53957E-2,-5.286026E-2,-5.4270425E-4,-9.632506E-2,1.812549E-1,9.830933E-2,2.3690043E-1,2.142484E-1,-1.5907288E-2,-3.8303377E-3,4.142335E-1],"categories":[],"categories_nodes":[],"categories_segments":[],"categories_sizes":[],"default_left":[0,0,0,0,0,0,0,0,0,0,0,0,0,0,0,0,0,0,0,0,0,0,0,0,0,0,0,0,0,0,0,0,0],"id":16,"left_children":[1,3,5,-1,7,9,11,-1,-1,13,15,17,19,21,23,25,27,29,31,-1,-1,-1,-1,-1,-1,-1,-1,-1,-1,-1,-1,-1,-1],"loss_changes":[1.7476959E4,6.5965625E2,1.6172656E3,0E0,3.3740234E1,2.039391E2,5.58916E2,0E0,0E0,9.260582E0,3.1414383E2,1.728999E2,1.15194336E2,4.885933E0,1.4445202E0,1.1861526E2,3.566095E1,2.3151428E1,6.864331E1,0E0,0E0,0E0,0E0,0E0,0E0,0E0,0E0,0E0,0E0,0E0,0E0,0E0,0E0],"parents":[2147483647,0,0,1,1,2,2,4,4,5,5,6,6,9,9,10,10,11,11,12,12,13,13,14,14,15,15,16,16,17,17,18,18],"right_children":[2,4,6,-1,8,10,12,-1,-1,14,16,18,20,22,24,26,28,30,32,-1,-1,-1,-1,-1,-1,-1,-1,-1,-1,-1,-1,-1,-1],"split_conditions":[7.678556E-1,6.403777E-1,8.991128E-1,-1.0270592E0,7.492966E-1,8.359998E-1,6.990454E-1,-6.4937085E-1,-3.6220357E-1,8.118369E-1,4.2812812E-1,8.934505E-1,9.4050443E-1,9.350287E-1,8.253352E-1,5.2737945E-1,5.198651E-1,9.760817E-1,9.7932085E-2,4.1601974E-1,7.017816E-1,-1.6711731E-1,-5.53957E-2,-5.286026E-2,-5.4270425E-4,-9.632506E-2,1.812549E-1,9.830933E-2,2.3690043E-1,2.142484E-1,-1.5907288E-2,-3.8303377E-3,4.142335E-1],"split_indices":[0,5,0,0,0,0,5,0,0,0,7,6,2,5,0,4,7,1,7,0,0,0,0,0,0,0,0,0,0,0,0,0,0],"split_type":[0,0,0,0,0,0,0,0,0,0,0,0,0,0,0,0,0,0,0,0,0,0,0,0,0,0,0,0,0,0,0,0,0],"sum_hessian":[1.99E2,4.8E1,1.51E2,2.3E1,2.5E1,6.8E1,8.3E1,1.9E1,6E0,1.2E1,5.6E1,5.4E1,2.9E1,7E0,5E0,2E1,3.6E1,2.7E1,2.7E1,1.3E1,1.6E1,4E0,3E0,3E0,2E0,1.6E1,4E0,8E0,2.8E1,2.6E1,1E0,1E0,2.6E1],"tree_param":{"num_deleted":"0","num_feature":"10","num_nodes":"33","size_leaf_vector":"1"}},{"base_weights":[2.4357377E-2,-1.5410371E1,5.135033E0,-1.8243391E1,-9.360368E0,2.2205896E0,8.387637E0,-9.71007E-1,-6.0692686E-1,-4.8023492E-1,-1.3016854E-1,-1.6003113E0,2.8438785E0,6.3892574E0,1.1809085E1,-1.5030263E-1,-1.0185578E0,6.0386658E-2,4.3889213E0,5.4721537E0,5.8720535E-1,4.4799906E-1,7.0744747E-1,-6.823349E-2,-7.91111E-3,8.362698E-2,-1.5853144E-1,2.249528E-1,-1.1425018E-2,2.8684506E-1,5.9066773E-3],"categories":[],"categories_nodes":[],"categories_segments":[],"categories_sizes":[],"default_left":[0,0,0,0,0,0,0,0,0,0,0,0,0,0,0,0,0,0,0,0,0,0,0,0,0,0,0,0,0,0,0],"id":17,"left_children":[1,3,5,7,9,11,13,-1,-1,-1,-1,15,17,19,21,-1,23,25,27,29,-1,-1,-1,-1,-1,-1,-1,-1,-1,-1,-1],"loss_changes":[1.5855511E4,6.8622363E2,1.4127839E3,1.3359375E0,4.7124023E0,1.9745462E2,4.100005E2,0E0,0E0,0E0,0E0,6.7516994E0,3.007779E2,1.665492E2,3.988867E1,0E0,2.7618036E0,1.4073418E2,2.391217E1,5.8855835E1,0E0,0E0,0E0,0E0,0E0,0E0,0E0,0E0,0E0,0E0,0E0],"parents":[2147483647,0,0,1,1,2,2,3,3,4,4,5,5,6,6,11,11,12,12,13,13,14,14,16,16,17,17,18,18,19,19],"right_children":[2,4,6,8,10,12,14,-1,-1,-1,-1,16,18,20,22,-1,24,26,28,30,-1,-1,-1,-1,-1,-1,-1,-1,-1,-1,-1],"split_conditions":[7.7297235E-1,6.9741154E-1,9.135819E-1,5.0305295E-1,7.678556E-1,8.359998E-1,7.1199924E-1,-9.71007E-1,-6.0692686E-1,-4.8023492E-1,-1.3016854E-1,6.051432E-1,4.468638E-1,9.99298E-1,9.33124E-1,-1.5030263E-1,6.9971836E-1,7.599797E-1,8.915392E-1,9.9918264E-1,5.8720535E-1,4.4799906E-1,7.0744747E-1,-6.823349E-2,-7.91111E-3,8.362698E-2,-1.5853144E-1,2.249528E-1,-1.1425018E-2,2.8684506E-1,5.9066773E-3],"split_indices":[0,0,2,8,0,0,5,0,0,0,0,4,7,0,0,0,8,8,8,1,0,0,0,0,0,0,0,0,0,0,0],"split_type":[0,0,0,0,0,0,0,0,0,0,0,0,0,0,0,0,0,0,0,0,0,0,0,0,0,0,0,0,0,0,0],"sum_hessian":[1.99E2,4.9E1,1.5E2,3.2E1,1.7E1,8E1,7E1,2.5E1,7E0,1.6E1,1E0,1.1E1,6.9E1,4.6E1,2.4E1,2E0,9E0,2.5E1,4.4E1,4.1E1,5E0,1.3E1,1.1E1,6E0,3E0,1.7E1,8E0,4.3E1,1E0,3.9E1,2E0],"tree_param":{"num_deleted":"0","num_feature":"10","num_nodes":"31","size_leaf_vector":"1"}},{"base_weights":[2.1934051E-2,-1.4683616E1,4.891176E0,-8.689518E-1,-8.926256E0,1.6728671E0,7.5788646E0,-4.576354E-1,-1.2691422E-1,1.3847598E-1,3.2934437E0,5.573206E0,1.0698715E1,-3.3816626E0,1.5674777E0,-3.9205933E-1,4.635907E0,3.654221E0,7.2147026E0,7.080522E0,6.167348E-1,-5.0723173E-2,-3.6353227E-1,-1.946335E-2,1.0725421E-1,-5.742925E-2,2.9709166E-2,2.533178E-1,5.5472948E-2,8.067017E-2,2.0928982E-1,-1.0905839E-2,3.7544847E-1,3.8219878E-1,1.4210841E-1],"categories":[],"categories_nodes":[],"categories_segments":[],"categories_sizes":[],"default_left":[0,0,0,0,0,0,0,0,0,0,0,0,0,0,0,0,0,0,0,0,0,0,0,0,0,0,0,0,0,0,0,0,0,0,0],"id":18,"left_children":[1,3,5,-1,7,9,11,-1,-1,13,15,17,19,21,23,25,27,29,31,33,-1,-1,-1,-1,-1,-1,-1,-1,-1,-1,-1,-1,-1,-1,-1],"loss_changes":[1.4392795E4,6.207959E2,1.2934431E3,0E0,2.8060303E0,1.7360583E2,4.5347705E2,0E0,0E0,1.914212E2,1.7003772E2,1.374364E2,9.6161865E1,9.389016E1,3.1351173E1,8.143648E0,3.2328003E1,2.1452667E1,6.0692993E1,6.931946E0,0E0,0E0,0E0,0E0,0E0,0E0,0E0,0E0,0E0,0E0,0E0,0E0,0E0,0E0,0E0],"parents":[2147483647,0,0,1,1,2,2,4,4,5,5,6,6,9,9,10,10,11,11,12,12,13,13,14,14,15,15,16,16,17,17,18,18,19,19],"right_children":[2,4,6,-1,8,10,12,-1,-1,14,16,18,20,22,24,26,28,30,32,34,-1,-1,-1,-1,-1,-1,-1,-1,-1,-1,-1,-1,-1,-1,-1],"split_conditions":[7.7297235E-1,6.9741154E-1,9.017401E-1,-8.689518E-1,7.678556E-1,6.295131E-1,5.504692E-1,-4.576354E-1,-1.2691422E-1,8.84635E-1,8.487338E-1,8.934505E-1,9.185626E-1,8.863979E-1,3.8438845E-1,8.2044595E-1,8.041059E-1,3.2200047E-1,9.7932085E-2,9.154125E-1,6.167348E-1,-5.0723173E-2,-3.6353227E-1,-1.946335E-2,1.0725421E-1,-5.742925E-2,2.9709166E-2,2.533178E-1,5.5472948E-2,8.067017E-2,2.0928982E-1,-1.0905839E-2,3.7544847E-1,3.8219878E-1,1.4210841E-1],"split_indices":[0,0,0,0,0,4,7,0,0,2,0,6,0,0,4,0,8,4,7,0,0,0,0,0,0,0,0,0,0,0,0,0,0,0,0],"split_type":[0,0,0,0,0,0,0,0,0,0,0,0,0,0,0,0,0,0,0,0,0,0,0,0,0,0,0,0,0,0,0,0,0,0,0],"sum_hessian":[1.99E2,4.9E1,1.5E2,3.2E1,1.7E1,6.9E1,8.1E1,1.6E1,1E0,3.6E1,3.3E1,5.1E1,3E1,1E1,2.6E1,9E0,2.4E1,2.5E1,2.6E1,1.1E1,1.9E1,7E0,3E0,6E0,2E1,5E0,4E0,2.1E1,3E0,6E0,1.9E1,1E0,2.5E1,9E0,2E0],"tree_param":{"num_deleted":"0","num_feature":"10","num_nodes":"35","size_leaf_vector":"1"}},{"base_weights":[2.232399E-2,-1.3978499E1,4.6582103E0,-8.8968116E-1,-1.0069556E1,1.5059321E0,7.1545997E0,-5.600509E-1,-2.991105E-1,1.5729269E-3,3.1014168E0,5.2734833E0,1.0200589E1,-3.2502427E0,1.3772806E0,-6.3467574E-1,4.3223534E0,4.639042E0,5.281601E-1,6.770186E0,5.8744013E-1,-6.5956794E-2,-3.9800748E-1,-1.862891E-2,9.604336E-2,-5.5036165E-2,1.1153221E-2,2.3588045E-1,5.3392984E-2,1.6877966E-1,2.8377357E-1,3.649997E-1,1.3737158E-1],"categories":[],"categories_nodes":[],"categories_segments":[],"categories_sizes":[],"default_left":[0,0,0,0,0,0,0,0,0,0,0,0,0,0,0,0,0,0,0,0,0,0,0,0,0,0,0,0,0,0,0,0,0],"id":19,"left_children":[1,3,5,-1,7,9,11,-1,-1,13,15,17,19,21,23,25,27,29,-1,31,-1,-1,-1,-1,-1,-1,-1,-1,-1,-1,-1,-1,-1],"loss_changes":[1.3046359E4,5.6648047E2,1.177492E3,0E0,5.7859375E1,1.6320752E2,4.2751562E2,0E0,0E0,1.6552422E2,1.5327386E2,1.322218E2,8.509912E1,8.9548134E1,2.5446861E1,3.8432612E0,2.7121185E1,4.6315674E1,0E0,5.519226E0,0E0,0E0,0E0,0E0,0E0,0E0,0E0,0E0,0E0,0E0,0E0,0E0,0E0],"parents":[2147483647,0,0,1,1,2,2,4,4,5,5,6,6,9,9,10,10,11,11,12,12,13,13,14,14,15,15,16,16,17,17,19,19],"right_children":[2,4,6,-1,8,10,12,-1,-1,14,16,18,20,22,24,26,28,30,-1,32,-1,-1,-1,-1,-1,-1,-1,-1,-1,-1,-1,-1,-1],"split_conditions":[7.7297235E-1,6.403777E-1,8.991128E-1,-8.8968116E-1,7.492966E-1,6.295131E-1,5.504692E-1,-5.600509E-1,-2.991105E-1,8.84635E-1,8.420804E-1,9.99298E-1,9.185626E-1,8.8968974E-1,3.8438845E-1,8.2044595E-1,8.041059E-1,8.8200957E-1,5.281601E-1,9.154125E-1,5.8744013E-1,-6.5956794E-2,-3.9800748E-1,-1.862891E-2,9.604336E-2,-5.5036165E-2,1.1153221E-2,2.3588045E-1,5.3392984E-2,1.6877966E-1,2.8377357E-1,3.649997E-1,1.3737158E-1],"split_indices":[0,5,0,0,0,4,7,0,0,2,0,0,0,0,4,0,8,6,0,0,0,0,0,0,0,0,0,0,0,0,0,0,0],"split_type":[0,0,0,0,0,0,0,0,0,0,0,0,0,0,0,0,0,0,0,0,0,0,0,0,0,0,0,0,0,0,0,0,0],"sum_hessian":[1.99E2,4.9E1,1.5E2,2.3E1,2.6E1,6.7E1,8.3E1,1.9E1,7E0,3.5E1,3.2E1,5.3E1,3E1,1E1,2.5E1,8E0,2.4E1,4.9E1,4E0,1.1E1,1.9E1,8E0,2E0,6E0,1.9E1,5E0,3E0,2.1E1,3E0,2.4E1,2.5E1,9E0,2E0],"tree_param":{"num_deleted":"0","num_feature":"10","num_nodes":"33","size_leaf_vector":"1"}},{"base_weights":[2.2111282E-2,-1.3314554E1,4.4380794E0,-1.5763592E1,-8.084954E0,1.4285606E0,6.8215218E0,-8.4104186E-1,-5.178547E-1,-4.1434893E-1,-1.1626358E-1,-9.238773E-3,2.9537792E0,5.0695877E0,9.806017E0,-3.1299036E0,1.3113978E0,-3.7464142E-1,4.217547E0,3.9232895E0,7.6184835E0,3.705947E-1,6.183324E-1,-6.302507E-2,-3.8474044E-1,-1.783044E-2,9.1481514E-2,-4.6864104E-2,3.5182E-2,2.3121396E-1,5.1390838E-2,2.0723374E-1,-9.434509E-3,2.4160953E-1,4.4035202E-1],"categories":[],"categories_nodes":[],"categories_segments":[],"categories_sizes":[],"default_left":[0,0,0,0,0,0,0,0,0,0,0,0,0,0,0,0,0,0,0,0,0,0,0,0,0,0,0,0,0,0,0,0,0,0,0],"id":20,"left_children":[1,3,5,7,9,11,13,-1,-1,-1,-1,15,17,19,21,23,25,27,29,31,33,-1,-1,-1,-1,-1,-1,-1,-1,-1,-1,-1,-1,-1,-1],"loss_changes":[1.1837948E4,5.1292676E2,1.0733804E3,1.4413086E1,1.6751709E0,1.4914847E2,3.8949292E2,0E0,0E0,0E0,0E0,1.5247008E2,1.4038965E2,1.308092E2,9.225391E1,8.417075E1,2.3127262E1,6.7263584E0,2.638385E1,3.7195312E1,1.0429382E1,0E0,0E0,0E0,0E0,0E0,0E0,0E0,0E0,0E0,0E0,0E0,0E0,0E0,0E0],"parents":[2147483647,0,0,1,1,2,2,3,3,4,4,5,5,6,6,11,11,12,12,13,13,14,14,15,15,16,16,17,17,18,18,19,19,20,20],"right_children":[2,4,6,8,10,12,14,-1,-1,-1,-1,16,18,20,22,24,26,28,30,32,34,-1,-1,-1,-1,-1,-1,-1,-1,-1,-1,-1,-1,-1,-1],"split_conditions":[7.7297235E-1,6.9741154E-1,8.991128E-1,5.0305295E-1,7.678556E-1,6.295131E-1,6.990454E-1,-8.4104186E-1,-5.178547E-1,-4.1434893E-1,-1.1626358E-1,8.84635E-1,8.487338E-1,9.039013E-1,9.33124E-1,8.8968974E-1,3.8438845E-1,8.305717E-1,8.041059E-1,9.9918264E-1,3.1279406E-1,3.705947E-1,6.183324E-1,-6.302507E-2,-3.8474044E-1,-1.783044E-2,9.1481514E-2,-4.6864104E-2,3.5182E-2,2.3121396E-1,5.1390838E-2,2.0723374E-1,-9.434509E-3,2.4160953E-1,4.4035202E-1],"split_indices":[0,0,0,8,0,4,5,0,0,0,0,2,0,6,0,0,4,0,8,1,7,0,0,0,0,0,0,0,0,0,0,0,0,0,0],"split_type":[0,0,0,0,0,0,0,0,0,0,0,0,0,0,0,0,0,0,0,0,0,0,0,0,0,0,0,0,0,0,0,0,0,0,0],"sum_hessian":[1.99E2,4.9E1,1.5E2,3.2E1,1.7E1,6.7E1,8.3E1,2.5E1,7E0,1.6E1,1E0,3.5E1,3.2E1,5.4E1,2.9E1,1E1,2.5E1,9E0,2.3E1,3.9E1,1.5E1,1.7E1,1.2E1,8E0,2E0,6E0,1.9E1,6E0,3E0,2E1,3E0,3.7E1,2E0,6E0,9E0],"tree_param":{"num_deleted":"0","num_feature":"10","num_nodes":"35","size_leaf_vector":"1"}},{"base_weights":[2.0387802E-2,-1.2686612E1,4.2278686E0,-1.5016585E1,-7.710182E0,1.3556148E0,6.5026946E0,-8.0060685E-1,-4.9519864E-1,-3.9485E-1,-1.13357164E-1,-1.9166734E-2,2.8142972E0,4.8321066E0,9.348683E0,-3.0141199E0,1.248666E0,-3.570816E-1,4.0184426E0,3.5913754E0,6.9939456E0,3.530946E-1,5.89794E-1,-6.0224235E-2,-3.7191594E-1,-1.7065976E-2,8.713638E-2,-4.485583E-2,3.3862498E-2,2.2020367E-1,4.9463656E-2,8.112674E-2,2.0392771E-1,3.6823854E-1,7.977295E-3],"categories":[],"categories_nodes":[],"categories_segments":[],"categories_sizes":[],"default_left":[0,0,0,0,0,0,0,0,0,0,0,0,0,0,0,0,0,0,0,0,0,0,0,0,0,0,0,0,0,0,0,0,0,0,0],"id":21,"left_children":[1,3,5,7,9,11,13,-1,-1,-1,-1,15,17,19,21,23,25,27,29,31,33,-1,-1,-1,-1,-1,-1,-1,-1,-1,-1,-1,-1,-1,-1],"loss_changes":[1.0746529E4,4.639663E2,9.7780054E2,9.381836E0,3.9978027E-1,1.3641907E2,3.5420215E2,0E0,0E0,0E0,0E0,1.4045921E2,1.27455414E2,1.2240637E2,8.458569E1,7.910871E1,2.101915E1,6.193323E0,2.3678497E1,2.887201E1,4.6977966E1,0E0,0E0,0E0,0E0,0E0,0E0,0E0,0E0,0E0,0E0,0E0,0E0,0E0,0E0],"parents":[2147483647,0,0,1,1,2,2,3,3,4,4,5,5,6,6,11,11,12,12,13,13,14,14,15,15,16,16,17,17,18,18,19,19,20,20],"right_children":[2,4,6,8,10,12,14,-1,-1,-1,-1,16,18,20,22,24,26,28,30,32,34,-1,-1,-1,-1,-1,-1,-1,-1,-1,-1,-1,-1,-1,-1],"split_conditions":[7.7297235E-1,6.9741154E-1,8.991128E-1,5.0305295E-1,7.678556E-1,6.295131E-1,6.990454E-1,-8.0060685E-1,-4.9519864E-1,-3.9485E-1,-1.13357164E-1,8.84635E-1,8.487338E-1,8.994477E-1,9.33124E-1,8.8968974E-1,3.8438845E-1,8.305717E-1,8.041059E-1,3.2471052E-1,9.96039E-1,3.530946E-1,5.89794E-1,-6.0224235E-2,-3.7191594E-1,-1.7065976E-2,8.713638E-2,-4.485583E-2,3.3862498E-2,2.2020367E-1,4.9463656E-2,8.112674E-2,2.0392771E-1,3.6823854E-1,7.977295E-3],"split_indices":[0,0,0,8,0,4,5,0,0,0,0,2,0,6,0,0,4,0,8,4,1,0,0,0,0,0,0,0,0,0,0,0,0,0,0],"split_type":[0,0,0,0,0,0,0,0,0,0,0,0,0,0,0,0,0,0,0,0,0,0,0,0,0,0,0,0,0,0,0,0,0,0,0],"sum_hessian":[1.99E2,4.9E1,1.5E2,3.2E1,1.7E1,6.7E1,8.3E1,2.5E1,7E0,1.6E1,1E0,3.5E1,3.2E1,5.4E1,2.9E1,1E1,2.5E1,9E0,2.3E1,3.6E1,1.8E1,1.7E1,1.2E1,8E0,2E0,6E0,1.9E1,6E0,3E0,2E1,3E0,8E0,2.8E1,1.7E1,1E0],"tree_param":{"num_deleted":"0","num_feature":"10","num_nodes":"35","size_leaf_vector":"1"}},{"base_weights":[1.7851867E-2,-1.2088359E1,4.0264125E0,-1.4203626E1,-3.5733724E-1,1.7129273E0,6.6090307E0,-7.621158E-1,-4.8123923E-1,-1.3790308E0,2.218507E0,2.9118967E0,7.7190194E0,-1.3729502E-1,-8.310669E-1,1.9839579E-1,3.642527E0,2.3895657E-1,1.8261038E0,5.735825E0,9.634158E0,-5.6047387E-2,-5.800438E-3,-2.1642177E-1,6.384497E-2,4.2367045E-2,1.8820716E-1,2.3577118E-2,1.4598967E-1,1.9708692E-1,3.3851862E-1,5.00354E-1,7.7777863E-3],"categories":[],"categories_nodes":[],"categories_segments":[],"categories_sizes":[],"default_left":[0,0,0,0,0,0,0,0,0,0,0,0,0,0,0,0,0,0,0,0,0,0,0,0,0,0,0,0,0,0,0,0,0],"id":22,"left_children":[1,3,5,7,-1,9,11,-1,-1,13,15,17,19,-1,21,23,25,-1,27,29,31,-1,-1,-1,-1,-1,-1,-1,-1,-1,-1,-1,-1],"loss_changes":[9.754368E3,4.2113232E2,8.9088135E2,1.4999512E1,0E0,1.2968109E2,2.688911E2,0E0,0E0,6.7059155E0,2.006449E2,2.7766556E1,1.498374E2,0E0,1.9427772E0,1.5199309E2,1.0747986E1,0E0,1.7882298E1,2.7138916E1,9.034741E1,0E0,0E0,0E0,0E0,0E0,0E0,0E0,0E0,0E0,0E0,0E0,0E0],"parents":[2147483647,0,0,1,1,2,2,3,3,5,5,6,6,9,9,10,10,11,11,12,12,14,14,15,15,16,16,18,18,19,19,20,20],"right_children":[2,4,6,8,-1,10,12,-1,-1,14,16,18,20,-1,22,24,26,-1,28,30,32,-1,-1,-1,-1,-1,-1,-1,-1,-1,-1,-1,-1],"split_conditions":[7.7297235E-1,7.0638657E-1,9.135819E-1,5.0305295E-1,-3.5733724E-1,8.359998E-1,5.215719E-1,-7.621158E-1,-4.8123923E-1,6.051432E-1,5.3620315E-1,2.6771927E-1,9.476823E-1,-1.3729502E-1,6.9971836E-1,8.84635E-1,8.487338E-1,2.3895657E-1,3.2471052E-1,6.574365E-1,9.9918264E-1,-5.6047387E-2,-5.800438E-3,-2.1642177E-1,6.384497E-2,4.2367045E-2,1.8820716E-1,2.3577118E-2,1.4598967E-1,1.9708692E-1,3.3851862E-1,5.00354E-1,7.7777863E-3],"split_indices":[0,0,2,8,0,0,5,0,0,4,4,4,2,0,8,2,0,0,4,4,1,0,0,0,0,0,0,0,0,0,0,0,0],"split_type":[0,0,0,0,0,0,0,0,0,0,0,0,0,0,0,0,0,0,0,0,0,0,0,0,0,0,0,0,0,0,0,0,0],"sum_hessian":[1.99E2,4.9E1,1.5E2,3.3E1,1.6E1,8E1,7E1,2.5E1,8E0,1.1E1,6.9E1,1.7E1,5.3E1,2E0,9E0,2.9E1,4E1,5E0,1.2E1,2.8E1,2.5E1,6E0,3E0,5E0,2.4E1,2E0,3.8E1,6E0,6E0,1.2E1,1.6E1,2.4E1,1E0],"tree_param":{"num_deleted":"0","num_feature":"10","num_nodes":"33","size_leaf_vector":"1"}},{"base_weights":[1.5612259E-2,-1.1515958E1,3.8339095E0,-1.3530015E1,-3.405217E-1,1.2130078E0,5.9099503E0,-7.254756E-1,-4.5985118E-1,-5.085161E-2,2.5550056E0,4.481335E0,8.75994E0,-2.7862825E0,1.108402E0,-5.398797E-1,3.5669641E0,3.8519185E0,4.6471468E-1,3.3297482E-1,5.4152685E-1,-5.283788E-2,-3.5230485E-1,1.2945731E-1,2.673607E-2,-5.2570343E-2,3.9811707E-3,1.9529551E-1,4.0550996E-2,2.0080328E-1,-1.1127981E-2],"categories":[],"categories_nodes":[],"categories_segments":[],"categories_sizes":[],"default_left":[0,0,0,0,0,0,0,0,0,0,0,0,0,0,0,0,0,0,0,0,0,0,0,0,0,0,0,0,0,0,0],"id":23,"left_children":[1,3,5,7,-1,9,11,-1,-1,13,15,17,19,21,23,25,27,29,-1,-1,-1,-1,-1,-1,-1,-1,-1,-1,-1,-1,-1],"loss_changes":[8.850344E3,3.8171436E2,8.1443726E2,1.0856934E1,0E0,1.15464485E2,3.0275293E2,0E0,0E0,1.17246414E2,1.05278275E2,1.3990186E2,4.5301758E1,7.359599E1,2.070186E1,2.9357505E0,2.018515E1,3.6340942E1,0E0,0E0,0E0,0E0,0E0,0E0,0E0,0E0,0E0,0E0,0E0,0E0,0E0],"parents":[2147483647,0,0,1,1,2,2,3,3,5,5,6,6,9,9,10,10,11,11,12,12,13,13,14,14,15,15,16,16,17,17],"right_children":[2,4,6,8,-1,10,12,-1,-1,14,16,18,20,22,24,26,28,30,-1,-1,-1,-1,-1,-1,-1,-1,-1,-1,-1,-1,-1],"split_conditions":[7.7297235E-1,7.0638657E-1,8.991128E-1,5.0305295E-1,-3.405217E-1,6.295131E-1,7.1199924E-1,-7.254756E-1,-4.5985118E-1,8.84635E-1,8.420804E-1,9.99298E-1,9.33124E-1,8.8968974E-1,8.9305633E-1,6.875977E-1,8.041059E-1,9.9918264E-1,4.6471468E-1,3.3297482E-1,5.4152685E-1,-5.283788E-2,-3.5230485E-1,1.2945731E-1,2.673607E-2,-5.2570343E-2,3.9811707E-3,1.9529551E-1,4.0550996E-2,2.0080328E-1,-1.1127981E-2],"split_indices":[0,0,0,8,0,4,5,0,0,2,0,0,0,0,0,8,8,1,0,0,0,0,0,0,0,0,0,0,0,0,0],"split_type":[0,0,0,0,0,0,0,0,0,0,0,0,0,0,0,0,0,0,0,0,0,0,0,0,0,0,0,0,0,0,0],"sum_hessian":[1.99E2,4.9E1,1.5E2,3.3E1,1.6E1,6.7E1,8.3E1,2.5E1,8E0,3.5E1,3.2E1,5.7E1,2.6E1,1E1,2.5E1,8E0,2.4E1,5.2E1,5E0,1.5E1,1.1E1,8E0,2E0,6E0,1.9E1,4E0,4E0,2.1E1,3E0,5E1,2E0],"tree_param":{"num_deleted":"0","num_feature":"10","num_nodes":"31","size_leaf_vector":"1"}},{"base_weights":[1.4537125E-2,-1.0970676E1,3.651929E0,-1.2888374E1,-6.4899487E0,1.5386184E0,6.011453E0,-6.905968E-1,-4.3941322E-1,-3.6025506E-1,-1.9889933E-1,-1.2925352E0,2.0019789E0,2.6111212E0,7.0335736E0,-1.3095704E-1,-7.653E-1,-2.4197614E-2,3.1998148E0,2.2063331E-1,1.5787835E0,5.218933E0,8.787074E0,-5.138866E-2,-5.732346E-3,-2.002116E-1,5.3118307E-2,8.6138576E-2,1.740096E-1,1.5474592E-2,1.3112673E-1,1.7872284E-1,3.0847389E-1,5.4931134E-1,3.0586776E-1],"categories":[],"categories_nodes":[],"categories_segments":[],"categories_sizes":[],"default_left":[0,0,0,0,0,0,0,0,0,0,0,0,0,0,0,0,0,0,0,0,0,0,0,0,0,0,0,0,0,0,0,0,0,0,0],"id":24,"left_children":[1,3,5,7,9,11,13,-1,-1,-1,-1,15,17,19,21,-1,23,25,27,-1,29,31,33,-1,-1,-1,-1,-1,-1,-1,-1,-1,-1,-1,-1],"loss_changes":[8.0315693E3,3.4598877E2,7.436981E2,7.3652344E0,1.8775635E0,1.08847015E2,2.2839844E2,0E0,0E0,0E0,0E0,6.388769E0,1.699693E2,2.6509804E1,1.2596753E2,0E0,1.5899582E0,1.2101711E2,1.2226166E1,0E0,1.6411072E1,2.3278748E1,8.5442505E1,0E0,0E0,0E0,0E0,0E0,0E0,0E0,0E0,0E0,0E0,0E0,0E0],"parents":[2147483647,0,0,1,1,2,2,3,3,4,4,5,5,6,6,11,11,12,12,13,13,14,14,16,16,17,17,18,18,20,20,21,21,22,22],"right_children":[2,4,6,8,10,12,14,-1,-1,-1,-1,16,18,20,22,-1,24,26,28,-1,30,32,34,-1,-1,-1,-1,-1,-1,-1,-1,-1,-1,-1,-1],"split_conditions":[7.7297235E-1,7.0638657E-1,9.135819E-1,5.0305295E-1,7.540431E-1,8.359998E-1,5.215719E-1,-6.905968E-1,-4.3941322E-1,-3.6025506E-1,-1.9889933E-1,6.051432E-1,6.3130456E-1,2.6771927E-1,9.476823E-1,-1.3095704E-1,6.9971836E-1,8.84635E-1,5.6382567E-1,2.2063331E-1,3.2471052E-1,6.574365E-1,9.459306E-1,-5.138866E-2,-5.732346E-3,-2.002116E-1,5.3118307E-2,8.6138576E-2,1.740096E-1,1.5474592E-2,1.3112673E-1,1.7872284E-1,3.0847389E-1,5.4931134E-1,3.0586776E-1],"split_indices":[0,0,2,8,0,0,5,0,0,0,0,4,5,4,2,0,8,2,4,0,4,4,1,0,0,0,0,0,0,0,0,0,0,0,0],"split_type":[0,0,0,0,0,0,0,0,0,0,0,0,0,0,0,0,0,0,0,0,0,0,0,0,0,0,0,0,0,0,0,0,0,0,0],"sum_hessian":[1.99E2,4.9E1,1.5E2,3.3E1,1.6E1,8E1,7E1,2.5E1,8E0,1.1E1,5E0,1.1E1,6.9E1,1.7E1,5.3E1,2E0,9E0,2.6E1,4.3E1,5E0,1.2E1,2.8E1,2.5E1,6E0,3E0,5E0,2.1E1,8E0,3.5E1,6E0,6E0,1.2E1,1.6E1,1.2E1,1.3E1],"tree_param":{"num_deleted":"0","num_feature":"10","num_nodes":"35","size_leaf_vector":"1"}},{"base_weights":[1.3537674E-2,-1.059739E1,3.4340765E0,-6.6401595E-1,-7.7132483E0,1.0167933E0,5.3788204E0,-4.2497388E-1,-2.182493E-1,-1.5433413E0,1.5289454E0,4.0634184E0,8.005283E0,-5.118378E-1,-1.9951134E0,-5.848628E-1,2.6568673E0,3.4902396E0,4.224631E-1,3.0375543E-1,4.955871E-1,-3.4081016E-2,-8.572134E-3,-1.2992722E-1,-3.710232E-2,-1.9186948E-1,3.3569433E-2,1.05162024E-1,2.2350311E-1,1.823034E-1,-1.6112773E-2],"categories":[],"categories_nodes":[],"categories_segments":[],"categories_sizes":[],"default_left":[0,0,0,0,0,0,0,0,0,0,0,0,0,0,0,0,0,0,0,0,0,0,0,0,0,0,0,0,0,0,0],"id":25,"left_children":[1,3,5,-1,7,9,11,-1,-1,13,15,17,19,21,23,25,27,29,-1,-1,-1,-1,-1,-1,-1,-1,-1,-1,-1,-1,-1],"loss_changes":[7.2954106E3,2.767251E2,7.090823E2,0E0,3.1345093E1,9.2830986E1,2.5767896E2,0E0,0E0,4.570879E0,1.3983809E2,1.163147E2,3.913965E1,1.7210698E-1,4.1208725E0,8.83822E1,2.874405E1,3.2661987E1,0E0,0E0,0E0,0E0,0E0,0E0,0E0,0E0,0E0,0E0,0E0,0E0,0E0],"parents":[2147483647,0,0,1,1,2,2,4,4,5,5,6,6,9,9,10,10,11,11,12,12,13,13,14,14,15,15,16,16,17,17],"right_children":[2,4,6,-1,8,10,12,-1,-1,14,16,18,20,22,24,26,28,30,-1,-1,-1,-1,-1,-1,-1,-1,-1,-1,-1,-1,-1],"split_conditions":[7.678556E-1,6.403777E-1,8.991128E-1,-6.6401595E-1,7.492966E-1,8.305717E-1,7.1199924E-1,-4.2497388E-1,-2.182493E-1,7.039583E-1,5.012893E-1,9.99298E-1,9.33124E-1,6.295131E-1,9.350287E-1,8.84635E-1,8.762899E-1,9.9918264E-1,4.224631E-1,3.0375543E-1,4.955871E-1,-3.4081016E-2,-8.572134E-3,-1.2992722E-1,-3.710232E-2,-1.9186948E-1,3.3569433E-2,1.05162024E-1,2.2350311E-1,1.823034E-1,-1.6112773E-2],"split_indices":[0,5,0,0,0,0,5,0,0,7,4,0,0,4,5,2,7,1,0,0,0,0,0,0,0,0,0,0,0,0,0],"split_type":[0,0,0,0,0,0,0,0,0,0,0,0,0,0,0,0,0,0,0,0,0,0,0,0,0,0,0,0,0,0,0],"sum_hessian":[1.99E2,4.8E1,1.51E2,2.3E1,2.5E1,6.8E1,8.3E1,1.9E1,6E0,1.1E1,5.7E1,5.7E1,2.6E1,4E0,7E0,2E1,3.7E1,5.2E1,5E0,1.5E1,1.1E1,2E0,2E0,4E0,3E0,5E0,1.5E1,3E1,7E0,5E1,2E0],"tree_param":{"num_deleted":"0","num_feature":"10","num_nodes":"31","size_leaf_vector":"1"}},{"base_weights":[1.3069229E-2,-9.9602E0,3.3153899E0,-1.17030115E1,-5.8886833E0,1.7983131E0,6.0866203E0,-6.263905E-1,-4.009963E-1,-3.0222926E-1,-8.485641E-2,5.097122E-1,2.953208E0,4.6978828E-1,4.5331216E0,1.3075738E0,-2.2928743E0,1.7024323E0,3.9645004E0,5.468157E0,2.31435E0,-5.338493E-2,1.2224593E-1,-3.2749203E-1,-3.0956099E-2,9.910863E-2,9.351807E-3,2.4072194E-1,1.215023E-1,3.0275455E-1,1.251264E-1,2.0384483E-1,3.51573E-2],"categories":[],"categories_nodes":[],"categories_segments":[],"categories_sizes":[],"default_left":[0,0,0,0,0,0,0,0,0,0,0,0,0,0,0,0,0,0,0,0,0,0,0,0,0,0,0,0,0,0,0,0,0],"id":26,"left_children":[1,3,5,7,9,11,13,-1,-1,-1,-1,15,17,-1,19,21,23,25,27,29,31,-1,-1,-1,-1,-1,-1,-1,-1,-1,-1,-1,-1],"loss_changes":[6.620009E3,2.858789E2,6.238839E2,2.8129883E0,8.5058594E-1,1.4582639E2,2.2986768E2,0E0,0E0,0E0,0E0,1.1032976E2,5.9025513E1,0E0,6.6180664E1,1.0526759E2,7.432103E1,1.0227203E1,2.4818024E1,3.0103271E1,3.405104E1,0E0,0E0,0E0,0E0,0E0,0E0,0E0,0E0,0E0,0E0,0E0,0E0],"parents":[2147483647,0,0,1,1,2,2,3,3,4,4,5,5,6,6,11,11,12,12,14,14,15,15,16,16,17,17,18,18,19,19,20,20],"right_children":[2,4,6,8,10,12,14,-1,-1,-1,-1,16,18,-1,20,22,24,26,28,30,32,-1,-1,-1,-1,-1,-1,-1,-1,-1,-1,-1,-1],"split_conditions":[7.7297235E-1,7.0638657E-1,9.225744E-1,5.0305295E-1,7.678556E-1,8.938177E-1,9.459306E-1,-6.263905E-1,-4.009963E-1,-3.0222926E-1,-8.485641E-2,8.93222E-1,5.16699E-1,4.6978828E-1,9.572774E-1,8.420804E-1,8.84635E-1,9.2039067E-1,6.593049E-1,8.9966667E-1,2.6771927E-1,-5.338493E-2,1.2224593E-1,-3.2749203E-1,-3.0956099E-2,9.910863E-2,9.351807E-3,2.4072194E-1,1.215023E-1,3.0275455E-1,1.251264E-1,2.0384483E-1,3.51573E-2],"split_indices":[0,0,0,8,0,2,1,0,0,0,0,0,7,0,0,0,2,0,8,8,4,0,0,0,0,0,0,0,0,0,0,0,0],"split_type":[0,0,0,0,0,0,0,0,0,0,0,0,0,0,0,0,0,0,0,0,0,0,0,0,0,0,0,0,0,0,0,0,0],"sum_hessian":[1.99E2,4.9E1,1.5E2,3.3E1,1.6E1,9.8E1,5.2E1,2.5E1,8E0,1.5E1,1E0,4.7E1,5.1E1,1.5E1,3.7E1,3.7E1,1E1,2.4E1,2.7E1,2.5E1,1.2E1,1.2E1,2.5E1,2E0,8E0,2E1,4E0,1.6E1,1.1E1,2E1,5E0,5E0,7E0],"tree_param":{"num_deleted":"0","num_feature":"10","num_nodes":"33","size_leaf_vector":"1"}},{"base_weights":[1.19326785E-2,-9.490479E0,3.1583478E0,-1.1148079E1,-5.6170177E0,1.710226E0,5.8037386E0,-5.962757E-1,-3.8317403E-1,-3.185653E-1,-1.8146384E-1,4.78192E-1,2.8145993E0,8.955339E0,4.324019E0,1.2440041E0,-2.2108126E0,1.2511749E0,3.538229E0,2.2844009E-1,4.8080856E-1,5.2112103E0,2.2170186E0,-5.7726603E-2,1.13197304E-1,-3.1657538E-1,-2.9580096E-2,7.722636E-2,8.977662E-3,2.163692E-1,1.1653228E-1,2.8833792E-1,1.19912975E-1,1.953514E-1,3.3619214E-2],"categories":[],"categories_nodes":[],"categories_segments":[],"categories_sizes":[],"default_left":[0,0,0,0,0,0,0,0,0,0,0,0,0,0,0,0,0,0,0,0,0,0,0,0,0,0,0,0,0,0,0,0,0,0,0],"id":27,"left_children":[1,3,5,7,9,11,13,-1,-1,-1,-1,15,17,19,21,23,25,27,29,-1,-1,31,33,-1,-1,-1,-1,-1,-1,-1,-1,-1,-1,-1,-1],"loss_changes":[6.0096816E3,2.5841357E2,5.685325E2,7.163086E-1,2.3653564E0,1.3335599E2,2.0844165E2,0E0,0E0,0E0,0E0,1.0159534E2,5.440274E1,2.4458008E0,5.948053E1,9.557577E1,6.964926E1,5.3812084E0,2.3268372E1,0E0,0E0,2.680072E1,3.130878E1,0E0,0E0,0E0,0E0,0E0,0E0,0E0,0E0,0E0,0E0,0E0,0E0],"parents":[2147483647,0,0,1,1,2,2,3,3,4,4,5,5,6,6,11,11,12,12,13,13,14,14,15,15,16,16,17,17,18,18,21,21,22,22],"right_children":[2,4,6,8,10,12,14,-1,-1,-1,-1,16,18,20,22,24,26,28,30,-1,-1,32,34,-1,-1,-1,-1,-1,-1,-1,-1,-1,-1,-1,-1],"split_conditions":[7.7297235E-1,7.0638657E-1,9.225744E-1,5.0305295E-1,7.514715E-1,8.938177E-1,9.459306E-1,-5.962757E-1,-3.8317403E-1,-3.185653E-1,-1.8146384E-1,8.93222E-1,6.2585974E-1,9.306178E-1,9.572774E-1,8.359998E-1,8.84635E-1,9.2039067E-1,6.593049E-1,2.2844009E-1,4.8080856E-1,8.9966667E-1,2.6771927E-1,-5.7726603E-2,1.13197304E-1,-3.1657538E-1,-2.9580096E-2,7.722636E-2,8.977662E-3,2.163692E-1,1.1653228E-1,2.8833792E-1,1.19912975E-1,1.953514E-1,3.3619214E-2],"split_indices":[0,0,0,8,0,2,1,0,0,0,0,0,5,0,0,0,2,0,8,0,0,8,4,0,0,0,0,0,0,0,0,0,0,0,0],"split_type":[0,0,0,0,0,0,0,0,0,0,0,0,0,0,0,0,0,0,0,0,0,0,0,0,0,0,0,0,0,0,0,0,0,0,0],"sum_hessian":[1.99E2,4.9E1,1.5E2,3.3E1,1.6E1,9.8E1,5.2E1,2.5E1,8E0,1E1,6E0,4.7E1,5.1E1,1.5E1,3.7E1,3.7E1,1E1,1.7E1,3.4E1,3E0,1.2E1,2.5E1,1.2E1,1.1E1,2.6E1,2E0,8E0,1.3E1,4E0,1.9E1,1.5E1,2E1,5E0,5E0,7E0],"tree_param":{"num_deleted":"0","num_feature":"10","num_nodes":"35","size_leaf_vector":"1"}},{"base_weights":[1.1314316E-2,-9.045544E0,3.0101988E0,-1.0619476E1,-5.365587E0,1.6260146E0,5.5389543E0,-6.4784795E-1,-4.5528254E-1,-3.040854E-1,-1.7368709E-1,4.4823107E-1,2.68193E0,8.551904E0,4.124582E0,1.1832681E0,-2.131736E0,1.5354493E0,3.6097903E0,2.1987362E-1,4.586176E-1,4.966345E0,2.1237805E0,-4.8913926E-2,1.1092656E-1,-3.060229E-1,-2.8265128E-2,8.93437E-2,8.618775E-3,2.1921173E-1,1.1059227E-1,2.7460715E-1,1.1491636E-1,1.8721148E-1,3.214855E-2],"categories":[],"categories_nodes":[],"categories_segments":[],"categories_sizes":[],"default_left":[0,0,0,0,0,0,0,0,0,0,0,0,0,0,0,0,0,0,0,0,0,0,0,0,0,0,0,0,0,0,0,0,0,0,0],"id":28,"left_children":[1,3,5,7,9,11,13,-1,-1,-1,-1,15,17,19,21,23,25,27,29,-1,-1,31,33,-1,-1,-1,-1,-1,-1,-1,-1,-1,-1,-1,-1],"loss_changes":[5.459323E3,2.3262036E2,5.195332E2,2.3291016E0,1.9051208E0,1.2191821E2,1.9058289E2,0E0,0E0,0E0,0E0,9.354824E1,4.977359E1,9.066162E-1,5.345221E1,8.720556E1,6.526884E1,8.259743E0,2.0616394E1,0E0,0E0,2.3851074E1,2.8787064E1,0E0,0E0,0E0,0E0,0E0,0E0,0E0,0E0,0E0,0E0,0E0,0E0],"parents":[2147483647,0,0,1,1,2,2,3,3,4,4,5,5,6,6,11,11,12,12,13,13,14,14,15,15,16,16,17,17,18,18,21,21,22,22],"right_children":[2,4,6,8,10,12,14,-1,-1,-1,-1,16,18,20,22,24,26,28,30,-1,-1,32,34,-1,-1,-1,-1,-1,-1,-1,-1,-1,-1,-1,-1],"split_conditions":[7.7297235E-1,7.0638657E-1,9.225744E-1,4.2952457E-1,7.514715E-1,8.938177E-1,9.459306E-1,-6.4784795E-1,-4.5528254E-1,-3.040854E-1,-1.7368709E-1,8.93222E-1,5.16699E-1,9.306178E-1,9.572774E-1,8.420804E-1,8.84635E-1,9.2039067E-1,6.593049E-1,2.1987362E-1,4.586176E-1,8.9966667E-1,2.6771927E-1,-4.8913926E-2,1.1092656E-1,-3.060229E-1,-2.8265128E-2,8.93437E-2,8.618775E-3,2.1921173E-1,1.1059227E-1,2.7460715E-1,1.1491636E-1,1.8721148E-1,3.214855E-2],"split_indices":[0,0,0,7,0,2,1,0,0,0,0,0,7,0,0,0,2,0,8,0,0,8,4,0,0,0,0,0,0,0,0,0,0,0,0],"split_type":[0,0,0,0,0,0,0,0,0,0,0,0,0,0,0,0,0,0,0,0,0,0,0,0,0,0,0,0,0,0,0,0,0,0,0],"sum_hessian":[1.99E2,4.9E1,1.5E2,3.3E1,1.6E1,9.8E1,5.2E1,1E1,2.3E1,1E1,6E0,4.7E1,5.1E1,1.5E1,3.7E1,3.7E1,1E1,2.4E1,2.7E1,3E0,1.2E1,2.5E1,1.2E1,1.2E1,2.5E1,2E0,8E0,2E1,4E0,1.6E1,1.1E1,2E1,5E0,5E0,7E0],"tree_param":{"num_deleted":"0","num_feature":"10","num_nodes":"35","size_leaf_vector":"1"}},{"base_weights":[1.0057297E-2,-8.6248865E0,2.8692434E0,-5.4778504E-1,-6.233611E0,7.0034397E-1,4.331494E0,-3.5557634E-1,-1.8438052E-1,-4.607644E-1,1.8763157E0,3.527781E0,7.350357E0,-2.3629997E0,5.1129705E-1,-2.6667023E-1,2.765113E0,2.8894138E0,5.3178244E0,5.829772E0,5.068962E-1,-2.8976822E-2,-2.669588E-1,1.02820694E-1,-9.832382E-3,-3.9598085E-2,1.0775885E-2,1.4907806E-1,-4.4507217E-2,6.098334E-2,1.6352354E-1,1.5665556E-1,3.0745444E-1,8.013E-2,3.015831E-1],"categories":[],"categories_nodes":[],"categories_segments":[],"categories_sizes":[],"default_left":[0,0,0,0,0,0,0,0,0,0,0,0,0,0,0,0,0,0,0,0,0,0,0,0,0,0,0,0,0,0,0,0,0,0,0],"id":29,"left_children":[1,3,5,-1,7,9,11,-1,-1,13,15,17,19,21,23,25,27,29,31,33,-1,-1,-1,-1,-1,-1,-1,-1,-1,-1,-1,-1,-1,-1,-1],"loss_changes":[4.9625293E3,2.103872E2,4.75859E2,0E0,3.4125122E1,8.552124E1,1.9243652E2,0E0,0E0,6.0379066E1,5.978248E1,6.8052124E1,1.7195496E1,5.529266E1,2.446925E1,2.7035735E0,2.00598E1,3.164212E1,1.3423553E1,2.2815857E0,0E0,0E0,0E0,0E0,0E0,0E0,0E0,0E0,0E0,0E0,0E0,0E0,0E0,0E0,0E0],"parents":[2147483647,0,0,1,1,2,2,4,4,5,5,6,6,9,9,10,10,11,11,12,12,13,13,14,14,15,15,16,16,17,17,18,18,19,19],"right_children":[2,4,6,-1,8,10,12,-1,-1,14,16,18,20,22,24,26,28,30,32,34,-1,-1,-1,-1,-1,-1,-1,-1,-1,-1,-1,-1,-1,-1,-1],"split_conditions":[7.7297235E-1,6.403777E-1,9.0059674E-1,-5.4778504E-1,7.4098015E-1,6.295131E-1,6.642621E-1,-3.5557634E-1,-1.8438052E-1,8.84635E-1,8.487338E-1,9.039013E-1,9.514791E-1,8.863979E-1,8.9305633E-1,6.875977E-1,8.9792335E-1,5.121814E-1,3.1279406E-1,9.1136605E-1,5.068962E-1,-2.8976822E-2,-2.669588E-1,1.02820694E-1,-9.832382E-3,-3.9598085E-2,1.0775885E-2,1.4907806E-1,-4.4507217E-2,6.098334E-2,1.6352354E-1,1.5665556E-1,3.0745444E-1,8.013E-2,3.015831E-1],"split_indices":[0,5,2,0,0,4,7,0,0,2,0,6,0,0,0,8,2,5,7,0,0,0,0,0,0,0,0,0,0,0,0,0,0,0,0],"split_type":[0,0,0,0,0,0,0,0,0,0,0,0,0,0,0,0,0,0,0,0,0,0,0,0,0,0,0,0,0,0,0,0,0,0,0],"sum_hessian":[1.99E2,4.9E1,1.5E2,2.3E1,2.6E1,6.1E1,8.9E1,1.8E1,8E0,3.1E1,3E1,7.2E1,1.7E1,1E1,2.1E1,9E0,2.1E1,5.5E1,1.7E1,1.3E1,4E0,7E0,3E0,6E0,1.5E1,4E0,5E0,2E1,1E0,1.1E1,4.4E1,6E0,1.1E1,1E0,1.2E1],"tree_param":{"num_deleted":"0","num_feature":"10","num_nodes":"35","size_leaf_vector":"1"}},{"base_weights":[1.136467E-2,-8.326527E0,2.6991627E0,-5.2153677E-1,-6.0639296E0,6.087799E-1,4.13244E0,-6.7746654E0,-1.8089704E-1,-4.4407034E-1,1.6426058E0,3.0819716E0,6.2357707E0,-9.728088E-2,-3.467428E-1,-2.271755E0,4.8995695E-1,-4.847315E-1,2.6316106E0,2.650567E0,3.3333272E-1,2.6435065E-1,4.8662034E-1,-2.7709102E-2,-2.5694808E-1,9.841439E-2,-9.3717575E-3,-5.4760743E-2,1.0327022E-2,1.5025502E-1,9.981537E-3,9.543385E-2,1.7020987E-1],"categories":[],"categories_nodes":[],"categories_segments":[],"categories_sizes":[],"default_left":[0,0,0,0,0,0,0,0,0,0,0,0,0,0,0,0,0,0,0,0,0,0,0,0,0,0,0,0,0,0,0,0,0],"id":30,"left_children":[1,3,5,-1,7,9,11,13,-1,15,17,19,21,-1,-1,23,25,27,29,31,-1,-1,-1,-1,-1,-1,-1,-1,-1,-1,-1,-1,-1],"loss_changes":[4.5045884E3,1.7003638E2,4.528911E2,0E0,2.0689392E1,6.930265E1,1.7963513E2,1.2052612E0,0E0,5.574049E1,6.860192E1,7.820935E1,4.4750977E1,0E0,0E0,5.1323082E1,2.2399937E1,4.868316E0,1.9383118E1,2.5371857E1,0E0,0E0,0E0,0E0,0E0,0E0,0E0,0E0,0E0,0E0,0E0,0E0,0E0],"parents":[2147483647,0,0,1,1,2,2,4,4,5,5,6,6,7,7,9,9,10,10,11,11,12,12,15,15,16,16,17,17,18,18,19,19],"right_children":[2,4,6,-1,8,10,12,14,-1,16,18,20,22,-1,-1,24,26,28,30,32,-1,-1,-1,-1,-1,-1,-1,-1,-1,-1,-1,-1,-1],"split_conditions":[7.678556E-1,6.403777E-1,9.0059674E-1,-5.2153677E-1,7.4098015E-1,6.295131E-1,7.1199924E-1,6.7713267E-1,-1.8089704E-1,8.84635E-1,8.487338E-1,9.99298E-1,9.514791E-1,-9.728088E-2,-3.467428E-1,8.863979E-1,8.9305633E-1,6.875977E-1,8.041059E-1,8.8200957E-1,3.3333272E-1,2.6435065E-1,4.8662034E-1,-2.7709102E-2,-2.5694808E-1,9.841439E-2,-9.3717575E-3,-5.4760743E-2,1.0327022E-2,1.5025502E-1,9.981537E-3,9.543385E-2,1.7020987E-1],"split_indices":[0,5,2,0,0,4,5,0,0,2,0,0,0,0,0,0,0,8,8,6,0,0,0,0,0,0,0,0,0,0,0,0,0],"split_type":[0,0,0,0,0,0,0,0,0,0,0,0,0,0,0,0,0,0,0,0,0,0,0,0,0,0,0,0,0,0,0,0,0],"sum_hessian":[1.99E2,4.8E1,1.51E2,2.3E1,2.5E1,6.2E1,8.9E1,1.8E1,7E0,3.1E1,3.1E1,6.1E1,2.8E1,1E0,1.7E1,1E1,2.1E1,1E1,2.1E1,5.6E1,5E0,2.4E1,4E0,7E0,3E0,6E0,1.5E1,5E0,5E0,1.8E1,3E0,3E1,2.6E1],"tree_param":{"num_deleted":"0","num_feature":"10","num_nodes":"33","size_leaf_vector":"1"}},{"base_weights":[1.14151E-2,-7.8292317E0,2.6075802E0,-9.198362E0,-4.630428E0,1.3917743E0,4.8294144E0,-5.697951E-1,-3.903946E-1,-2.5673562E-1,-1.4250603E-1,4.349298E-1,2.3993607E0,7.505866E0,3.5753973E0,-2.184046E0,1.1104965E0,-2.3947755E-1,3.0144637E0,2.1230637E-1,4.1193008E-1,4.325894E0,1.7993739E0,-2.6496792E-2,-2.4731274E-1,8.375535E-2,4.415512E-3,-3.180529E-2,1.4218598E-2,1.6221598E-1,9.607315E-3,2.4005716E-1,9.707692E-2,1.6800906E-1,2.0192338E-2],"categories":[],"categories_nodes":[],"categories_segments":[],"categories_sizes":[],"default_left":[0,0,0,0,0,0,0,0,0,0,0,0,0,0,0,0,0,0,0,0,0,0,0,0,0,0,0,0,0,0,0,0,0,0,0],"id":31,"left_children":[1,3,5,7,9,11,13,-1,-1,-1,-1,15,17,19,21,23,25,27,29,-1,-1,31,33,-1,-1,-1,-1,-1,-1,-1,-1,-1,-1,-1,-1],"loss_changes":[4.091538E3,1.7638696E2,4.0117773E2,1.4912598E1,6.277466E-1,9.4402695E1,1.5104822E2,0E0,0E0,0E0,0E0,9.4428604E1,7.863342E1,3.234314E0,4.286624E1,4.763777E1,2.4091835E1,2.258626E0,2.467694E1,0E0,0E0,2.0140686E1,2.6958942E1,0E0,0E0,0E0,0E0,0E0,0E0,0E0,0E0,0E0,0E0,0E0,0E0],"parents":[2147483647,0,0,1,1,2,2,3,3,4,4,5,5,6,6,11,11,12,12,13,13,14,14,15,15,16,16,17,17,18,18,21,21,22,22],"right_children":[2,4,6,8,10,12,14,-1,-1,-1,-1,16,18,20,22,24,26,28,30,-1,-1,32,34,-1,-1,-1,-1,-1,-1,-1,-1,-1,-1,-1,-1],"split_conditions":[7.7297235E-1,7.0638657E-1,9.225744E-1,4.2952457E-1,7.540431E-1,6.295131E-1,9.459306E-1,-5.697951E-1,-3.903946E-1,-2.5673562E-1,-1.4250603E-1,8.84635E-1,8.487338E-1,9.352361E-1,9.572774E-1,8.863979E-1,7.167118E-1,8.2044595E-1,8.041059E-1,2.1230637E-1,4.1193008E-1,8.9966667E-1,2.6771927E-1,-2.6496792E-2,-2.4731274E-1,8.375535E-2,4.415512E-3,-3.180529E-2,1.4218598E-2,1.6221598E-1,9.607315E-3,2.4005716E-1,9.707692E-2,1.6800906E-1,2.0192338E-2],"split_indices":[0,0,0,7,0,4,1,0,0,0,0,2,0,0,0,0,8,0,8,0,0,8,4,0,0,0,0,0,0,0,0,0,0,0,0],"split_type":[0,0,0,0,0,0,0,0,0,0,0,0,0,0,0,0,0,0,0,0,0,0,0,0,0,0,0,0,0,0,0,0,0,0,0],"sum_hessian":[1.99E2,4.9E1,1.5E2,3.3E1,1.6E1,9.8E1,5.2E1,1E1,2.3E1,1.1E1,5E0,5.1E1,4.7E1,1.5E1,3.7E1,1E1,4.1E1,9E0,3.8E1,4E0,1.1E1,2.5E1,1.2E1,7E0,3E0,2.6E1,1.5E1,5E0,4E0,3.5E1,3E0,2E1,5E0,5E0,7E0],"tree_param":{"num_deleted":"0","num_feature":"10","num_nodes":"35","size_leaf_vector":"1"}},{"base_weights":[9.638291E-3,-7.46496E0,2.4846072E0,-8.766685E0,-4.4223967E0,1.3218682E0,4.6096363E0,-5.438954E-1,-3.716881E-1,-2.4973403E-1,-1.4456613E-1,4.0961397E-1,2.2826045E0,7.169589E0,3.4104555E0,-2.0997398E0,1.057073E0,-2.2926636E-1,2.8681457E0,2.0381394E-1,3.9305013E-1,2.5155005E0,2.4690111E-1,-3.827913E-2,-2.701149E-1,8.2680605E-2,8.491008E-3,-3.45517E-2,9.687551E-3,7.3156044E-2,1.6839327E-1,1.3972902E-1,-2.7781932E-2],"categories":[],"categories_nodes":[],"categories_segments":[],"categories_sizes":[],"default_left":[0,0,0,0,0,0,0,0,0,0,0,0,0,0,0,0,0,0,0,0,0,0,0,0,0,0,0,0,0,0,0,0,0],"id":32,"left_children":[1,3,5,7,9,11,13,-1,-1,-1,-1,15,17,19,21,23,25,27,29,-1,-1,31,-1,-1,-1,-1,-1,-1,-1,-1,-1,-1,-1],"loss_changes":[3.718427E3,1.5925928E2,3.670058E2,1.481543E1,4.543152E-1,8.583217E1,1.3825024E2,0E0,0E0,0E0,0E0,8.670418E1,7.125615E1,2.1765137E0,3.952835E1,4.433154E1,2.1948975E1,2.0872455E0,2.2455048E1,0E0,0E0,2.3837204E1,0E0,0E0,0E0,0E0,0E0,0E0,0E0,0E0,0E0,0E0,0E0],"parents":[2147483647,0,0,1,1,2,2,3,3,4,4,5,5,6,6,11,11,12,12,13,13,14,14,15,15,16,16,17,17,18,18,21,21],"right_children":[2,4,6,8,10,12,14,-1,-1,-1,-1,16,18,20,22,24,26,28,30,-1,-1,32,-1,-1,-1,-1,-1,-1,-1,-1,-1,-1,-1],"split_conditions":[7.7297235E-1,7.0638657E-1,9.225744E-1,4.2952457E-1,7.514715E-1,6.295131E-1,9.459306E-1,-5.438954E-1,-3.716881E-1,-2.4973403E-1,-1.4456613E-1,8.84635E-1,8.487338E-1,9.352361E-1,6.344894E-1,8.8968974E-1,7.08543E-1,6.875977E-1,7.1079403E-1,2.0381394E-1,3.9305013E-1,9.9918264E-1,2.4690111E-1,-3.827913E-2,-2.701149E-1,8.2680605E-2,8.491008E-3,-3.45517E-2,9.687551E-3,7.3156044E-2,1.6839327E-1,1.3972902E-1,-2.7781932E-2],"split_indices":[0,0,0,7,0,4,1,0,0,0,0,2,0,0,5,0,8,8,5,0,0,1,0,0,0,0,0,0,0,0,0,0,0],"split_type":[0,0,0,0,0,0,0,0,0,0,0,0,0,0,0,0,0,0,0,0,0,0,0,0,0,0,0,0,0,0,0,0,0],"sum_hessian":[1.99E2,4.9E1,1.5E2,3.3E1,1.6E1,9.8E1,5.2E1,1E1,2.3E1,1E1,6E0,5.1E1,4.7E1,1.5E1,3.7E1,1E1,4.1E1,9E0,3.8E1,4E0,1.1E1,2.5E1,1.2E1,8E0,2E0,2.4E1,1.7E1,4E0,5E0,1.1E1,2.7E1,2.3E1,2E0],"tree_param":{"num_deleted":"0","num_feature":"10","num_nodes":"33","size_leaf_vector":"1"}},{"base_weights":[7.3834993E-3,-7.117908E0,2.3667026E0,-9.0541E0,-5.133222E0,6.8402344E-1,3.7006965E0,-2.8796062E-1,-4.9162197E-1,-5.8449564E0,-1.5301573E-1,-1.7087215E-1,1.5959089E0,2.7150376E0,5.680975E0,-7.5796895E-2,-3.000619E-1,-2.0227854E0,6.1920166E-1,-2.2029266E-1,2.2861633E0,2.3238451E0,2.859033E-1,2.3889278E-1,4.3495652E-1,-2.3662949E-2,-2.3080711E-1,9.254707E-2,7.856636E-3,-2.9409537E-2,1.3262177E-2,1.2962589E-1,5.3131105E-3,1.2232856E-1,-2.6855722E-2],"categories":[],"categories_nodes":[],"categories_segments":[],"categories_sizes":[],"default_left":[0,0,0,0,0,0,0,0,0,0,0,0,0,0,0,0,0,0,0,0,0,0,0,0,0,0,0,0,0,0,0,0,0,0,0],"id":33,"left_children":[1,3,5,7,9,11,13,-1,-1,15,-1,17,19,21,23,-1,-1,25,27,29,31,33,-1,-1,-1,-1,-1,-1,-1,-1,-1,-1,-1,-1,-1],"loss_changes":[3.3790132E3,1.4565991E2,3.3641583E2,4.921997E0,2.1947266E1,5.328324E1,1.4853381E2,0E0,0E0,3.756897E0,0E0,5.392585E1,4.187378E1,5.4848328E1,3.2032227E1,0E0,0E0,4.2018597E1,1.4507022E1,1.942292E0,1.5752251E1,1.9923157E1,0E0,0E0,0E0,0E0,0E0,0E0,0E0,0E0,0E0,0E0,0E0,0E0,0E0],"parents":[2147483647,0,0,1,1,2,2,3,3,4,4,5,5,6,6,9,9,11,11,12,12,13,13,14,14,17,17,18,18,19,19,20,20,21,21],"right_children":[2,4,6,8,10,12,14,-1,-1,16,-1,18,20,22,24,-1,-1,26,28,30,32,34,-1,-1,-1,-1,-1,-1,-1,-1,-1,-1,-1,-1,-1],"split_conditions":[7.7297235E-1,6.403777E-1,8.991128E-1,2.0595992E-1,7.4098015E-1,6.295131E-1,7.1199924E-1,-2.8796062E-1,-4.9162197E-1,6.7713267E-1,-1.5301573E-1,8.84635E-1,8.487338E-1,9.99298E-1,9.514791E-1,-7.5796895E-2,-3.000619E-1,8.863979E-1,8.9305633E-1,8.2044595E-1,8.041059E-1,9.9918264E-1,2.859033E-1,2.3889278E-1,4.3495652E-1,-2.3662949E-2,-2.3080711E-1,9.254707E-2,7.856636E-3,-2.9409537E-2,1.3262177E-2,1.2962589E-1,5.3131105E-3,1.2232856E-1,-2.6855722E-2],"split_indices":[0,5,0,4,0,4,5,0,0,0,0,2,0,0,0,0,0,0,0,0,8,1,0,0,0,0,0,0,0,0,0,0,0,0,0],"split_type":[0,0,0,0,0,0,0,0,0,0,0,0,0,0,0,0,0,0,0,0,0,0,0,0,0,0,0,0,0,0,0,0,0,0,0],"sum_hessian":[1.99E2,4.9E1,1.5E2,2.3E1,2.6E1,6.7E1,8.3E1,6E0,1.7E1,1.8E1,8E0,3.5E1,3.2E1,5.7E1,2.6E1,1E0,1.7E1,1E1,2.5E1,9E0,2.3E1,5.2E1,5E0,2.2E1,4E0,7E0,3E0,6E0,1.9E1,5E0,4E0,2E1,3E0,5E1,2E0],"tree_param":{"num_deleted":"0","num_feature":"10","num_nodes":"35","size_leaf_vector":"1"}},{"base_weights":[5.5722045E-3,-6.8802857E0,2.2253187E0,-8.633876E0,-4.9969606E0,1.1484389E0,4.2151804E0,-2.756193E-1,-4.684065E-1,-5.572489E0,-1.5027304E-1,2.4378562E-1,1.9788152E0,6.560746E0,3.1166477E0,-7.390213E-2,-2.8589222E-1,-3.330284E-1,2.5266633E0,7.95105E-1,2.5310428E0,1.6584264E-1,3.5270974E-1,3.7897463E0,1.5307089E0,1.1775208E-2,-9.266482E-2,1.8407528E-1,-6.2988284E-3,5.4884996E-2,-1.0559082E-2,1.5894932E-1,7.8146175E-2,2.1114245E-1,8.211314E-2,1.5008952E-1,1.1802959E-2],"categories":[],"categories_nodes":[],"categories_segments":[],"categories_sizes":[],"default_left":[0,0,0,0,0,0,0,0,0,0,0,0,0,0,0,0,0,0,0,0,0,0,0,0,0,0,0,0,0,0,0,0,0,0,0,0,0],"id":34,"left_children":[1,3,5,7,9,11,13,-1,-1,15,-1,17,19,21,23,-1,-1,25,27,29,31,-1,-1,33,35,-1,-1,-1,-1,-1,-1,-1,-1,-1,-1,-1,-1],"loss_changes":[3.072283E3,1.1868335E2,3.2087122E2,3.366455E0,1.3052368E1,7.463788E1,1.16116455E2,0E0,0E0,2.8566895E0,0E0,6.536445E1,3.1978775E1,2.213379E0,3.4763702E1,0E0,0E0,3.5009335E1,3.1097595E1,5.712762E0,1.6986526E1,0E0,0E0,1.72471E1,2.4050358E1,0E0,0E0,0E0,0E0,0E0,0E0,0E0,0E0,0E0,0E0,0E0,0E0],"parents":[2147483647,0,0,1,1,2,2,3,3,4,4,5,5,6,6,9,9,11,11,12,12,13,13,14,14,17,17,18,18,19,19,20,20,23,23,24,24],"right_children":[2,4,6,8,10,12,14,-1,-1,16,-1,18,20,22,24,-1,-1,26,28,30,32,-1,-1,34,36,-1,-1,-1,-1,-1,-1,-1,-1,-1,-1,-1,-1],"split_conditions":[7.678556E-1,6.403777E-1,9.225744E-1,2.0595992E-1,7.4098015E-1,8.938177E-1,9.459306E-1,-2.756193E-1,-4.684065E-1,6.7713267E-1,-1.5027304E-1,8.79445E-1,6.2585974E-1,9.306178E-1,9.572774E-1,-7.390213E-2,-2.8589222E-1,8.93222E-1,9.5312357E-1,9.2039067E-1,6.593049E-1,1.6584264E-1,3.5270974E-1,8.9966667E-1,2.6771927E-1,1.1775208E-2,-9.266482E-2,1.8407528E-1,-6.2988284E-3,5.4884996E-2,-1.0559082E-2,1.5894932E-1,7.8146175E-2,2.1114245E-1,8.211314E-2,1.5008952E-1,1.1802959E-2],"split_indices":[0,5,0,4,0,2,1,0,0,0,0,7,5,0,0,0,0,0,7,0,8,0,0,8,4,0,0,0,0,0,0,0,0,0,0,0,0],"split_type":[0,0,0,0,0,0,0,0,0,0,0,0,0,0,0,0,0,0,0,0,0,0,0,0,0,0,0,0,0,0,0,0,0,0,0,0,0],"sum_hessian":[1.99E2,4.8E1,1.51E2,2.3E1,2.5E1,9.9E1,5.2E1,6E0,1.7E1,1.8E1,7E0,4.8E1,5.1E1,1.5E1,3.7E1,1E0,1.7E1,3.9E1,9E0,1.7E1,3.4E1,3E0,1.2E1,2.5E1,1.2E1,2.9E1,1E1,6E0,3E0,1.3E1,4E0,1.9E1,1.5E1,2E1,5E0,5E0,7E0],"tree_param":{"num_deleted":"0","num_feature":"10","num_nodes":"37","size_leaf_vector":"1"}},{"base_weights":[5.7823183E-3,-6.4763684E0,2.1521516E0,-7.616303E0,-1.9077682E-1,1.1289567E0,4.0227957E0,-4.755353E-1,-3.2153445E-1,3.2921043E-1,1.9718285E0,6.2651196E0,2.9727964E0,-1.9364971E0,9.147717E-1,-9.827354E-2,2.5191784E0,1.776033E-1,3.4367326E-1,2.2912161E0,2.3260498E-1,-3.4898546E-2,-2.5032884E-1,6.937889E-2,2.986908E-3,-2.8373847E-2,1.9365437E-2,6.128807E-2,1.5003638E-1,1.2597504E-1,-2.6354218E-2],"categories":[],"categories_nodes":[],"categories_segments":[],"categories_sizes":[],"default_left":[0,0,0,0,0,0,0,0,0,0,0,0,0,0,0,0,0,0,0,0,0,0,0,0,0,0,0,0,0,0,0],"id":35,"left_children":[1,3,5,7,-1,9,11,-1,-1,13,15,17,19,21,23,25,27,-1,-1,29,-1,-1,-1,-1,-1,-1,-1,-1,-1,-1,-1],"loss_changes":[2.796556E3,1.2259863E2,2.8447748E2,1.520459E1,0E0,6.608513E1,1.0616034E2,0E0,0E0,7.07604E1,5.463492E1,1.9925537E0,3.2835052E1,3.8331665E1,1.6896236E1,2.725994E0,1.9989899E1,0E0,0E0,1.9985855E1,0E0,0E0,0E0,0E0,0E0,0E0,0E0,0E0,0E0,0E0,0E0],"parents":[2147483647,0,0,1,1,2,2,3,3,5,5,6,6,9,9,10,10,11,11,12,12,13,13,14,14,15,15,16,16,19,19],"right_children":[2,4,6,8,-1,10,12,-1,-1,14,16,18,20,22,24,26,28,-1,-1,30,-1,-1,-1,-1,-1,-1,-1,-1,-1,-1,-1],"split_conditions":[7.7297235E-1,7.0638657E-1,9.225744E-1,4.2952457E-1,-1.9077682E-1,6.295131E-1,9.459306E-1,-4.755353E-1,-3.2153445E-1,8.84635E-1,8.550778E-1,9.352361E-1,6.6019595E-1,8.8968974E-1,7.167118E-1,8.2044595E-1,7.1079403E-1,1.776033E-1,3.4367326E-1,9.9918264E-1,2.3260498E-1,-3.4898546E-2,-2.5032884E-1,6.937889E-2,2.986908E-3,-2.8373847E-2,1.9365437E-2,6.128807E-2,1.5003638E-1,1.2597504E-1,-2.6354218E-2],"split_indices":[0,0,0,7,0,4,1,0,0,2,0,0,5,0,8,0,5,0,0,1,0,0,0,0,0,0,0,0,0,0,0],"split_type":[0,0,0,0,0,0,0,0,0,0,0,0,0,0,0,0,0,0,0,0,0,0,0,0,0,0,0,0,0,0,0],"sum_hessian":[1.99E2,4.9E1,1.5E2,3.3E1,1.6E1,9.8E1,5.2E1,1E1,2.3E1,5.1E1,4.7E1,1.5E1,3.7E1,1E1,4.1E1,1E1,3.7E1,4E0,1.1E1,2.8E1,9E0,8E0,2E0,2.6E1,1.5E1,5E0,5E0,1.1E1,2.6E1,2.6E1,2E0],"tree_param":{"num_deleted":"0","num_feature":"10","num_nodes":"31","size_leaf_vector":"1"}},{"base_weights":[4.7678375E-3,-6.172305E0,2.0501246E0,-7.3140244E0,-3.7362475E0,1.0723999E0,3.8377593E0,-4.5391986E-1,-3.0760965E-1,-2.1117878E-1,-1.18353926E-1,3.086539E-1,1.8774496E0,5.9844446E0,2.8328981E0,-1.865602E0,8.70753E-1,-9.4174474E-2,2.3987763E0,2.1305569E-1,3.5875684E-1,2.1399133E0,2.1696618E-1,-2.1616174E-2,-2.1328793E-1,6.84639E-2,6.4991E-3,-2.3687962E-2,2.2803955E-2,1.3007478E-1,1.2643815E-3,1.1816561E-1,-2.547582E-2],"categories":[],"categories_nodes":[],"categories_segments":[],"categories_sizes":[],"default_left":[0,0,0,0,0,0,0,0,0,0,0,0,0,0,0,0,0,0,0,0,0,0,0,0,0,0,0,0,0,0,0,0,0],"id":36,"left_children":[1,3,5,7,9,11,13,-1,-1,-1,-1,15,17,19,21,23,25,27,29,-1,-1,31,-1,-1,-1,-1,-1,-1,-1,-1,-1,-1,-1],"loss_changes":[2.5395178E3,1.1173767E2,2.5980444E2,1.1794678E1,2.01268E0,6.029103E1,9.737402E1,0E0,0E0,0E0,0E0,6.517614E1,4.9563187E1,2.2572632E0,3.0383575E1,3.5996834E1,1.5332314E1,2.5136185E0,1.8218018E1,0E0,0E0,1.777678E1,0E0,0E0,0E0,0E0,0E0,0E0,0E0,0E0,0E0,0E0,0E0],"parents":[2147483647,0,0,1,1,2,2,3,3,4,4,5,5,6,6,11,11,12,12,13,13,14,14,15,15,16,16,17,17,18,18,21,21],"right_children":[2,4,6,8,10,12,14,-1,-1,-1,-1,16,18,20,22,24,26,28,30,-1,-1,32,-1,-1,-1,-1,-1,-1,-1,-1,-1,-1,-1],"split_conditions":[7.7297235E-1,6.9741154E-1,9.225744E-1,4.2952457E-1,7.514715E-1,6.295131E-1,9.459306E-1,-4.5391986E-1,-3.0760965E-1,-2.1117878E-1,-1.18353926E-1,8.84635E-1,8.550778E-1,5.9844685E-1,6.491836E-1,8.863979E-1,7.08543E-1,8.305717E-1,8.041059E-1,2.1305569E-1,3.5875684E-1,9.9918264E-1,2.1696618E-1,-2.1616174E-2,-2.1328793E-1,6.84639E-2,6.4991E-3,-2.3687962E-2,2.2803955E-2,1.3007478E-1,1.2643815E-3,1.1816561E-1,-2.547582E-2],"split_indices":[0,0,0,7,0,4,1,0,0,0,0,2,0,8,5,0,8,0,8,0,0,1,0,0,0,0,0,0,0,0,0,0,0],"split_type":[0,0,0,0,0,0,0,0,0,0,0,0,0,0,0,0,0,0,0,0,0,0,0,0,0,0,0,0,0,0,0,0,0],"sum_hessian":[1.99E2,4.9E1,1.5E2,3.2E1,1.7E1,9.8E1,5.2E1,1E1,2.2E1,1.1E1,6E0,5.1E1,4.7E1,1.5E1,3.7E1,1E1,4.1E1,1E1,3.7E1,8E0,7E0,2.7E1,1E1,7E0,3E0,2.4E1,1.7E1,6E0,4E0,3.4E1,3E0,2.5E1,2E0],"tree_param":{"num_deleted":"0","num_feature":"10","num_nodes":"33","size_leaf_vector":"1"}},{"base_weights":[3.333893E-3,-5.96526E0,1.9273982E0,-7.5051246E0,-4.314414E0,3.9247835E-1,2.9804265E0,-2.3684345E-1,-4.0823585E-1,-4.817501E0,-1.2901402E-1,4.0071275E-2,2.2562287E0,2.1639786E0,4.6231627E0,-5.6325912E-2,-4.959971E0,-9.0601915E-1,7.188215E-1,2.1741048E-1,7.3849267E-1,1.5737228E0,3.416993E0,3.9276693E0,3.9940396E-1,-2.6000595E-1,-1.0129293E-1,-1.103817E-2,-2.0528965E-1,-9.678929E-2,4.801608E-2,7.288056E-2,-8.262443E-3,8.575875E-3,8.9530505E-2,-5.7247926E-2,1.8670218E-1,7.606634E-2,2.0324047E-1],"categories":[],"categories_nodes":[],"categories_segments":[],"categories_sizes":[],"default_left":[0,0,0,0,0,0,0,0,0,0,0,0,0,0,0,0,0,0,0,0,0,0,0,0,0,0,0,0,0,0,0,0,0,0,0,0,0,0,0],"id":37,"left_children":[1,3,5,7,9,11,13,-1,-1,15,-1,17,19,21,23,-1,25,27,29,-1,31,33,35,37,-1,-1,-1,-1,-1,-1,-1,-1,-1,-1,-1,-1,-1,-1,-1],"loss_changes":[2.308289E3,9.218176E1,2.4451001E2,5.1469727E0,1.025238E1,4.1287914E1,1.10704285E2,0E0,0E0,4.403778E0,0E0,3.5327858E1,2.853962E1,4.0477722E1,3.649353E1,0E0,2.148468E0,4.9524853E1,2.2373785E1,0E0,4.7901487E0,1.3074173E1,3.1756332E1,2.3962097E0,0E0,0E0,0E0,0E0,0E0,0E0,0E0,0E0,0E0,0E0,0E0,0E0,0E0,0E0,0E0],"parents":[2147483647,0,0,1,1,2,2,3,3,4,4,5,5,6,6,9,9,11,11,12,12,13,13,14,14,16,16,17,17,18,18,20,20,21,21,22,22,23,23],"right_children":[2,4,6,8,10,12,14,-1,-1,16,-1,18,20,22,24,-1,26,28,30,-1,32,34,36,38,-1,-1,-1,-1,-1,-1,-1,-1,-1,-1,-1,-1,-1,-1,-1],"split_conditions":[7.678556E-1,6.403777E-1,9.0059674E-1,2.0595992E-1,7.4098015E-1,8.79445E-1,7.1199924E-1,-2.3684345E-1,-4.0823585E-1,6.7713267E-1,-1.2901402E-1,8.84635E-1,8.2315934E-1,9.5952874E-1,9.516091E-1,-5.6325912E-2,8.9755213E-1,8.863979E-1,6.857395E-1,2.1741048E-1,9.5312357E-1,3.2200047E-1,9.7932085E-2,8.944703E-1,3.9940396E-1,-2.6000595E-1,-1.0129293E-1,-1.103817E-2,-2.0528965E-1,-9.678929E-2,4.801608E-2,7.288056E-2,-8.262443E-3,8.575875E-3,8.9530505E-2,-5.7247926E-2,1.8670218E-1,7.606634E-2,2.0324047E-1],"split_indices":[0,5,2,4,0,7,5,0,0,0,0,2,4,2,0,0,4,0,8,0,7,4,7,0,0,0,0,0,0,0,0,0,0,0,0,0,0,0,0],"split_type":[0,0,0,0,0,0,0,0,0,0,0,0,0,0,0,0,0,0,0,0,0,0,0,0,0,0,0,0,0,0,0,0,0,0,0,0,0,0,0],"sum_hessian":[1.99E2,4.8E1,1.51E2,2.3E1,2.5E1,6.2E1,8.9E1,6E0,1.7E1,1.8E1,7E0,5.3E1,9E0,6.1E1,2.8E1,1E0,1.7E1,2.2E1,3.1E1,3E0,6E0,4.3E1,1.8E1,2.5E1,3E0,1.5E1,2E0,1.9E1,3E0,2E0,2.9E1,3E0,3E0,6E0,3.7E1,1E0,1.7E1,2E0,2.3E1],"tree_param":{"num_deleted":"0","num_feature":"10","num_nodes":"39","size_leaf_vector":"1"}},{"base_weights":[1.8239594E-3,-5.616824E0,1.8622913E0,-7.1567473E0,-4.039973E0,9.6415925E-1,3.5047967E0,-2.2669284E-1,-3.8895816E-1,-4.5434027E0,-1.13820076E-1,2.5554717E-1,1.7117357E0,5.60027E0,2.608979E0,-5.491791E-2,-4.6669126E0,-1.7306644E0,7.6966095E-1,-8.765065E-2,2.187565E0,1.9464509E-1,3.497709E-1,1.9542542E-1,2.8792303E0,-2.4351864E-1,-9.791667E-2,-2.9752268E-2,-2.2803167E-1,5.969001E-2,2.9110909E-4,-2.5791168E-2,1.7756527E-2,5.1016685E-2,1.3126568E-1,4.0122416E-2,-5.581665E-2,1.5507385E-1,-2.6261393E-2],"categories":[],"categories_nodes":[],"categories_segments":[],"categories_sizes":[],"default_left":[0,0,0,0,0,0,0,0,0,0,0,0,0,0,0,0,0,0,0,0,0,0,0,0,0,0,0,0,0,0,0,0,0,0,0,0,0,0,0],"id":38,"left_children":[1,3,5,7,9,11,13,-1,-1,15,-1,17,19,21,23,-1,25,27,29,31,33,-1,-1,35,37,-1,-1,-1,-1,-1,-1,-1,-1,-1,-1,-1,-1,-1,-1],"loss_changes":[2.1011223E3,9.249841E1,2.1937402E2,3.9111328E0,1.3628906E1,5.2006996E1,8.487854E1,0E0,0E0,3.3840027E0,0E0,5.443124E1,4.1289383E1,8.497955E0,2.4875702E1,0E0,9.328613E-1,3.263765E1,1.3599958E1,2.2686396E0,1.6737549E1,0E0,0E0,4.8771358E0,2.8111023E1,0E0,0E0,0E0,0E0,0E0,0E0,0E0,0E0,0E0,0E0,0E0,0E0,0E0,0E0],"parents":[2147483647,0,0,1,1,2,2,3,3,4,4,5,5,6,6,9,9,11,11,12,12,13,13,14,14,16,16,17,17,18,18,19,19,20,20,23,23,24,24],"right_children":[2,4,6,8,10,12,14,-1,-1,16,-1,18,20,22,24,-1,26,28,30,32,34,-1,-1,36,38,-1,-1,-1,-1,-1,-1,-1,-1,-1,-1,-1,-1,-1,-1],"split_conditions":[7.7297235E-1,6.403777E-1,9.225744E-1,2.0595992E-1,7.492966E-1,6.295131E-1,9.443664E-1,-2.2669284E-1,-3.8895816E-1,6.7713267E-1,-1.13820076E-1,8.84635E-1,8.550778E-1,5.9844685E-1,9.7932085E-2,-5.491791E-2,8.9755213E-1,8.8968974E-1,7.167118E-1,8.2044595E-1,7.1079403E-1,1.9464509E-1,3.497709E-1,9.750865E-1,9.9918264E-1,-2.4351864E-1,-9.791667E-2,-2.9752268E-2,-2.2803167E-1,5.969001E-2,2.9110909E-4,-2.5791168E-2,1.7756527E-2,5.1016685E-2,1.3126568E-1,4.0122416E-2,-5.581665E-2,1.5507385E-1,-2.6261393E-2],"split_indices":[0,5,0,4,0,4,1,0,0,0,0,2,0,8,7,0,4,0,8,0,5,0,0,0,1,0,0,0,0,0,0,0,0,0,0,0,0,0,0],"split_type":[0,0,0,0,0,0,0,0,0,0,0,0,0,0,0,0,0,0,0,0,0,0,0,0,0,0,0,0,0,0,0,0,0,0,0,0,0,0,0],"sum_hessian":[1.99E2,4.9E1,1.5E2,2.3E1,2.6E1,9.8E1,5.2E1,6E0,1.7E1,1.9E1,7E0,5.1E1,4.7E1,1.4E1,3.8E1,1E0,1.8E1,1E1,4.1E1,1E1,3.7E1,8E0,6E0,4E0,3.4E1,1.6E1,2E0,8E0,2E0,2.6E1,1.5E1,5E0,5E0,1.1E1,2.6E1,3E0,1E0,3.2E1,2E0],"tree_param":{"num_deleted":"0","num_feature":"10","num_nodes":"39","size_leaf_vector":"1"}},{"base_weights":[-7.273102E-4,-5.358499E0,1.7733742E0,-6.3510003E0,-3.2412195E0,9.157118E-1,3.3419628E0,-4.1194883E-1,-2.7086446E-1,-1.7951044E-1,-9.724363E-2,2.1101837E-1,1.6020911E0,5.35655E0,2.48143E0,-1.741806E0,6.821702E-1,-2.558344E-1,2.0729682E0,1.8599439E-1,3.3478045E-1,1.9131846E0,1.9690117E-1,-2.6201343E-2,-2.2043076E-1,1.7747117E-2,8.3054125E-2,-3.1545892E-2,8.094407E-3,1.1219132E-1,-1.285553E-3,1.05211966E-1,-2.5386048E-2],"categories":[],"categories_nodes":[],"categories_segments":[],"categories_sizes":[],"default_left":[0,0,0,0,0,0,0,0,0,0,0,0,0,0,0,0,0,0,0,0,0,0,0,0,0,0,0,0,0,0,0,0,0],"id":39,"left_children":[1,3,5,7,9,11,13,-1,-1,-1,-1,15,17,19,21,23,25,27,29,-1,-1,31,-1,-1,-1,-1,-1,-1,-1,-1,-1,-1,-1],"loss_changes":[1.9105487E3,8.448523E1,2.0008295E2,1.3540283E1,1.1609039E0,4.754693E1,7.858984E1,0E0,0E0,0E0,0E0,4.719205E1,4.42731E1,7.9668884E0,2.4746246E1,3.0165615E1,1.2543835E1,1.825627E0,1.4400726E1,0E0,0E0,1.494413E1,0E0,0E0,0E0,0E0,0E0,0E0,0E0,0E0,0E0,0E0,0E0],"parents":[2147483647,0,0,1,1,2,2,3,3,4,4,5,5,6,6,11,11,12,12,13,13,14,14,15,15,16,16,17,17,18,18,21,21],"right_children":[2,4,6,8,10,12,14,-1,-1,-1,-1,16,18,20,22,24,26,28,30,-1,-1,32,-1,-1,-1,-1,-1,-1,-1,-1,-1,-1,-1],"split_conditions":[7.7297235E-1,6.9741154E-1,9.225744E-1,4.1675764E-1,7.540431E-1,6.197059E-1,9.443664E-1,-4.1194883E-1,-2.7086446E-1,-1.7951044E-1,-9.724363E-2,8.84635E-1,8.487338E-1,5.9844685E-1,6.6019595E-1,8.8968974E-1,5.198651E-1,6.9230646E-1,8.041059E-1,1.8599439E-1,3.3478045E-1,9.9918264E-1,1.9690117E-1,-2.6201343E-2,-2.2043076E-1,1.7747117E-2,8.3054125E-2,-3.1545892E-2,8.094407E-3,1.1219132E-1,-1.285553E-3,1.05211966E-1,-2.5386048E-2],"split_indices":[0,0,0,7,0,4,1,0,0,0,0,2,0,8,5,0,7,8,8,0,0,1,0,0,0,0,0,0,0,0,0,0,0],"split_type":[0,0,0,0,0,0,0,0,0,0,0,0,0,0,0,0,0,0,0,0,0,0,0,0,0,0,0,0,0,0,0,0,0],"sum_hessian":[1.99E2,4.9E1,1.5E2,3.2E1,1.7E1,9.8E1,5.2E1,8E0,2.4E1,1.2E1,5E0,4.9E1,4.9E1,1.4E1,3.8E1,9E0,4E1,1E1,3.9E1,8E0,6E0,2.9E1,9E0,7E0,2E0,3.1E1,9E0,5E0,5E0,3.6E1,3E0,2.7E1,2E0],"tree_param":{"num_deleted":"0","num_feature":"10","num_nodes":"33","size_leaf_vector":"1"}},{"base_weights":[-1.7948151E-3,-5.109771E0,1.6895999E0,-6.517957E0,-3.668799E0,8.6933434E-1,3.1899147E0,-2.0536892E-1,-3.5466477E-1,-4.179828E0,-1.0911577E-1,1.9755127E-1,1.5237308E0,2.2145343E0,4.8187776E0,-4.677353E-2,-4.3080997E0,-1.6793808E0,6.505213E-1,-1.5367635E-1,2.000786E0,9.835205E-2,2.4844174E0,1.9537425E-1,3.2944503E-1,-2.257051E-1,-8.866933E-2,-2.5055123E-2,-2.1308315E-1,1.6887546E-2,7.931671E-2,-3.023173E-2,1.2740652E-2,-4.6744157E-2,1.0513214E-1,3.4672737E-2,-5.705147E-2,1.3532642E-1,-2.4539692E-2],"categories":[],"categories_nodes":[],"categories_segments":[],"categories_sizes":[],"default_left":[0,0,0,0,0,0,0,0,0,0,0,0,0,0,0,0,0,0,0,0,0,0,0,0,0,0,0,0,0,0,0,0,0,0,0,0,0,0,0],"id":40,"left_children":[1,3,5,7,9,11,13,-1,-1,15,-1,17,19,21,23,-1,25,27,29,31,33,35,37,-1,-1,-1,-1,-1,-1,-1,-1,-1,-1,-1,-1,-1,-1,-1,-1],"loss_changes":[1.7365542E3,7.75448E1,1.8305603E2,4.150696E0,1.1388489E1,4.322062E1,7.353296E1,0E0,0E0,3.876892E0,0E0,4.3602165E1,4.0318275E1,1.9744919E1,4.902893E0,0E0,1.3935852E0,2.8290943E1,1.1464689E1,2.3646088E0,1.3627396E1,4.4790483E0,2.1813995E1,0E0,0E0,0E0,0E0,0E0,0E0,0E0,0E0,0E0,0E0,0E0,0E0,0E0,0E0,0E0,0E0],"parents":[2147483647,0,0,1,1,2,2,3,3,4,4,5,5,6,6,9,9,11,11,12,12,13,13,14,14,16,16,17,17,18,18,19,19,20,20,21,21,22,22],"right_children":[2,4,6,8,10,12,14,-1,-1,16,-1,18,20,22,24,-1,26,28,30,32,34,36,38,-1,-1,-1,-1,-1,-1,-1,-1,-1,-1,-1,-1,-1,-1,-1,-1],"split_conditions":[7.7297235E-1,6.403777E-1,9.225744E-1,2.0595992E-1,7.4098015E-1,6.197059E-1,6.6166115E-1,-2.0536892E-1,-3.5466477E-1,6.7713267E-1,-1.0911577E-1,8.84635E-1,8.550778E-1,9.7932085E-2,9.516091E-1,-4.677353E-2,8.9755213E-1,8.8968974E-1,5.198651E-1,6.9230646E-1,4.6159932E-1,9.750865E-1,9.9918264E-1,1.9537425E-1,3.2944503E-1,-2.257051E-1,-8.866933E-2,-2.5055123E-2,-2.1308315E-1,1.6887546E-2,7.931671E-2,-3.023173E-2,1.2740652E-2,-4.6744157E-2,1.0513214E-1,3.4672737E-2,-5.705147E-2,1.3532642E-1,-2.4539692E-2],"split_indices":[0,5,0,4,0,4,5,0,0,0,0,2,0,7,0,0,4,0,7,8,7,0,1,0,0,0,0,0,0,0,0,0,0,0,0,0,0,0,0],"split_type":[0,0,0,0,0,0,0,0,0,0,0,0,0,0,0,0,0,0,0,0,0,0,0,0,0,0,0,0,0,0,0,0,0,0,0,0,0,0,0],"sum_hessian":[1.99E2,4.9E1,1.5E2,2.3E1,2.6E1,9.8E1,5.2E1,6E0,1.7E1,1.8E1,8E0,4.9E1,4.9E1,3.4E1,1.8E1,1E0,1.7E1,9E0,4E1,1.1E1,3.8E1,4E0,3E1,1.4E1,4E0,1.5E1,2E0,7E0,2E0,3.1E1,9E0,5E0,6E0,1E0,3.7E1,3E0,1E0,2.8E1,2E0],"tree_param":{"num_deleted":"0","num_feature":"10","num_nodes":"39","size_leaf_vector":"1"}},{"base_weights":[-4.2972565E-3,-4.573735E0,1.7170959E0,-5.735115E0,-2.570979E0,9.5181584E-1,3.041987E0,-3.7787765E-1,-2.441845E-1,-1.4876628E-1,-6.0113525E-1,-6.7116015E-2,1.4787986E0,4.833846E0,2.2074678E0,-3.612099E-2,-2.899933E-3,2.0284653E-1,-2.1764794E-1,-1.6324192E-1,1.7250869E0,1.6830003E-1,2.940471E-1,1.5119934E0,3.29171E0,-6.887185E-2,3.1025285E-2,-3.529104E-2,4.6306066E-3,1.19566955E-1,6.475416E-2,8.526771E-2,-2.3721822E-2,1.7341996E-2,1.7457792E-1],"categories":[],"categories_nodes":[],"categories_segments":[],"categories_sizes":[],"default_left":[0,0,0,0,0,0,0,0,0,0,0,0,0,0,0,0,0,0,0,0,0,0,0,0,0,0,0,0,0,0,0,0,0,0,0],"id":41,"left_children":[1,3,5,7,9,11,13,-1,-1,-1,15,17,19,21,23,-1,-1,25,-1,27,29,-1,-1,31,33,-1,-1,-1,-1,-1,-1,-1,-1,-1,-1],"loss_changes":[1.5810135E3,1.1318298E2,1.4513583E2,1.5848022E1,1.5734421E1,5.0573463E1,6.858252E1,0E0,0E0,0E0,2.8747082E-1,3.9064545E1,2.5355347E1,4.7963257E0,2.3677338E1,0E0,0E0,2.1975346E1,0E0,1.3147564E0,1.2373535E1,0E0,0E0,1.0411522E1,7.0283813E0,0E0,0E0,0E0,0E0,0E0,0E0,0E0,0E0,0E0,0E0],"parents":[2147483647,0,0,1,1,2,2,3,3,4,4,5,5,6,6,10,10,11,11,12,12,13,13,14,14,17,17,19,19,20,20,23,23,24,24],"right_children":[2,4,6,8,10,12,14,-1,-1,-1,16,18,20,22,24,-1,-1,26,-1,28,30,-1,-1,32,34,-1,-1,-1,-1,-1,-1,-1,-1,-1,-1],"split_conditions":[8.071951E-1,7.0638657E-1,9.225744E-1,4.1675764E-1,9.3279123E-1,6.3130456E-1,9.459306E-1,-3.7787765E-1,-2.441845E-1,-1.4876628E-1,7.8238565E-1,6.277808E-1,8.487338E-1,5.9844685E-1,4.4771954E-1,-3.612099E-2,-2.899933E-3,4.9687165E-1,-2.1764794E-1,6.9230646E-1,6.593049E-1,1.6830003E-1,2.940471E-1,9.9918264E-1,9.67523E-1,-6.887185E-2,3.1025285E-2,-3.529104E-2,4.6306066E-3,1.19566955E-1,6.475416E-2,8.526771E-2,-2.3721822E-2,1.7341996E-2,1.7457792E-1],"split_indices":[0,0,0,7,5,5,1,0,0,0,0,5,0,8,7,0,0,5,0,8,8,0,0,1,1,0,0,0,0,0,0,0,0,0,0],"split_type":[0,0,0,0,0,0,0,0,0,0,0,0,0,0,0,0,0,0,0,0,0,0,0,0,0,0,0,0,0,0,0,0,0,0,0],"sum_hessian":[1.99E2,5.4E1,1.45E2,3.3E1,2.1E1,9.3E1,5.2E1,8E0,2.5E1,1.7E1,4E0,3.2E1,6.1E1,1.5E1,3.7E1,3E0,1E0,3.1E1,1E0,8E0,5.3E1,8E0,7E0,2.4E1,1.3E1,6E0,2.5E1,2E0,6E0,1.9E1,3.4E1,2.2E1,2E0,1E0,1.2E1],"tree_param":{"num_deleted":"0","num_feature":"10","num_nodes":"35","size_leaf_vector":"1"}},{"base_weights":[-5.0605773E-3,-4.3597693E0,1.6354467E0,-5.4666524E0,-2.450961E0,9.031421E-1,2.9033935E0,-3.610828E-1,-2.3244476E-1,-1.4174089E-1,-5.788849E-1,-7.149806E-2,1.4073354E0,1.9950496E0,4.423848E0,-3.476658E-2,-2.8274537E-3,1.9152594E-1,-2.1220665E-1,-1.5848118E-1,1.642243E0,2.0748902E-2,2.2491288E0,1.7391336E-1,2.946448E-1,-6.591993E-2,2.9533884E-2,-3.4114584E-2,4.4324603E-3,1.1388748E-1,6.1608758E-2,3.0175209E-2,-5.7756808E-2,1.22584224E-1,-2.2930909E-2],"categories":[],"categories_nodes":[],"categories_segments":[],"categories_sizes":[],"default_left":[0,0,0,0,0,0,0,0,0,0,0,0,0,0,0,0,0,0,0,0,0,0,0,0,0,0,0,0,0,0,0,0,0,0,0],"id":42,"left_children":[1,3,5,7,9,11,13,-1,-1,-1,15,17,19,21,23,-1,-1,25,-1,27,29,31,33,-1,-1,-1,-1,-1,-1,-1,-1,-1,-1,-1,-1],"loss_changes":[1.4359165E3,1.0280701E2,1.3294223E2,1.5222839E1,1.41683655E1,4.629287E1,6.437225E1,0E0,0E0,0E0,2.648009E-1,3.7030464E1,2.3065254E1,1.751033E1,5.8959045E0,0E0,0E0,2.0064798E1,0E0,1.22553E0,1.1265854E1,4.1233954E0,1.8126938E1,0E0,0E0,0E0,0E0,0E0,0E0,0E0,0E0,0E0,0E0,0E0,0E0],"parents":[2147483647,0,0,1,1,2,2,3,3,4,4,5,5,6,6,10,10,11,11,12,12,13,13,14,14,17,17,19,19,20,20,21,21,22,22],"right_children":[2,4,6,8,10,12,14,-1,-1,-1,16,18,20,22,24,-1,-1,26,-1,28,30,32,34,-1,-1,-1,-1,-1,-1,-1,-1,-1,-1,-1,-1],"split_conditions":[8.071951E-1,7.0638657E-1,9.225744E-1,4.1675764E-1,9.3279123E-1,6.3130456E-1,6.6166115E-1,-3.610828E-1,-2.3244476E-1,-1.4174089E-1,7.8238565E-1,6.277808E-1,8.487338E-1,9.7932085E-2,9.514791E-1,-3.476658E-2,-2.8274537E-3,4.9687165E-1,-2.1220665E-1,6.9230646E-1,6.593049E-1,9.750865E-1,9.9918264E-1,1.7391336E-1,2.946448E-1,-6.591993E-2,2.9533884E-2,-3.4114584E-2,4.4324603E-3,1.1388748E-1,6.1608758E-2,3.0175209E-2,-5.7756808E-2,1.22584224E-1,-2.2930909E-2],"split_indices":[0,0,0,7,5,5,5,0,0,0,0,5,0,7,0,0,0,5,0,8,8,0,1,0,0,0,0,0,0,0,0,0,0,0,0],"split_type":[0,0,0,0,0,0,0,0,0,0,0,0,0,0,0,0,0,0,0,0,0,0,0,0,0,0,0,0,0,0,0,0,0,0,0],"sum_hessian":[1.99E2,5.4E1,1.45E2,3.3E1,2.1E1,9.3E1,5.2E1,8E0,2.5E1,1.7E1,4E0,3.2E1,6.1E1,3.4E1,1.8E1,3E0,1E0,3.1E1,1E0,8E0,5.3E1,4E0,3E1,1.3E1,5E0,6E0,2.5E1,2E0,6E0,1.9E1,3.4E1,3E0,1E0,2.8E1,2E0],"tree_param":{"num_deleted":"0","num_feature":"10","num_nodes":"35","size_leaf_vector":"1"}},{"base_weights":[-6.486282E-3,-4.155834E0,1.5566686E0,-5.2107763E0,-2.3365672E0,8.56887E-1,2.7684197E0,-3.3876795E-1,-2.1882562E-1,-1.3208619E-1,-3.0293274E-1,-7.546211E-2,1.3393166E0,4.5176654E0,2.0246477E0,-1.8357595E-2,-2.7568818E-3,1.8080664E-1,-2.0690155E-1,-6.709595E-2,1.5794073E0,1.5174866E-1,2.8893018E-1,1.558932E0,1.7019095E-1,-6.309488E-2,2.8113646E-2,-1.735284E-2,2.1980477E-2,1.0847763E-1,5.9290495E-2,7.095337E-4,8.9362845E-2],"categories":[],"categories_nodes":[],"categories_segments":[],"categories_sizes":[],"default_left":[0,0,0,0,0,0,0,0,0,0,0,0,0,0,0,0,0,0,0,0,0,0,0,0,0,0,0,0,0,0,0,0,0],"id":43,"left_children":[1,3,5,7,9,11,13,-1,-1,-1,15,17,19,21,23,-1,-1,25,-1,27,29,-1,-1,31,-1,-1,-1,-1,-1,-1,-1,-1,-1],"loss_changes":[1.303684E3,9.3381775E1,1.21430084E2,1.4726929E1,1.2852402E1,4.2381584E1,5.9808502E1,0E0,0E0,0E0,4.34089E-2,3.5104794E1,2.104129E1,1.0505829E1,1.9743439E1,0E0,0E0,1.8320505E1,0E0,1.5711465E0,9.738159E0,0E0,0E0,1.0908424E1,0E0,0E0,0E0,0E0,0E0,0E0,0E0,0E0,0E0],"parents":[2147483647,0,0,1,1,2,2,3,3,4,4,5,5,6,6,10,10,11,11,12,12,13,13,14,14,17,17,19,19,20,20,23,23],"right_children":[2,4,6,8,10,12,14,-1,-1,-1,16,18,20,22,24,-1,-1,26,-1,28,30,-1,-1,32,-1,-1,-1,-1,-1,-1,-1,-1,-1],"split_conditions":[8.071951E-1,7.0638657E-1,9.225744E-1,4.2843255E-1,9.350287E-1,6.3130456E-1,9.443664E-1,-3.3876795E-1,-2.1882562E-1,-1.3208619E-1,7.8238565E-1,6.277808E-1,8.550778E-1,5.9844685E-1,6.788672E-1,-1.8357595E-2,-2.7568818E-3,4.9687165E-1,-2.0690155E-1,8.359998E-1,6.593049E-1,1.5174866E-1,2.8893018E-1,9.7932085E-2,1.7019095E-1,-6.309488E-2,2.8113646E-2,-1.735284E-2,2.1980477E-2,1.0847763E-1,5.9290495E-2,7.095337E-4,8.9362845E-2],"split_indices":[0,0,0,7,5,5,1,0,0,0,0,5,0,8,4,0,0,5,0,0,8,0,0,7,0,0,0,0,0,0,0,0,0],"split_type":[0,0,0,0,0,0,0,0,0,0,0,0,0,0,0,0,0,0,0,0,0,0,0,0,0,0,0,0,0,0,0,0,0],"sum_hessian":[1.99E2,5.4E1,1.45E2,3.3E1,2.1E1,9.3E1,5.2E1,9E0,2.4E1,1.8E1,3E0,3.2E1,6.1E1,1.4E1,3.8E1,2E0,1E0,3.1E1,1E0,9E0,5.2E1,8E0,6E0,3E1,8E0,6E0,2.5E1,6E0,3E0,1.9E1,3.3E1,4E0,2.6E1],"tree_param":{"num_deleted":"0","num_feature":"10","num_nodes":"33","size_leaf_vector":"1"}},{"base_weights":[-6.5584565E-3,-3.9609687E0,1.4831616E0,-4.737033E0,-1.7732477E0,8.133037E-1,2.6432273E0,-3.2352373E-1,-4.025051E0,-1.1865219E-1,-6.6307503E-1,1.0614881E-1,1.4074509E0,1.8012648E0,4.055094E0,-2.077223E-1,-7.1627304E-2,-3.7783433E-2,-2.6878358E-3,5.200371E-1,-1.0408897E0,-6.328277E-2,1.7241149E0,1.3623047E-2,2.0314887E0,1.6222554E-1,5.675824E0,3.5615664E-2,-8.200811E-2,9.689586E-2,-9.152214E-2,-1.6609302E-2,2.115593E-2,1.1259847E-1,6.5633364E-2,2.9016877E-2,-5.633087E-2,1.1956549E-1,2.2810038E-2,3.134903E-1,8.249741E-2],"categories":[],"categories_nodes":[],"categories_segments":[],"categories_sizes":[],"default_left":[0,0,0,0,0,0,0,0,0,0,0,0,0,0,0,0,0,0,0,0,0,0,0,0,0,0,0,0,0,0,0,0,0,0,0,0,0,0,0,0,0],"id":44,"left_children":[1,3,5,7,9,11,13,-1,15,-1,17,19,21,23,25,-1,-1,-1,-1,27,29,31,33,35,37,-1,39,-1,-1,-1,-1,-1,-1,-1,-1,-1,-1,-1,-1,-1,-1],"loss_changes":[1.1840677E3,8.497974E1,1.1130383E2,2.3323181E1,9.080532E0,3.934509E1,5.5698883E1,0E0,4.447754E0,0E0,3.543105E-1,2.1430119E1,2.386126E1,1.4376862E1,6.5457153E0,0E0,0E0,0E0,0E0,1.4875018E1,3.1770359E1,1.4485031E0,6.1656494E0,3.8847723E0,1.6480553E1,0E0,1.6116333E0,0E0,0E0,0E0,0E0,0E0,0E0,0E0,0E0,0E0,0E0,0E0,0E0,0E0,0E0],"parents":[2147483647,0,0,1,1,2,2,3,3,4,4,5,5,6,6,8,8,10,10,11,11,12,12,13,13,14,14,19,19,20,20,21,21,22,22,23,23,24,24,26,26],"right_children":[2,4,6,8,10,12,14,-1,16,-1,18,20,22,24,26,-1,-1,-1,-1,28,30,32,34,36,38,-1,40,-1,-1,-1,-1,-1,-1,-1,-1,-1,-1,-1,-1,-1,-1],"split_conditions":[8.071951E-1,7.336132E-1,9.225744E-1,4.2843255E-1,8.241722E-1,5.198651E-1,6.6166115E-1,-3.2352373E-1,8.9755213E-1,-1.1865219E-1,7.8238565E-1,7.588656E-1,8.550778E-1,9.7932085E-2,9.516091E-1,-2.077223E-1,-7.1627304E-2,-3.7783433E-2,-2.6878358E-3,5.1506215E-1,8.7172E-1,8.359998E-1,6.593049E-1,9.750865E-1,8.992255E-1,1.6222554E-1,9.9906397E-1,3.5615664E-2,-8.200811E-2,9.689586E-2,-9.152214E-2,-1.6609302E-2,2.115593E-2,1.1259847E-1,6.5633364E-2,2.9016877E-2,-5.633087E-2,1.1956549E-1,2.2810038E-2,3.134903E-1,8.249741E-2],"split_indices":[0,0,0,7,4,7,5,0,4,0,0,8,0,7,0,0,0,0,0,7,2,0,8,0,8,0,0,0,0,0,0,0,0,0,0,0,0,0,0,0,0],"split_type":[0,0,0,0,0,0,0,0,0,0,0,0,0,0,0,0,0,0,0,0,0,0,0,0,0,0,0,0,0,0,0,0,0,0,0,0,0,0,0,0,0],"sum_hessian":[1.99E2,5.4E1,1.45E2,3.9E1,1.5E1,9.3E1,5.2E1,9E0,3E1,9E0,6E0,4.3E1,5E1,3.4E1,1.8E1,2.8E1,2E0,5E0,1E0,3.2E1,1.1E1,9E0,4.1E1,4E0,3E1,1.4E1,4E0,3E1,2E0,2E0,9E0,6E0,3E0,1.6E1,2.5E1,3E0,1E0,2.4E1,6E0,3E0,1E0],"tree_param":{"num_deleted":"0","num_feature":"10","num_nodes":"41","size_leaf_vector":"1"}},{"base_weights":[-5.965729E-3,-3.7767787E0,1.4145868E0,-4.774276E0,-2.1813793E0,7.741498E-1,2.523766E0,-3.156001E-1,-2.0148619E-1,-2.5090516E0,-4.999481E-1,-8.843671E-2,1.2207822E0,4.1533427E0,1.8322937E0,-1.5818961E0,-1.4076427E-1,-2.9936409E-2,-2.620697E-3,1.581006E-1,-1.9944076E-1,-1.4079115E-1,1.4251039E0,1.3823693E-1,2.6726782E-1,1.4013499E0,1.5565339E-1,-9.123077E-2,-3.250326E-2,-5.9192766E-2,2.566578E-2,-3.1845093E-2,4.5970376E-3,5.4717213E-2,1.0129132E-1,7.774643E-2,-2.7517954E-2],"categories":[],"categories_nodes":[],"categories_segments":[],"categories_sizes":[],"default_left":[0,0,0,0,0,0,0,0,0,0,0,0,0,0,0,0,0,0,0,0,0,0,0,0,0,0,0,0,0,0,0,0,0,0,0,0,0],"id":45,"left_children":[1,3,5,7,9,11,13,-1,-1,15,17,19,21,23,25,27,-1,-1,-1,29,-1,31,33,-1,-1,35,-1,-1,-1,-1,-1,-1,-1,-1,-1,-1,-1],"loss_changes":[1.0766702E3,7.711279E1,1.0175873E2,1.234668E1,1.1417664E1,3.6322304E1,5.2110596E1,0E0,0E0,9.411011E-1,1.8965566E-1,3.2363064E1,1.7448982E1,1.0050049E1,1.7163223E1,3.9709282E-1,0E0,0E0,0E0,1.5861546E1,0E0,1.0977043E0,8.512566E0,0E0,0E0,1.0147724E1,0E0,0E0,0E0,0E0,0E0,0E0,0E0,0E0,0E0,0E0,0E0],"parents":[2147483647,0,0,1,1,2,2,3,3,4,4,5,5,6,6,9,9,10,10,11,11,12,12,13,13,14,14,15,15,19,19,21,21,22,22,25,25],"right_children":[2,4,6,8,10,12,14,-1,-1,16,18,20,22,24,26,28,-1,-1,-1,30,-1,32,34,-1,-1,36,-1,-1,-1,-1,-1,-1,-1,-1,-1,-1,-1],"split_conditions":[8.071951E-1,6.9741154E-1,9.225744E-1,4.1675764E-1,9.3279123E-1,6.3130456E-1,9.443664E-1,-3.156001E-1,-2.0148619E-1,4.5655248E-1,7.8238565E-1,6.277808E-1,8.487338E-1,5.9844685E-1,6.788672E-1,8.241722E-1,-1.4076427E-1,-2.9936409E-2,-2.620697E-3,4.9687165E-1,-1.9944076E-1,6.9230646E-1,7.3772943E-1,1.3823693E-1,2.6726782E-1,9.9918264E-1,1.5565339E-1,-9.123077E-2,-3.250326E-2,-5.9192766E-2,2.566578E-2,-3.1845093E-2,4.5970376E-3,5.4717213E-2,1.0129132E-1,7.774643E-2,-2.7517954E-2],"split_indices":[0,0,0,7,5,5,1,0,0,8,0,5,0,8,4,4,0,0,0,5,0,8,4,0,0,1,0,0,0,0,0,0,0,0,0,0,0],"split_type":[0,0,0,0,0,0,0,0,0,0,0,0,0,0,0,0,0,0,0,0,0,0,0,0,0,0,0,0,0,0,0,0,0,0,0,0,0],"sum_hessian":[1.99E2,5.4E1,1.45E2,3.2E1,2.2E1,9.3E1,5.2E1,8E0,2.4E1,1.8E1,4E0,3.2E1,6.1E1,1.4E1,3.8E1,6E0,1.2E1,3E0,1E0,3.1E1,1E0,8E0,5.3E1,8E0,6E0,3E1,8E0,4E0,2E0,6E0,2.5E1,2E0,6E0,3.6E1,1.7E1,2.8E1,2E0],"tree_param":{"num_deleted":"0","num_feature":"10","num_nodes":"37","size_leaf_vector":"1"}},{"base_weights":[-7.201004E-3,-3.6027403E0,1.3473322E0,-4.9428763E0,-2.4850526E0,7.3433423E-1,2.4091148E0,-1.9682138E-1,-3.23186E-1,-2.8780036E0,-9.464493E-1,8.319369E-2,1.2817038E0,1.6265075E0,3.7239645E0,-1.7987823E-2,-2.9679406E0,-6.5400854E-2,-2.5787735E-1,6.9363594E-1,-6.184162E-1,-6.617279E-2,1.5721102E0,-5.4718018E-2,1.845205E0,2.9559488E0,5.2832184E0,-1.732701E-1,-9.624771E-2,-1.5488434E-2,-2.5550842E-3,8.386898E-3,7.757475E-2,-6.1690666E-2,5.62856E-2,-3.0783592E-2,7.4080466E-3,1.0404008E-1,5.895192E-2,2.5013162E-2,-5.6866076E-2,1.0137484E-1,-2.6600901E-2,4.1625213E-2,1.5240794E-1,2.9171163E-1,7.697906E-2],"categories":[],"categories_nodes":[],"categories_segments":[],"categories_sizes":[],"default_left":[0,0,0,0,0,0,0,0,0,0,0,0,0,0,0,0,0,0,0,0,0,0,0,0,0,0,0,0,0,0,0,0,0,0,0,0,0,0,0,0,0,0,0,0,0,0,0],"id":46,"left_children":[1,3,5,7,9,11,13,-1,-1,15,17,19,21,23,25,-1,27,-1,29,31,33,35,37,39,41,43,45,-1,-1,-1,-1,-1,-1,-1,-1,-1,-1,-1,-1,-1,-1,-1,-1,-1,-1,-1,-1],"loss_changes":[9.7890955E2,7.009863E1,9.325806E1,1.1291687E1,1.6623169E1,3.339635E1,4.848053E1,0E0,0E0,4.5943604E0,1.6544142E0,1.9273817E1,2.006704E1,1.2969757E1,7.1361694E0,0E0,5.781555E0,0E0,2.7089745E-2,1.0567269E1,2.3928879E1,1.2689801E0,5.9446487E0,3.5730832E0,1.4512459E1,3.9942932E-1,1.3316956E0,0E0,0E0,0E0,0E0,0E0,0E0,0E0,0E0,0E0,0E0,0E0,0E0,0E0,0E0,0E0,0E0,0E0,0E0,0E0,0E0],"parents":[2147483647,0,0,1,1,2,2,3,3,4,4,5,5,6,6,9,9,10,10,11,11,12,12,13,13,14,14,16,16,18,18,19,19,20,20,21,21,22,22,23,23,24,24,25,25,26,26],"right_children":[2,4,6,8,10,12,14,-1,-1,16,18,20,22,24,26,-1,28,-1,30,32,34,36,38,40,42,44,46,-1,-1,-1,-1,-1,-1,-1,-1,-1,-1,-1,-1,-1,-1,-1,-1,-1,-1,-1,-1],"split_conditions":[8.071951E-1,6.403777E-1,9.225744E-1,6.760804E-1,8.99055E-1,5.198651E-1,6.6166115E-1,-1.9682138E-1,-3.23186E-1,6.7713267E-1,7.7297235E-1,7.167118E-1,8.550778E-1,9.7932085E-2,9.516091E-1,-1.7987823E-2,7.369509E-1,-6.5400854E-2,7.8238565E-1,6.837693E-1,5.310095E-1,6.9230646E-1,6.593049E-1,9.750865E-1,9.9918264E-1,5.064686E-1,9.9906397E-1,-1.732701E-1,-9.624771E-2,-1.5488434E-2,-2.5550842E-3,8.386898E-3,7.757475E-2,-6.1690666E-2,5.62856E-2,-3.0783592E-2,7.4080466E-3,1.0404008E-1,5.895192E-2,2.5013162E-2,-5.6866076E-2,1.0137484E-1,-2.6600901E-2,4.1625213E-2,1.5240794E-1,2.9171163E-1,7.697906E-2],"split_indices":[0,5,0,0,5,7,5,0,0,0,0,8,0,7,0,0,0,0,0,8,4,8,8,0,1,8,0,0,0,0,0,0,0,0,0,0,0,0,0,0,0,0,0,0,0,0,0],"split_type":[0,0,0,0,0,0,0,0,0,0,0,0,0,0,0,0,0,0,0,0,0,0,0,0,0,0,0,0,0,0,0,0,0,0,0,0,0,0,0,0,0,0,0,0,0,0,0],"sum_hessian":[1.99E2,5.4E1,1.45E2,2.3E1,3.1E1,9.3E1,5.2E1,1.6E1,7E0,2.4E1,7E0,4.3E1,5E1,3.4E1,1.8E1,1E0,2.3E1,4E0,3E0,2.3E1,2E1,9E0,4.1E1,4E0,3E1,1.4E1,4E0,1.4E1,9E0,2E0,1E0,1.5E1,8E0,1.5E1,5E0,2E0,7E0,1.6E1,2.5E1,3E0,1E0,2.8E1,2E0,1E0,1.3E1,3E0,1E0],"tree_param":{"num_deleted":"0","num_feature":"10","num_nodes":"47","size_leaf_vector":"1"}},{"base_weights":[-7.166443E-3,-3.4388037E0,1.2856227E0,-4.7173996E0,-2.372394E0,6.99962E-1,2.3000846E0,-1.8755911E-1,-3.0904683E-1,-2.7456055E0,-9.0955925E-1,8.086257E-2,1.2203623E0,3.7596836E0,1.624988E0,-1.753807E-2,-2.8307755E0,-6.278488E-2,-2.4949646E-1,6.6253215E-1,-5.877533E-1,-6.519775E-2,1.4973918E0,1.263543E-1,4.6763954E0,1.061701E0,2.514787E0,-1.6518448E-1,-9.191635E-2,-1.4972179E-2,-2.491379E-3,7.993507E-3,7.4126944E-2,-5.8798887E-2,5.3940203E-2,-2.1049958E-2,1.2108485E-2,1.2376436E-1,6.3282564E-2,2.6143965E-1,1.0064011E-1,6.105519E-2,-2.5714366E-2,4.14238E-3,1.3477431E-1],"categories":[],"categories_nodes":[],"categories_segments":[],"categories_sizes":[],"default_left":[0,0,0,0,0,0,0,0,0,0,0,0,0,0,0,0,0,0,0,0,0,0,0,0,0,0,0,0,0,0,0,0,0,0,0,0,0,0,0,0,0,0,0,0,0],"id":47,"left_children":[1,3,5,7,9,11,13,-1,-1,15,17,19,21,23,25,-1,27,-1,29,31,33,35,37,-1,39,41,43,-1,-1,-1,-1,-1,-1,-1,-1,-1,-1,-1,-1,-1,-1,-1,-1,-1,-1],"loss_changes":[8.916977E2,6.380133E1,8.5133026E1,1.0752502E1,1.4972992E1,3.01862E1,4.6115204E1,0E0,0E0,4.106308E0,1.514493E0,1.7501602E1,1.8260674E1,6.2613373E0,1.6376106E1,0E0,5.190979E0,0E0,2.4970978E-2,9.655455E0,2.1855152E1,1.195571E0,6.3851013E0,0E0,1.2463684E0,6.9084225E0,5.9289856E0,0E0,0E0,0E0,0E0,0E0,0E0,0E0,0E0,0E0,0E0,0E0,0E0,0E0,0E0,0E0,0E0,0E0,0E0],"parents":[2147483647,0,0,1,1,2,2,3,3,4,4,5,5,6,6,9,9,10,10,11,11,12,12,13,13,14,14,16,16,18,18,19,19,20,20,21,21,22,22,24,24,25,25,26,26],"right_children":[2,4,6,8,10,12,14,-1,-1,16,18,20,22,24,26,-1,28,-1,30,32,34,36,38,-1,40,42,44,-1,-1,-1,-1,-1,-1,-1,-1,-1,-1,