{"learner":{"attributes":{"scikit_learn":"{\"_estimator_type\": \"regressor\"}"},"feature_names":[],"feature_types":[],"gradient_booster":{"model":{"gbtree_model_param":{"num_parallel_tree":"1","num_trees":"100"},"iteration_indptr":[0,1,2,3,4,5,6,7,8,9,10,11,12,13,14,15,16,17,18,19,20,21,22,23,24,25,26,27,28,29,30,31,32,33,34,35,36,37,38,39,40,41,42,43,44,45,46,47,48,49,50,51,52,53,54,55,56,57,58,59,60,61,62,63,64,65,66,67,68,69,70,71,72,73,74,75,76,77,78,79,80,81,82,83,84,85,86,87,88,89,90,91,92,93,94,95,96,97,98,99,100],"tree_info":[0,0,0,0,0,0,0,0,0,0,0,0,0,0,0,0,0,0,0,0,0,0,0,0,0,0,0,0,0,0,0,0,0,0,0,0,0,0,0,0,0,0,0,0,0,0,0,0,0,0,0,0,0,0,0,0,0,0,0,0,0,0,0,0,0,0,0,0,0,0,0,0,0,0,0,0,0,0,0,0,0,0,0,0,0,0,0,0,0,0,0,0,0,0,0,0,0,0,0,0],"trees":[{"base_weights":[7.2479247E-6,-3.7271675E1,1.1693084E1,-2.1877718E0,-1.300332E0,5.1349297E0,1.9194967E1,-4.952128E0,6.744787E0,1.5753254E1,1.422686E0,-3.5966167E-1,-3.4058447E0,1.7251264E0,9.378115E0,9.920925E0,1.816484E1,-1.85392E-1,-2.4747087E-2,2.1576516E-1,-1.4253433E-1,1.0520605E-1,4.8273227E-1,2.9988658E-1,6.229853E-1,7.6516426E-1,1.0886438E0],"categories":[],"categories_nodes":[],"categories_segments":[],"categories_sizes":[],"default_left":[0,0,0,0,0,0,0,0,0,0,0,0,0,0,0,0,0,0,0,0,0,0,0,0,0,0,0],"id":0,"left_children":[1,3,5,-1,-1,7,9,11,13,15,-1,-1,17,19,21,23,25,-1,-1,-1,-1,-1,-1,-1,-1,-1,-1],"loss_changes":[8.7599945E4,2.3679766E3,7.4288066E3,0E0,0E0,1.3812156E3,1.8142441E3,1.7085571E1,9.355469E2,5.7930664E2,0E0,0E0,6.0765457E0,3.2045786E2,7.42251E1,1.0455237E2,4.8813477E1,0E0,0E0,0E0,0E0,0E0,0E0,0E0,0E0,0E0,0E0],"parents":[2147483647,0,0,1,1,2,2,5,5,6,6,7,7,8,8,9,9,12,12,13,13,14,14,15,15,16,16],"right_children":[2,4,6,-1,-1,8,10,12,14,16,-1,-1,18,20,22,24,26,-1,-1,-1,-1,-1,-1,-1,-1,-1,-1],"split_conditions":[7.6369077E-1,6.8776083E-1,9.135819E-1,-2.1877718E0,-1.300332E0,8.253352E-1,6.642621E-1,6.051432E-1,4.468638E-1,5.215719E-1,1.422686E0,-3.5966167E-1,8.2044595E-1,7.588656E-1,8.359998E-1,8.8200957E-1,9.039013E-1,-1.85392E-1,-2.4747087E-2,2.1576516E-1,-1.4253433E-1,1.0520605E-1,4.8273227E-1,2.9988658E-1,6.229853E-1,7.6516426E-1,1.0886438E0],"split_indices":[0,0,2,0,0,0,7,4,7,5,0,0,0,8,0,6,6,0,0,0,0,0,0,0,0,0,0],"split_type":[0,0,0,0,0,0,0,0,0,0,0,0,0,0,0,0,0,0,0,0,0,0,0,0,0,0,0],"sum_hessian":[1.99E2,4.7E1,1.52E2,2.8E1,1.9E1,8.2E1,7E1,1.1E1,7.1E1,5.3E1,1.7E1,3E0,8E0,2.5E1,4.6E1,1.7E1,3.6E1,7E0,1E0,1.6E1,9E0,2E0,4.4E1,8E0,9E0,2.3E1,1.3E1],"tree_param":{"num_deleted":"0","num_feature":"10","num_nodes":"27","size_leaf_vector":"1"}},{"base_weights":[4.0231324E-3,-3.5480755E1,1.11364765E1,-2.0976875E0,-1.2580267E0,4.8792877E0,1.8294367E1,-4.7520027E0,6.4167347E0,1.5017013E1,1.3555037E0,-3.4617424E-1,-3.2588992E0,1.6416895E0,8.921723E0,9.476151E0,1.7306702E1,-1.7778674E-1,-2.2105409E-2,-2.0078953E-1,1.7698616E-1,5.092315E-1,3.2622823E-1,2.8655854E-1,5.94951E-1,7.285E-1,1.0380999E0],"categories":[],"categories_nodes":[],"categories_segments":[],"categories_sizes":[],"default_left":[0,0,0,0,0,0,0,0,0,0,0,0,0,0,0,0,0,0,0,0,0,0,0,0,0,0,0],"id":1,"left_children":[1,3,5,-1,-1,7,9,11,13,15,-1,-1,17,19,21,23,25,-1,-1,-1,-1,-1,-1,-1,-1,-1,-1],"loss_changes":[7.9401664E4,2.1509492E3,6.763342E3,0E0,0E0,1.2595232E3,1.6442324E3,1.6344025E1,8.465764E2,5.2108887E2,0E0,0E0,5.953087E0,2.9340506E2,7.583667E1,9.512927E1,4.7374023E1,0E0,0E0,0E0,0E0,0E0,0E0,0E0,0E0,0E0,0E0],"parents":[2147483647,0,0,1,1,2,2,5,5,6,6,7,7,8,8,9,9,12,12,13,13,14,14,15,15,16,16],"right_children":[2,4,6,-1,-1,8,10,12,14,16,-1,-1,18,20,22,24,26,-1,-1,-1,-1,-1,-1,-1,-1,-1,-1],"split_conditions":[7.6369077E-1,6.8477947E-1,9.135819E-1,-2.0976875E0,-1.2580267E0,8.253352E-1,6.642621E-1,6.051432E-1,4.468638E-1,5.215719E-1,1.3555037E0,-3.4617424E-1,9.6626073E-1,8.84635E-1,7.1470606E-1,8.8200957E-1,9.039013E-1,-1.7778674E-1,-2.2105409E-2,-2.0078953E-1,1.7698616E-1,5.092315E-1,3.2622823E-1,2.8655854E-1,5.94951E-1,7.285E-1,1.0380999E0],"split_indices":[0,0,2,0,0,0,7,4,7,5,0,0,7,2,8,6,6,0,0,0,0,0,0,0,0,0,0],"split_type":[0,0,0,0,0,0,0,0,0,0,0,0,0,0,0,0,0,0,0,0,0,0,0,0,0,0,0],"sum_hessian":[1.99E2,4.7E1,1.52E2,2.7E1,2E1,8.2E1,7E1,1.1E1,7.1E1,5.3E1,1.7E1,3E0,8E0,2.5E1,4.6E1,1.7E1,3.6E1,7E0,1E0,6E0,1.9E1,2.8E1,1.8E1,8E0,9E0,2.3E1,1.3E1],"tree_param":{"num_deleted":"0","num_feature":"10","num_nodes":"27","size_leaf_vector":"1"}},{"base_weights":[8.388596E-3,-3.377663E1,1.0607555E1,-2.0114725E0,-1.2160977E0,4.6385217E0,1.7436037E1,-4.5599113E0,6.10717E0,1.43152E1,1.291494E0,-3.3319265E-1,-3.118169E0,1.5586894E0,8.493411E0,9.051313E0,1.648911E1,-1.7047606E-1,-1.9683838E-2,1.97283E-1,-1.3275146E-1,4.846479E-1,3.1077507E-1,2.7382252E-1,5.6817794E-1,6.935927E-1,9.899023E-1],"categories":[],"categories_nodes":[],"categories_segments":[],"categories_sizes":[],"default_left":[0,0,0,0,0,0,0,0,0,0,0,0,0,0,0,0,0,0,0,0,0,0,0,0,0,0,0],"id":2,"left_children":[1,3,5,-1,-1,7,9,11,13,15,-1,-1,17,19,21,23,25,-1,-1,-1,-1,-1,-1,-1,-1,-1,-1],"loss_changes":[7.197689E4,1.9499844E3,6.1553164E3,0E0,0E0,1.1491167E3,1.4901426E3,1.5621048E1,7.682329E2,4.6868555E2,0E0,0E0,5.8018265E0,2.719844E2,6.817871E1,8.65553E1,4.5796875E1,0E0,0E0,0E0,0E0,0E0,0E0,0E0,0E0,0E0,0E0],"parents":[2147483647,0,0,1,1,2,2,5,5,6,6,7,7,8,8,9,9,12,12,13,13,14,14,15,15,16,16],"right_children":[2,4,6,-1,-1,8,10,12,14,16,-1,-1,18,20,22,24,26,-1,-1,-1,-1,-1,-1,-1,-1,-1,-1],"split_conditions":[7.6369077E-1,5.374737E-1,9.135819E-1,-2.0114725E0,-1.2160977E0,8.253352E-1,6.642621E-1,6.051432E-1,4.468638E-1,5.215719E-1,1.291494E0,-3.3319265E-1,8.2044595E-1,7.588656E-1,7.1470606E-1,8.8200957E-1,9.039013E-1,-1.7047606E-1,-1.9683838E-2,1.97283E-1,-1.3275146E-1,4.846479E-1,3.1077507E-1,2.7382252E-1,5.6817794E-1,6.935927E-1,9.899023E-1],"split_indices":[0,7,2,0,0,0,7,4,7,5,0,0,0,8,8,6,6,0,0,0,0,0,0,0,0,0,0],"split_type":[0,0,0,0,0,0,0,0,0,0,0,0,0,0,0,0,0,0,0,0,0,0,0,0,0,0,0],"sum_hessian":[1.99E2,4.7E1,1.52E2,2.6E1,2.1E1,8.2E1,7E1,1.1E1,7.1E1,5.3E1,1.7E1,3E0,8E0,2.5E1,4.6E1,1.7E1,3.6E1,7E0,1E0,1.6E1,9E0,2.8E1,1.8E1,8E0,9E0,2.3E1,1.3E1],"tree_param":{"num_deleted":"0","num_feature":"10","num_nodes":"27","size_leaf_vector":"1"}},{"base_weights":[1.2600327E-2,-3.2155037E1,1.0104326E1,-1.863489E0,-1.0779965E0,4.696002E0,1.6976265E1,-4.3755317E0,6.0665603E0,1.3888544E1,1.230507E0,-3.20698E-1,-2.9833934E0,2.2405019E0,8.6525E0,8.618422E0,1.6115118E1,-1.6349316E-1,-1.7290879E-2,-2.5296327E-1,1.8898454E-1,8.046544E-2,4.471332E-1,1.6056229E-1,5.017575E-1,8.17629E-1,2.0697251E-1],"categories":[],"categories_nodes":[],"categories_segments":[],"categories_sizes":[],"default_left":[0,0,0,0,0,0,0,0,0,0,0,0,0,0,0,0,0,0,0,0,0,0,0,0,0,0,0],"id":3,"left_children":[1,3,5,-1,-1,7,9,11,13,15,-1,-1,17,19,21,23,25,-1,-1,-1,-1,-1,-1,-1,-1,-1,-1],"loss_changes":[6.5250305E4,1.7976445E3,5.606628E3,0E0,0E0,1.108221E3,1.2374766E3,1.4917923E1,7.325547E2,4.478291E2,0E0,0E0,5.6695023E0,3.786655E2,7.757446E1,9.8003174E1,2.899707E1,0E0,0E0,0E0,0E0,0E0,0E0,0E0,0E0,0E0,0E0],"parents":[2147483647,0,0,1,1,2,2,5,5,6,6,7,7,8,8,9,9,12,12,13,13,14,14,15,15,16,16],"right_children":[2,4,6,-1,-1,8,10,12,14,16,-1,-1,18,20,22,24,26,-1,-1,-1,-1,-1,-1,-1,-1,-1,-1],"split_conditions":[7.6369077E-1,6.9100493E-1,9.152452E-1,-1.863489E0,-1.0779965E0,8.253352E-1,6.642621E-1,6.051432E-1,5.460725E-1,5.215719E-1,1.230507E0,-3.20698E-1,9.6626073E-1,8.84635E-1,8.359998E-1,8.768671E-1,9.9918264E-1,-1.6349316E-1,-1.7290879E-2,-2.5296327E-1,1.8898454E-1,8.046544E-2,4.471332E-1,1.6056229E-1,5.017575E-1,8.17629E-1,2.0697251E-1],"split_indices":[0,0,2,0,0,0,7,4,4,5,0,0,7,2,0,6,1,0,0,0,0,0,0,0,0,0,0],"split_type":[0,0,0,0,0,0,0,0,0,0,0,0,0,0,0,0,0,0,0,0,0,0,0,0,0,0,0],"sum_hessian":[1.99E2,4.7E1,1.52E2,3E1,1.7E1,8.6E1,6.6E1,1.1E1,7.5E1,4.9E1,1.7E1,3E0,8E0,3.1E1,4.4E1,1.6E1,3.3E1,7E0,1E0,5E0,2.6E1,2E0,4.2E1,4E0,1.2E1,3.2E1,1E0],"tree_param":{"num_deleted":"0","num_feature":"10","num_nodes":"27","size_leaf_vector":"1"}},{"base_weights":[1.166359E-2,-3.0608562E1,9.617932E0,-1.8248999E0,-1.099466E0,3.175268E0,1.487232E1,-4.1985435E0,4.621208E0,1.2346435E1,1.1723994E0,-3.0867195E-1,-2.8543074E0,2.796839E-1,7.013111E0,1.0045836E1,1.6907469E1,-1.5677872E-1,-1.5104294E-2,-1.8065436E-1,9.826455E-2,2.968907E-1,4.9091002E-1,2.6491117E-1,5.59289E-1,8.674623E-1,2.0179825E-1],"categories":[],"categories_nodes":[],"categories_segments":[],"categories_sizes":[],"default_left":[0,0,0,0,0,0,0,0,0,0,0,0,0,0,0,0,0,0,0,0,0,0,0,0,0,0,0],"id":4,"left_children":[1,3,5,-1,-1,7,9,11,13,15,-1,-1,17,19,21,23,25,-1,-1,-1,-1,-1,-1,-1,-1,-1,-1],"loss_changes":[5.9123613E4,1.6340352E3,5.132174E3,0E0,0E0,7.6574866E2,1.5300371E3,1.4235825E1,6.1072437E2,5.331885E2,0E0,0E0,5.513481E0,1.514578E2,5.6320923E1,1.9509912E2,4.939209E1,0E0,0E0,0E0,0E0,0E0,0E0,0E0,0E0,0E0,0E0],"parents":[2147483647,0,0,1,1,2,2,5,5,6,6,7,7,8,8,9,9,12,12,13,13,14,14,15,15,16,16],"right_children":[2,4,6,-1,-1,8,10,12,14,16,-1,-1,18,20,22,24,26,-1,-1,-1,-1,-1,-1,-1,-1,-1,-1],"split_conditions":[7.6369077E-1,5.374737E-1,8.991128E-1,-1.8248999E0,-1.099466E0,8.253352E-1,6.642621E-1,6.051432E-1,4.468638E-1,8.994477E-1,1.1723994E0,-3.0867195E-1,8.2044595E-1,8.84635E-1,8.099058E-1,3.513121E-1,9.96039E-1,-1.5677872E-1,-1.5104294E-2,-1.8065436E-1,9.826455E-2,2.968907E-1,4.9091002E-1,2.6491117E-1,5.59289E-1,8.674623E-1,2.0179825E-1],"split_indices":[0,7,0,0,0,0,7,4,7,6,0,0,0,2,7,4,1,0,0,0,0,0,0,0,0,0,0],"split_type":[0,0,0,0,0,0,0,0,0,0,0,0,0,0,0,0,0,0,0,0,0,0,0,0,0,0,0],"sum_hessian":[1.99E2,4.7E1,1.52E2,2.6E1,2.1E1,6.9E1,8.3E1,1.1E1,5.8E1,6.6E1,1.7E1,3E0,8E0,2.1E1,3.7E1,4.6E1,2E1,7E0,1E0,6E0,1.5E1,2.9E1,8E0,1E1,3.6E1,1.9E1,1E0],"tree_param":{"num_deleted":"0","num_feature":"10","num_nodes":"27","size_leaf_vector":"1"}},{"base_weights":[1.2913056E-2,-2.9139051E1,9.158544E0,-1.6896982E0,-9.7517127E-1,3.9637325E0,1.5102357E1,-4.02866E0,5.240746E0,1.2409893E1,1.1170363E0,-2.9709682E-1,-2.7306857E0,1.7678435E0,7.6792994E0,9.757675E0,1.6113012E1,-1.503663E-1,-1.2939072E-2,-2.3489621E-1,1.5959749E-1,6.788712E-2,3.9807168E-1,2.528699E-1,5.7527E-1,8.262578E-1,1.9675331E-1],"categories":[],"categories_nodes":[],"categories_segments":[],"categories_sizes":[],"default_left":[0,0,0,0,0,0,0,0,0,0,0,0,0,0,0,0,0,0,0,0,0,0,0,0,0,0,0],"id":5,"left_children":[1,3,5,-1,-1,7,9,11,13,15,-1,-1,17,19,21,23,25,-1,-1,-1,-1,-1,-1,-1,-1,-1,-1],"loss_changes":[5.358949E4,1.4938477E3,4.6643174E3,0E0,0E0,8.68244E2,1.1064746E3,1.3575058E1,5.9618164E2,3.7313477E2,0E0,0E0,5.376213E0,3.004417E2,6.409863E1,2.2111548E2,4.0373535E1,0E0,0E0,0E0,0E0,0E0,0E0,0E0,0E0,0E0,0E0],"parents":[2147483647,0,0,1,1,2,2,5,5,6,6,7,7,8,8,9,9,12,12,13,13,14,14,15,15,16,16],"right_children":[2,4,6,-1,-1,8,10,12,14,16,-1,-1,18,20,22,24,26,-1,-1,-1,-1,-1,-1,-1,-1,-1,-1],"split_conditions":[7.6369077E-1,6.9100493E-1,9.135819E-1,-1.6896982E0,-9.7517127E-1,8.253352E-1,6.642621E-1,6.051432E-1,5.460725E-1,8.994477E-1,1.1170363E0,-2.9709682E-1,9.6626073E-1,8.84635E-1,8.359998E-1,3.513121E-1,9.96039E-1,-1.503663E-1,-1.2939072E-2,-2.3489621E-1,1.5959749E-1,6.788712E-2,3.9807168E-1,2.528699E-1,5.7527E-1,8.262578E-1,1.9675331E-1],"split_indices":[0,0,2,0,0,0,7,4,4,6,0,0,7,2,0,4,1,0,0,0,0,0,0,0,0,0,0],"split_type":[0,0,0,0,0,0,0,0,0,0,0,0,0,0,0,0,0,0,0,0,0,0,0,0,0,0,0],"sum_hessian":[1.99E2,4.7E1,1.52E2,3E1,1.7E1,8.2E1,7E1,1.1E1,7.1E1,5.3E1,1.7E1,3E0,8E0,3E1,4.1E1,3.3E1,2E1,7E0,1E0,5E0,2.5E1,2E0,3.9E1,1E1,2.3E1,1.9E1,1E0],"tree_param":{"num_deleted":"0","num_feature":"10","num_nodes":"27","size_leaf_vector":"1"}},{"base_weights":[1.34355165E-2,-2.7737617E1,8.719561E0,-1.6556784E0,-9.9395305E-1,2.8474367E0,1.3509192E1,-3.8655956E0,4.1645374E0,1.1218338E1,1.0642875E0,-2.8595543E-1,-2.6123013E0,1.0112878E0,6.980012E0,9.130876E0,1.5356071E1,-1.4420004E-1,-1.09676365E-2,-2.109607E-1,1.0084683E-1,6.562424E-2,3.6628088E-1,2.4137588E-1,5.0817364E-1,7.870103E-1,1.9183464E-1],"categories":[],"categories_nodes":[],"categories_segments":[],"categories_sizes":[],"default_left":[0,0,0,0,0,0,0,0,0,0,0,0,0,0,0,0,0,0,0,0,0,0,0,0,0,0,0],"id":6,"left_children":[1,3,5,-1,-1,7,9,11,13,15,-1,-1,17,19,21,23,25,-1,-1,-1,-1,-1,-1,-1,-1,-1,-1],"loss_changes":[4.8562688E4,1.3695977E3,4.264706E3,0E0,0E0,6.3502026E2,1.257666E3,1.2935928E1,5.1673694E2,4.3848926E2,0E0,0E0,5.218849E0,1.6105127E2,5.1105957E1,1.5978662E2,3.253418E1,0E0,0E0,0E0,0E0,0E0,0E0,0E0,0E0,0E0,0E0],"parents":[2147483647,0,0,1,1,2,2,5,5,6,6,7,7,8,8,9,9,12,12,13,13,14,14,15,15,16,16],"right_children":[2,4,6,-1,-1,8,10,12,14,16,-1,-1,18,20,22,24,26,-1,-1,-1,-1,-1,-1,-1,-1,-1,-1],"split_conditions":[7.6369077E-1,5.374737E-1,8.991128E-1,-1.6556784E0,-9.9395305E-1,8.253352E-1,6.642621E-1,6.051432E-1,5.198651E-1,8.994477E-1,1.0642875E0,-2.8595543E-1,8.2044595E-1,4.9687165E-1,8.359998E-1,3.513121E-1,9.96039E-1,-1.4420004E-1,-1.09676365E-2,-2.109607E-1,1.0084683E-1,6.562424E-2,3.6628088E-1,2.4137588E-1,5.0817364E-1,7.870103E-1,1.9183464E-1],"split_indices":[0,7,0,0,0,0,7,4,7,6,0,0,0,5,0,4,1,0,0,0,0,0,0,0,0,0,0],"split_type":[0,0,0,0,0,0,0,0,0,0,0,0,0,0,0,0,0,0,0,0,0,0,0,0,0,0,0],"sum_hessian":[1.99E2,4.7E1,1.52E2,2.6E1,2.1E1,6.9E1,8.3E1,1.1E1,5.8E1,6.6E1,1.7E1,3E0,8E0,2.8E1,3E1,4.6E1,2E1,7E0,1E0,4E0,2.4E1,2E0,2.8E1,1E1,3.6E1,1.9E1,1E0],"tree_param":{"num_deleted":"0","num_feature":"10","num_nodes":"27","size_leaf_vector":"1"}},{"base_weights":[1.2881317E-2,-2.6405931E1,8.301052E0,-1.532094E0,-8.821845E-1,4.577129E0,1.5240961E1,-3.7090797E0,5.6310997E0,7.7025046E0,1.7498398E1,-2.7523232E-1,-2.4989302E0,1.8887949E0,7.76456E0,8.137608E0,5.1154327E-2,1.8171938E1,3.4467697E-1,-1.3831215E-1,-9.010697E-3,1.8982986E-1,-9.6261285E-2,5.2558935E-1,3.0571607E-1,1.2799454E-1,4.4595104E-1,9.234447E-1,1.8703881E-1],"categories":[],"categories_nodes":[],"categories_segments":[],"categories_sizes":[],"default_left":[0,0,0,0,0,0,0,0,0,0,0,0,0,0,0,0,0,0,0,0,0,0,0,0,0,0,0,0,0],"id":7,"left_children":[1,3,5,-1,-1,7,9,11,13,15,17,-1,19,21,23,25,-1,27,-1,-1,-1,-1,-1,-1,-1,-1,-1,-1,-1],"loss_changes":[4.4011926E4,1.2409531E3,3.8843242E3,0E0,0E0,9.029617E2,7.671494E2,1.2319122E1,7.0389966E2,3.2361755E1,1.6044336E2,0E0,5.0798836E0,2.5470679E2,1.9414185E2,3.3828796E1,0E0,8.947266E1,0E0,0E0,0E0,0E0,0E0,0E0,0E0,0E0,0E0,0E0,0E0],"parents":[2147483647,0,0,1,1,2,2,5,5,6,6,7,7,8,8,9,9,10,10,12,12,13,13,14,14,15,15,17,17],"right_children":[2,4,6,-1,-1,8,10,12,14,16,18,-1,20,22,24,26,-1,28,-1,-1,-1,-1,-1,-1,-1,-1,-1,-1,-1],"split_conditions":[7.6369077E-1,6.9100493E-1,9.225744E-1,-1.532094E0,-8.821845E-1,8.253352E-1,5.215719E-1,6.051432E-1,6.333771E-1,9.760817E-1,8.9966667E-1,-2.7523232E-1,9.6626073E-1,7.21623E-1,6.593049E-1,2.2911407E-2,5.1154327E-2,9.9918264E-1,3.4467697E-1,-1.3831215E-1,-9.010697E-3,1.8982986E-1,-9.6261285E-2,5.2558935E-1,3.0571607E-1,1.2799454E-1,4.4595104E-1,9.234447E-1,1.8703881E-1],"split_indices":[0,0,0,0,0,0,5,4,5,1,8,0,7,8,8,7,0,1,0,0,0,0,0,0,0,0,0,0,0],"split_type":[0,0,0,0,0,0,0,0,0,0,0,0,0,0,0,0,0,0,0,0,0,0,0,0,0,0,0,0,0],"sum_hessian":[1.99E2,4.7E1,1.52E2,3E1,1.7E1,1E2,5.2E1,1.1E1,8.9E1,1.3E1,3.9E1,3E0,8E0,3.3E1,5.6E1,1.2E1,1E0,3.6E1,3E0,7E0,1E0,2.2E1,1.1E1,1.9E1,3.7E1,2E0,1E1,3.5E1,1E0],"tree_param":{"num_deleted":"0","num_feature":"10","num_nodes":"29","size_leaf_vector":"1"}},{"base_weights":[1.307869E-2,-2.5135935E1,7.9028797E0,-1.5021929E0,-8.985016E-1,2.7588475E0,1.2441293E1,-3.5588405E0,3.937128E0,1.0281169E1,9.715275E-1,-2.649109E-1,-2.390357E0,1.1070737E-1,5.894302E0,8.3292055E0,1.3881418E1,-1.3264866E-1,-7.235718E-3,-1.6088104E-1,7.799659E-2,2.53454E-1,4.3323547E-1,2.1947534E-1,4.6794185E-1,7.105382E-1,1.8236275E-1],"categories":[],"categories_nodes":[],"categories_segments":[],"categories_sizes":[],"default_left":[0,0,0,0,0,0,0,0,0,0,0,0,0,0,0,0,0,0,0,0,0,0,0,0,0,0,0],"id":8,"left_children":[1,3,5,-1,-1,7,9,11,13,15,-1,-1,17,19,21,23,25,-1,-1,-1,-1,-1,-1,-1,-1,-1,-1],"loss_changes":[3.988279E4,1.1482539E3,3.5375752E3,0E0,0E0,5.574244E2,1.0231416E3,1.1724564E1,4.6366364E2,3.341421E2,0E0,0E0,4.923752E0,1.1113614E2,4.9812256E1,1.3740283E2,1.8951904E1,0E0,0E0,0E0,0E0,0E0,0E0,0E0,0E0,0E0,0E0],"parents":[2147483647,0,0,1,1,2,2,5,5,6,6,7,7,8,8,9,9,12,12,13,13,14,14,15,15,16,16],"right_children":[2,4,6,-1,-1,8,10,12,14,16,-1,-1,18,20,22,24,26,-1,-1,-1,-1,-1,-1,-1,-1,-1,-1],"split_conditions":[7.6369077E-1,5.374737E-1,9.02749E-1,-1.5021929E0,-8.985016E-1,8.253352E-1,6.642621E-1,6.051432E-1,4.468638E-1,8.994477E-1,9.715275E-1,-2.649109E-1,8.2044595E-1,8.84635E-1,8.762899E-1,3.513121E-1,9.96039E-1,-1.3264866E-1,-7.235718E-3,-1.6088104E-1,7.799659E-2,2.53454E-1,4.3323547E-1,2.1947534E-1,4.6794185E-1,7.105382E-1,1.8236275E-1],"split_indices":[0,7,0,0,0,0,7,4,7,6,0,0,0,2,7,4,1,0,0,0,0,0,0,0,0,0,0],"split_type":[0,0,0,0,0,0,0,0,0,0,0,0,0,0,0,0,0,0,0,0,0,0,0,0,0,0,0],"sum_hessian":[1.99E2,4.7E1,1.52E2,2.6E1,2.1E1,7.2E1,8E1,1.1E1,6.1E1,6.3E1,1.7E1,3E0,8E0,2.1E1,4E1,4.3E1,2E1,7E0,1E0,6E0,1.5E1,3.3E1,7E0,1E1,3.3E1,1.9E1,1E0],"tree_param":{"num_deleted":"0","num_feature":"10","num_nodes":"27","size_leaf_vector":"1"}},{"base_weights":[1.4175262E-2,-2.3929152E1,7.5257144E0,-1.4298649E0,-8.5561866E-1,4.1306443E0,1.385357E1,-3.0976562E0,5.140052E0,1.0459606E1,9.2636234E-1,-3.6994019E0,1.4129639E-1,2.2963552E0,7.6323695E0,4.059835E0,1.1457429E1,-2.0237327E-1,-5.4691317E-3,-7.054901E-3,1.765213E-2,-2.1080105E-1,1.6320974E-1,4.261611E-1,2.1618907E-1,2.2583465E-1,4.438858E-2,4.1729357E-2,5.909979E-1],"categories":[],"categories_nodes":[],"categories_segments":[],"categories_sizes":[],"default_left":[0,0,0,0,0,0,0,0,0,0,0,0,0,0,0,0,0,0,0,0,0,0,0,0,0,0,0,0,0],"id":9,"left_children":[1,3,5,-1,-1,7,9,11,13,15,-1,17,19,21,23,25,27,-1,-1,-1,-1,-1,-1,-1,-1,-1,-1,-1,-1],"loss_changes":[3.6150332E4,1.0380742E3,3.229754E3,0E0,0E0,7.5284863E2,6.4691406E2,2.5860046E1,6.1325146E2,1.6421729E2,0E0,1.3302383E1,2.2920145E-1,2.8478815E2,1.0167822E2,4.6853027E0,9.796509E1,0E0,0E0,0E0,0E0,0E0,0E0,0E0,0E0,0E0,0E0,0E0,0E0],"parents":[2147483647,0,0,1,1,2,2,5,5,6,6,7,7,8,8,9,9,11,11,12,12,13,13,14,14,15,15,16,16],"right_children":[2,4,6,-1,-1,8,10,12,14,16,-1,18,20,22,24,26,28,-1,-1,-1,-1,-1,-1,-1,-1,-1,-1,-1,-1],"split_conditions":[7.6369077E-1,5.374737E-1,9.225744E-1,-1.4298649E0,-8.5561866E-1,8.305717E-1,5.4442275E-1,8.2044595E-1,5.6382567E-1,8.826455E-1,9.2636234E-1,9.6626073E-1,8.253352E-1,8.84635E-1,7.212211E-1,9.746623E-1,9.7932085E-2,-2.0237327E-1,-5.4691317E-3,-7.054901E-3,1.765213E-2,-2.1080105E-1,1.6320974E-1,4.261611E-1,2.1618907E-1,2.2583465E-1,4.438858E-2,4.1729357E-2,5.909979E-1],"split_indices":[0,7,0,0,0,0,7,0,4,6,0,7,0,2,8,1,7,0,0,0,0,0,0,0,0,0,0,0,0],"split_type":[0,0,0,0,0,0,0,0,0,0,0,0,0,0,0,0,0,0,0,0,0,0,0,0,0,0,0,0,0],"sum_hessian":[1.99E2,4.7E1,1.52E2,2.6E1,2.1E1,1E2,5.2E1,1.2E1,8.8E1,3.2E1,2E1,1E1,2E0,4.2E1,4.6E1,5E0,2.7E1,9E0,1E0,1E0,1E0,5E0,3.7E1,3.5E1,1.1E1,4E0,1E0,1E0,2.6E1],"tree_param":{"num_deleted":"0","num_feature":"10","num_nodes":"29","size_leaf_vector":"1"}},{"base_weights":[1.3173981E-2,-2.2780304E1,7.163983E0,-1.3148216E0,-7.410846E-1,3.026118E0,1.1900304E1,-3.261809E0,4.0320764E0,9.758065E0,8.832945E-1,-2.4738769E-1,-2.1500769E0,8.453804E-1,5.8148746E0,6.0321293E0,1.13069515E1,-1.1960869E-1,-5.3325654E-3,-2.0201771E-1,1.0697136E-1,4.0900674E-2,3.0117068E-1,4.3480515E-1,2.1692963E-1,4.6264026E-1,6.71236E-1],"categories":[],"categories_nodes":[],"categories_segments":[],"categories_sizes":[],"default_left":[0,0,0,0,0,0,0,0,0,0,0,0,0,0,0,0,0,0,0,0,0,0,0,0,0,0,0],"id":10,"left_children":[1,3,5,-1,-1,7,9,11,13,15,-1,-1,17,19,21,23,25,-1,-1,-1,-1,-1,-1,-1,-1,-1,-1],"loss_changes":[3.2761557E4,9.534512E2,2.9625215E3,0E0,0E0,5.381595E2,7.045537E2,1.1853767E1,4.041333E2,2.4343213E2,0E0,0E0,4.197235E0,1.79348E2,4.300659E1,4.347882E1,3.674121E1,0E0,0E0,0E0,0E0,0E0,0E0,0E0,0E0,0E0,0E0],"parents":[2147483647,0,0,1,1,2,2,5,5,6,6,7,7,8,8,9,9,12,12,13,13,14,14,15,15,16,16],"right_children":[2,4,6,-1,-1,8,10,12,14,16,-1,-1,18,20,22,24,26,-1,-1,-1,-1,-1,-1,-1,-1,-1,-1],"split_conditions":[7.6369077E-1,6.937637E-1,9.135819E-1,-1.3148216E0,-7.410846E-1,8.253352E-1,6.642621E-1,6.051432E-1,5.2737945E-1,5.215719E-1,8.832945E-1,-2.4738769E-1,9.6626073E-1,8.84635E-1,8.359998E-1,2.6771927E-1,8.994937E-1,-1.1960869E-1,-5.3325654E-3,-2.0201771E-1,1.0697136E-1,4.0900674E-2,3.0117068E-1,4.3480515E-1,2.1692963E-1,4.6264026E-1,6.71236E-1],"split_indices":[0,0,2,0,0,0,7,4,4,5,0,0,7,2,0,4,6,0,0,0,0,0,0,0,0,0,0],"split_type":[0,0,0,0,0,0,0,0,0,0,0,0,0,0,0,0,0,0,0,0,0,0,0,0,0,0,0],"sum_hessian":[1.99E2,4.7E1,1.52E2,3.1E1,1.6E1,8.2E1,7E1,1.1E1,7.1E1,5.3E1,1.7E1,3E0,8E0,2.6E1,4.5E1,1.7E1,3.6E1,7E0,1E0,5E0,2.1E1,2E0,4.3E1,5E0,1.2E1,2.1E1,1.5E1],"tree_param":{"num_deleted":"0","num_feature":"10","num_nodes":"27","size_leaf_vector":"1"}},{"base_weights":[1.4951859E-2,-2.168412E1,6.822406E0,-1.2977132E0,-7.728924E-1,2.139542E0,1.0643574E1,-3.1297429E0,3.1749976E0,8.822243E0,8.415831E-1,-2.3811054E-1,-2.0564525E0,5.8326405E-1,5.497103E0,7.2016406E0,1.2029198E1,-1.1470337E-1,-3.8883209E-3,-1.8780349E-1,7.139002E-2,3.953756E-2,2.8972062E-1,1.8853287E-1,4.0135118E-1,6.1690813E-1,1.4624786E-1],"categories":[],"categories_nodes":[],"categories_segments":[],"categories_sizes":[],"default_left":[0,0,0,0,0,0,0,0,0,0,0,0,0,0,0,0,0,0,0,0,0,0,0,0,0,0,0],"id":11,"left_children":[1,3,5,-1,-1,7,9,11,13,15,-1,-1,17,19,21,23,25,-1,-1,-1,-1,-1,-1,-1,-1,-1,-1],"loss_changes":[2.9691025E4,8.7498047E2,2.7150107E3,0E0,0E0,3.9186462E2,7.982334E2,1.1232086E1,3.518722E2,2.6158203E2,0E0,0E0,4.053089E0,1.1163993E2,3.8794495E1,1.02831055E2,2.2982178E1,0E0,0E0,0E0,0E0,0E0,0E0,0E0,0E0,0E0,0E0],"parents":[2147483647,0,0,1,1,2,2,5,5,6,6,7,7,8,8,9,9,12,12,13,13,14,14,15,15,16,16],"right_children":[2,4,6,-1,-1,8,10,12,14,16,-1,-1,18,20,22,24,26,-1,-1,-1,-1,-1,-1,-1,-1,-1,-1],"split_conditions":[7.6369077E-1,5.374737E-1,8.991128E-1,-1.2977132E0,-7.728924E-1,8.253352E-1,6.642621E-1,6.051432E-1,5.198651E-1,8.994477E-1,8.415831E-1,-2.3811054E-1,8.2044595E-1,4.9687165E-1,8.359998E-1,3.513121E-1,9.96039E-1,-1.1470337E-1,-3.8883209E-3,-1.8780349E-1,7.139002E-2,3.953756E-2,2.8972062E-1,1.8853287E-1,4.0135118E-1,6.1690813E-1,1.4624786E-1],"split_indices":[0,7,0,0,0,0,7,4,7,6,0,0,0,5,0,4,1,0,0,0,0,0,0,0,0,0,0],"split_type":[0,0,0,0,0,0,0,0,0,0,0,0,0,0,0,0,0,0,0,0,0,0,0,0,0,0,0],"sum_hessian":[1.99E2,4.7E1,1.52E2,2.6E1,2.1E1,6.9E1,8.3E1,1.1E1,5.8E1,6.6E1,1.7E1,3E0,8E0,2.8E1,3E1,4.6E1,2E1,7E0,1E0,4E0,2.4E1,2E0,2.8E1,1E1,3.6E1,1.9E1,1E0],"tree_param":{"num_deleted":"0","num_feature":"10","num_nodes":"27","size_leaf_vector":"1"}},{"base_weights":[1.4103469E-2,-2.036622E1,6.5839834E0,-1.1923772E0,-1.3045743E1,3.6369867E0,1.2020128E1,-6.698386E-1,-1.7695656E-1,1.8922511E0,6.4338646E0,5.9761896E0,1.3835004E1,-2.6325018E0,2.7956479E0,4.749693E0,8.981751E0,3.9812344E-1,3.9879827E0,7.8985626E-1,1.0251126E1,-1.4432122E-1,-2.3319244E-3,-1.7738795E-2,2.4371003E-1,2.590705E-1,1.2595114E-1,4.6771666E-1,1.0345497E-1,2.9970703E-1,9.929403E-2,5.267672E-1,1.4259148E-1],"categories":[],"categories_nodes":[],"categories_segments":[],"categories_sizes":[],"default_left":[0,0,0,0,0,0,0,0,0,0,0,0,0,0,0,0,0,0,0,0,0,0,0,0,0,0,0,0,0,0,0,0,0],"id":12,"left_children":[1,3,5,-1,7,9,11,-1,-1,13,15,17,19,21,23,25,27,-1,29,-1,31,-1,-1,-1,-1,-1,-1,-1,-1,-1,-1,-1,-1],"loss_changes":[2.6913346E4,9.376543E2,2.3913696E3,0E0,1.2654541E1,4.7580664E2,4.9867578E2,0E0,0E0,2.6488135E2,1.2040039E2,2.3533691E1,1.193418E2,7.0880737E0,3.4879025E2,1.1023376E1,1.6702393E1,0E0,2.4245148E1,0E0,5.7060547E0,0E0,0E0,0E0,0E0,0E0,0E0,0E0,0E0,0E0,0E0,0E0,0E0],"parents":[2147483647,0,0,1,1,2,2,4,4,5,5,6,6,9,9,10,10,11,11,12,12,13,13,14,14,15,15,16,16,18,18,20,20],"right_children":[2,4,6,-1,8,10,12,-1,-1,14,16,18,20,22,24,26,28,-1,30,-1,32,-1,-1,-1,-1,-1,-1,-1,-1,-1,-1,-1,-1],"split_conditions":[7.678556E-1,6.937637E-1,9.225744E-1,-1.1923772E0,7.6369077E-1,9.0059674E-1,5.215719E-1,-6.698386E-1,-1.7695656E-1,8.253352E-1,6.5107423E-1,2.6771927E-1,8.2853436E-1,9.6626073E-1,5.2737945E-1,9.2039067E-1,6.593049E-1,3.9812344E-1,9.3604E-1,7.8985626E-1,9.572774E-1,-1.4432122E-1,-2.3319244E-3,-1.7738795E-2,2.4371003E-1,2.590705E-1,1.2595114E-1,4.6771666E-1,1.0345497E-1,2.9970703E-1,9.929403E-2,5.267672E-1,1.4259148E-1],"split_indices":[0,0,0,0,0,2,5,0,0,0,4,4,8,7,4,0,8,0,0,0,0,0,0,0,0,0,0,0,0,0,0,0,0],"split_type":[0,0,0,0,0,0,0,0,0,0,0,0,0,0,0,0,0,0,0,0,0,0,0,0,0,0,0,0,0,0,0,0,0],"sum_hessian":[1.99E2,4.8E1,1.51E2,3.1E1,1.7E1,9.9E1,5.2E1,1.6E1,1E0,6.2E1,3.7E1,1.3E1,3.9E1,1E1,5.2E1,2.4E1,1.3E1,5E0,8E0,2.3E1,1.6E1,9E0,1E0,2.1E1,3.1E1,1.9E1,5E0,1.2E1,1E0,3E0,5E0,1.5E1,1E0],"tree_param":{"num_deleted":"0","num_feature":"10","num_nodes":"33","size_leaf_vector":"1"}},{"base_weights":[1.9664688E-2,-1.9389519E1,6.276443E0,-1.2081193E0,-1.4238044E1,3.4654946E0,1.1461696E1,-7.7629817E-1,-4.262135E-1,1.7988979E0,6.1373396E0,8.817671E0,7.864511E-1,-2.5142114E0,2.66013E0,4.5276155E0,8.573465E0,3.3262608E0,9.62203E0,-1.3824502E-1,-1.8310547E-4,-1.6891828E-2,2.3190515E-1,2.4676494E-1,1.2070338E-1,4.461299E-1,1.00868605E-1,1.8731171E-1,3.0659867E-2,2.8067017E-2,4.9575558E-1],"categories":[],"categories_nodes":[],"categories_segments":[],"categories_sizes":[],"default_left":[0,0,0,0,0,0,0,0,0,0,0,0,0,0,0,0,0,0,0,0,0,0,0,0,0,0,0,0,0,0,0],"id":13,"left_children":[1,3,5,-1,7,9,11,-1,-1,13,15,17,-1,19,21,23,25,27,29,-1,-1,-1,-1,-1,-1,-1,-1,-1,-1,-1,-1],"loss_changes":[2.4409488E4,8.6075195E2,2.175753E3,0E0,5.89834E1,4.342483E2,4.5930078E2,0E0,0E0,2.4070721E2,1.1019946E2,1.2259204E2,0E0,6.9129105E0,3.158514E2,9.627258E0,1.4044922E1,4.539299E0,7.409985E1,0E0,0E0,0E0,0E0,0E0,0E0,0E0,0E0,0E0,0E0,0E0,0E0],"parents":[2147483647,0,0,1,1,2,2,4,4,5,5,6,6,9,9,10,10,11,11,13,13,14,14,15,15,16,16,17,17,18,18],"right_children":[2,4,6,-1,8,10,12,-1,-1,14,16,18,-1,20,22,24,26,28,30,-1,-1,-1,-1,-1,-1,-1,-1,-1,-1,-1,-1],"split_conditions":[7.678556E-1,6.403777E-1,9.225744E-1,-1.2081193E0,7.492966E-1,9.0059674E-1,6.6166115E-1,-7.7629817E-1,-4.262135E-1,8.253352E-1,6.5107423E-1,8.826455E-1,7.864511E-1,8.2044595E-1,5.2737945E-1,9.2039067E-1,6.593049E-1,9.746623E-1,9.7932085E-2,-1.3824502E-1,-1.8310547E-4,-1.6891828E-2,2.3190515E-1,2.4676494E-1,1.2070338E-1,4.461299E-1,1.00868605E-1,1.8731171E-1,3.0659867E-2,2.8067017E-2,4.9575558E-1],"split_indices":[0,5,0,0,0,2,5,0,0,0,4,6,0,0,4,0,8,1,7,0,0,0,0,0,0,0,0,0,0,0,0],"split_type":[0,0,0,0,0,0,0,0,0,0,0,0,0,0,0,0,0,0,0,0,0,0,0,0,0,0,0,0,0,0,0],"sum_hessian":[1.99E2,4.8E1,1.51E2,2.3E1,2.5E1,9.9E1,5.2E1,1.9E1,6E0,6.2E1,3.7E1,3.4E1,1.8E1,1E1,5.2E1,2.4E1,1.3E1,5E0,2.9E1,9E0,1E0,2.1E1,3.1E1,1.9E1,5E0,1.2E1,1E0,4E0,1E0,1E0,2.8E1],"tree_param":{"num_deleted":"0","num_feature":"10","num_nodes":"31","size_leaf_vector":"1"}},{"base_weights":[1.9222794E-2,-1.8469246E1,5.9791946E0,-1.1502305E0,-1.3572399E1,2.6966379E0,9.994461E0,-7.3942435E-1,-4.0794745E-1,-2.189963E0,3.4526186E0,4.96299E0,1.1574305E1,-2.64048E0,4.1748047E-2,9.771013E-1,5.2145705E0,3.6344898E-1,3.5169184E0,9.624564E0,7.3070663E-1,-1.4695613E-1,1.1825562E-3,-1.7852783E-4,3.3096315E-3,-1.8865217E-1,9.982501E-2,2.726167E-1,7.666474E-2,8.4886275E-2,2.4168472E-1,4.9924427E-1,2.212965E-1],"categories":[],"categories_nodes":[],"categories_segments":[],"categories_sizes":[],"default_left":[0,0,0,0,0,0,0,0,0,0,0,0,0,0,0,0,0,0,0,0,0,0,0,0,0,0,0,0,0,0,0,0,0],"id":14,"left_children":[1,3,5,-1,7,9,11,-1,-1,13,15,17,19,21,23,25,27,-1,29,31,-1,-1,-1,-1,-1,-1,-1,-1,-1,-1,-1,-1,-1],"loss_changes":[2.2148582E4,7.760117E2,1.9764604E3,0E0,5.050537E1,3.215661E2,4.8308496E2,0E0,0E0,1.21753235E1,3.1767383E2,3.445883E1,1.6161572E2,8.025742E0,3.5597272E-3,1.624862E2,2.9276611E1,0E0,2.2934814E1,1.9495605E1,0E0,0E0,0E0,0E0,0E0,0E0,0E0,0E0,0E0,0E0,0E0,0E0,0E0],"parents":[2147483647,0,0,1,1,2,2,4,4,5,5,6,6,9,9,10,10,11,11,12,12,13,13,14,14,15,15,16,16,18,18,19,19],"right_children":[2,4,6,-1,8,10,12,-1,-1,14,16,18,20,22,24,26,28,-1,30,32,-1,-1,-1,-1,-1,-1,-1,-1,-1,-1,-1,-1,-1],"split_conditions":[7.678556E-1,6.403777E-1,9.1394305E-1,-1.1502305E0,7.492966E-1,8.305717E-1,5.215719E-1,-7.3942435E-1,-4.0794745E-1,8.2044595E-1,5.475838E-1,2.6771927E-1,6.642621E-1,9.6626073E-1,8.253352E-1,8.84635E-1,8.2917875E-1,3.6344898E-1,3.2471052E-1,8.9966667E-1,7.3070663E-1,-1.4695613E-1,1.1825562E-3,-1.7852783E-4,3.3096315E-3,-1.8865217E-1,9.982501E-2,2.726167E-1,7.666474E-2,8.4886275E-2,2.4168472E-1,4.9924427E-1,2.212965E-1],"split_indices":[0,5,2,0,0,0,5,0,0,0,4,4,7,7,0,2,8,0,4,8,0,0,0,0,0,0,0,0,0,0,0,0,0],"split_type":[0,0,0,0,0,0,0,0,0,0,0,0,0,0,0,0,0,0,0,0,0,0,0,0,0,0,0,0,0,0,0,0,0],"sum_hessian":[1.99E2,4.8E1,1.51E2,2.3E1,2.5E1,8.4E1,6.7E1,1.9E1,6E0,1.1E1,7.3E1,1.7E1,5E1,9E0,2E0,3.1E1,4.2E1,5E0,1.2E1,3.3E1,1.7E1,8E0,1E0,1E0,1E0,5E0,2.6E1,3.9E1,3E0,6E0,6E0,3E1,3E0],"tree_param":{"num_deleted":"0","num_feature":"10","num_nodes":"33","size_leaf_vector":"1"}},{"base_weights":[1.8071746E-2,-1.7592669E1,5.6950994E0,-1.0238552E0,-1.0958609E1,3.1249418E0,1.0436999E1,-5.632162E-1,-1.5167885E-1,1.6088696E0,5.5561943E0,8.033017E0,7.158036E-1,-2.5230317E0,2.3442426E0,4.076928E0,7.8008704E0,3.052976E0,8.761258E0,-1.4042468E-1,1.153183E-3,-1.757171E-2,2.0351613E-1,2.2363053E-1,1.03924945E-1,4.0596515E-1,9.153137E-2,1.7207001E-1,2.7771378E-2,2.5243377E-2,4.514276E-1],"categories":[],"categories_nodes":[],"categories_segments":[],"categories_sizes":[],"default_left":[0,0,0,0,0,0,0,0,0,0,0,0,0,0,0,0,0,0,0,0,0,0,0,0,0,0,0,0,0,0,0],"id":15,"left_children":[1,3,5,-1,7,9,11,-1,-1,13,15,17,-1,19,21,23,25,27,29,-1,-1,-1,-1,-1,-1,-1,-1,-1,-1,-1,-1],"loss_changes":[2.0095525E4,7.1324023E2,1.819875E3,0E0,7.0164795E0,3.5965625E2,3.7923535E2,0E0,0E0,1.9733936E2,9.437439E1,1.0018579E2,0E0,7.3329163E0,2.5268997E2,1.047229E1,1.1752258E1,3.9091988E0,6.1648193E1,0E0,0E0,0E0,0E0,0E0,0E0,0E0,0E0,0E0,0E0,0E0,0E0],"parents":[2147483647,0,0,1,1,2,2,4,4,5,5,6,6,9,9,10,10,11,11,13,13,14,14,15,15,16,16,17,17,18,18],"right_children":[2,4,6,-1,8,10,12,-1,-1,14,16,18,-1,20,22,24,26,28,30,-1,-1,-1,-1,-1,-1,-1,-1,-1,-1,-1,-1],"split_conditions":[7.678556E-1,6.9741154E-1,9.225744E-1,-1.0238552E0,7.6369077E-1,9.0059674E-1,6.6166115E-1,-5.632162E-1,-1.5167885E-1,8.2044595E-1,6.5107423E-1,8.826455E-1,7.158036E-1,9.6626073E-1,5.2737945E-1,9.2039067E-1,6.593049E-1,9.746623E-1,9.7932085E-2,-1.4042468E-1,1.153183E-3,-1.757171E-2,2.0351613E-1,2.2363053E-1,1.03924945E-1,4.0596515E-1,9.153137E-2,1.7207001E-1,2.7771378E-2,2.5243377E-2,4.514276E-1],"split_indices":[0,0,0,0,0,2,5,0,0,0,4,6,0,7,4,0,8,1,7,0,0,0,0,0,0,0,0,0,0,0,0],"split_type":[0,0,0,0,0,0,0,0,0,0,0,0,0,0,0,0,0,0,0,0,0,0,0,0,0,0,0,0,0,0,0],"sum_hessian":[1.99E2,4.8E1,1.51E2,3.2E1,1.6E1,9.9E1,5.2E1,1.5E1,1E0,6.2E1,3.7E1,3.4E1,1.8E1,9E0,5.3E1,2.4E1,1.3E1,5E0,2.9E1,8E0,1E0,2.1E1,3.2E1,1.9E1,5E0,1.2E1,1E0,4E0,1E0,1E0,2.8E1],"tree_param":{"num_deleted":"0","num_feature":"10","num_nodes":"31","size_leaf_vector":"1"}},{"base_weights":[1.9792862E-2,-1.6748524E1,5.4252386E0,-1.0460556E0,-1.2252732E1,2.9774115E0,9.941417E0,-6.6718453E-1,-3.6926588E-1,-1.8199662E0,3.6522808E0,7.650692E0,6.818971E-1,-2.4108062E0,1.121254E-1,1.5193877E0,5.6566143E0,2.933632E0,8.339081E0,-1.3418351E-1,1.1241913E-3,-4.7487896E-3,1.8335724E-2,1.5939642E-1,-2.2993397E-2,3.6437482E-1,2.2527623E-1,1.9806188E-1,7.147598E-2,2.4612427E-2,4.296344E-1],"categories":[],"categories_nodes":[],"categories_segments":[],"categories_sizes":[],"default_left":[0,0,0,0,0,0,0,0,0,0,0,0,0,0,0,0,0,0,0,0,0,0,0,0,0,0,0,0,0,0,0],"id":16,"left_children":[1,3,5,-1,7,9,11,-1,-1,13,15,17,-1,19,21,23,25,27,29,-1,-1,-1,-1,-1,-1,-1,-1,-1,-1,-1,-1],"loss_changes":[1.8218908E4,6.6285547E2,1.6507334E3,0E0,3.95166E1,3.304073E2,3.444497E2,0E0,0E0,1.511055E1,3.6760803E2,8.9187256E1,0E0,6.699913E0,2.4573179E-1,1.4677466E2,5.1644043E1,3.6111374E0,5.547046E1,0E0,0E0,0E0,0E0,0E0,0E0,0E0,0E0,0E0,0E0,0E0,0E0],"parents":[2147483647,0,0,1,1,2,2,4,4,5,5,6,6,9,9,10,10,11,11,13,13,14,14,15,15,16,16,17,17,18,18],"right_children":[2,4,6,-1,8,10,12,-1,-1,14,16,18,-1,20,22,24,26,28,30,-1,-1,-1,-1,-1,-1,-1,-1,-1,-1,-1,-1],"split_conditions":[7.678556E-1,6.403777E-1,9.225744E-1,-1.0460556E0,7.492966E-1,8.359998E-1,6.6166115E-1,-6.6718453E-1,-3.6926588E-1,8.2044595E-1,5.198651E-1,8.826455E-1,6.818971E-1,9.6626073E-1,8.305717E-1,7.167118E-1,6.593049E-1,9.5893264E-1,9.7932085E-2,-1.3418351E-1,1.1241913E-3,-4.7487896E-3,1.8335724E-2,1.5939642E-1,-2.2993397E-2,3.6437482E-1,2.2527623E-1,1.9806188E-1,7.147598E-2,2.4612427E-2,4.296344E-1],"split_indices":[0,5,0,0,0,0,5,0,0,0,7,6,0,7,0,8,8,0,7,0,0,0,0,0,0,0,0,0,0,0,0],"split_type":[0,0,0,0,0,0,0,0,0,0,0,0,0,0,0,0,0,0,0,0,0,0,0,0,0,0,0,0,0,0,0],"sum_hessian":[1.99E2,4.8E1,1.51E2,2.3E1,2.5E1,9.9E1,5.2E1,1.9E1,6E0,1.2E1,8.7E1,3.4E1,1.8E1,9E0,3E0,4.3E1,4.4E1,5E0,2.9E1,8E0,1E0,2E0,1E0,2.3E1,2E1,1.6E1,2.8E1,2E0,3E0,1E0,2.8E1],"tree_param":{"num_deleted":"0","num_feature":"10","num_nodes":"31","size_leaf_vector":"1"}},{"base_weights":[1.8450242E-2,-1.5953598E1,5.167213E0,-9.959322E-1,-1.16799555E1,2.8346057E0,9.470863E0,-6.35493E-1,-3.534403E-1,-1.738158E0,3.4779162E0,4.6667657E0,1.0915526E1,-2.3035705E0,1.0991287E-1,1.371828E0,5.371044E0,3.1585172E-1,3.0480566E0,1.3037013E1,8.375277E0,-3.7308123E-2,-1.4322184E-1,-4.590607E-3,1.7877197E-2,-1.791008E-1,1.0589565E-1,2.9393873E-1,1.3152559E-1,2.3801576E-1,6.992709E-2,1.745491E-1,6.6778505E-1,4.485672E-1,1.7995758E-1],"categories":[],"categories_nodes":[],"categories_segments":[],"categories_sizes":[],"default_left":[0,0,0,0,0,0,0,0,0,0,0,0,0,0,0,0,0,0,0,0,0,0,0,0,0,0,0,0,0,0,0,0,0,0,0],"id":17,"left_children":[1,3,5,-1,7,9,11,-1,-1,13,15,17,19,21,23,25,27,-1,29,31,33,-1,-1,-1,-1,-1,-1,-1,-1,-1,-1,-1,-1,-1,-1],"loss_changes":[1.6529691E4,5.97667E2,1.4990405E3,0E0,3.363159E1,3.0021588E2,3.168955E2,0E0,0E0,1.3837185E1,3.4349622E2,1.8143616E1,1.0637549E2,6.5976334E0,2.3264039E-1,1.6651395E2,4.854248E1,0E0,1.8762062E1,1.4219482E1,2.7495605E1,0E0,0E0,0E0,0E0,0E0,0E0,0E0,0E0,0E0,0E0,0E0,0E0,0E0,0E0],"parents":[2147483647,0,0,1,1,2,2,4,4,5,5,6,6,9,9,10,10,11,11,12,12,13,13,14,14,15,15,16,16,18,18,19,19,20,20],"right_children":[2,4,6,-1,8,10,12,-1,-1,14,16,18,20,22,24,26,28,-1,30,32,34,-1,-1,-1,-1,-1,-1,-1,-1,-1,-1,-1,-1,-1,-1],"split_conditions":[7.678556E-1,6.403777E-1,9.225744E-1,-9.959322E-1,7.492966E-1,8.359998E-1,5.215719E-1,-6.35493E-1,-3.534403E-1,8.2044595E-1,5.6382567E-1,2.6771927E-1,7.8615123E-1,6.6297334E-1,8.305717E-1,8.84635E-1,7.344915E-1,3.1585172E-1,9.3604E-1,3.0957484E-1,8.9966667E-1,-3.7308123E-2,-1.4322184E-1,-4.590607E-3,1.7877197E-2,-1.791008E-1,1.0589565E-1,2.9393873E-1,1.3152559E-1,2.3801576E-1,6.992709E-2,1.745491E-1,6.6778505E-1,4.485672E-1,1.7995758E-1],"split_indices":[0,5,0,0,0,0,5,0,0,0,4,4,8,8,0,2,8,0,0,7,8,0,0,0,0,0,0,0,0,0,0,0,0,0,0],"split_type":[0,0,0,0,0,0,0,0,0,0,0,0,0,0,0,0,0,0,0,0,0,0,0,0,0,0,0,0,0,0,0,0,0,0,0],"sum_hessian":[1.99E2,4.8E1,1.51E2,2.3E1,2.5E1,9.9E1,5.2E1,1.9E1,6E0,1.2E1,8.7E1,1.3E1,3.9E1,9E0,3E0,4.2E1,4.5E1,5E0,8E0,1.9E1,2E1,3E0,6E0,2E0,1E0,5E0,3.7E1,3.7E1,8E0,3E0,5E0,1E0,1.8E1,1.7E1,3E0],"tree_param":{"num_deleted":"0","num_feature":"10","num_nodes":"35","size_leaf_vector":"1"}},{"base_weights":[1.9000016E-2,-1.5404836E1,4.8577266E0,-9.482107E-1,-5.68582E-1,1.4543399E0,7.6360517E0,-2.1171923E0,2.2297807E0,6.328826E0,1.2077611E1,-1.8442897E-1,-1.276918E0,2.0391898E-1,4.1137877E0,5.1581945E0,8.647438E0,2.9344407E-1,6.464049E-1,-7.814331E-2,-4.4375104E-3,-1.6830705E-1,4.548871E-2,1.6205418E-1,3.0542946E-1,1.3600597E-1,2.8718087E-1,4.4589946E-1,8.091088E-2],"categories":[],"categories_nodes":[],"categories_segments":[],"categories_sizes":[],"default_left":[0,0,0,0,0,0,0,0,0,0,0,0,0,0,0,0,0,0,0,0,0,0,0,0,0,0,0,0,0],"id":18,"left_children":[1,3,5,-1,-1,7,9,11,13,15,17,-1,19,21,23,25,27,-1,-1,-1,-1,-1,-1,-1,-1,-1,-1,-1,-1],"loss_changes":[1.5001177E4,4.7341797E2,1.4356189E3,0E0,0E0,1.9858675E2,4.1127686E2,1.2455139E1,2.2053195E2,1.3724902E2,1.917456E1,0E0,3.2588406E0,7.614084E1,3.2427704E1,5.1460083E1,2.5505737E1,0E0,0E0,0E0,0E0,0E0,0E0,0E0,0E0,0E0,0E0,0E0,0E0],"parents":[2147483647,0,0,1,1,2,2,5,5,6,6,7,7,8,8,9,9,10,10,12,12,13,13,14,14,15,15,16,16],"right_children":[2,4,6,-1,-1,8,10,12,14,16,18,-1,20,22,24,26,28,-1,-1,-1,-1,-1,-1,-1,-1,-1,-1,-1,-1],"split_conditions":[7.6369077E-1,6.403777E-1,8.991128E-1,-9.482107E-1,-5.68582E-1,8.305717E-1,6.642621E-1,6.051432E-1,5.198651E-1,8.994477E-1,9.285879E-1,-1.8442897E-1,8.2044595E-1,4.9687165E-1,8.762899E-1,3.513121E-1,9.96039E-1,2.9344407E-1,6.464049E-1,-7.814331E-2,-4.4375104E-3,-1.6830705E-1,4.548871E-2,1.6205418E-1,3.0542946E-1,1.3600597E-1,2.8718087E-1,4.4589946E-1,8.091088E-2],"split_indices":[0,5,0,0,0,0,7,4,7,6,0,0,0,5,7,4,1,0,0,0,0,0,0,0,0,0,0,0,0],"split_type":[0,0,0,0,0,0,0,0,0,0,0,0,0,0,0,0,0,0,0,0,0,0,0,0,0,0,0,0,0],"sum_hessian":[1.99E2,4.7E1,1.52E2,2.3E1,2.4E1,6.9E1,8.3E1,1.2E1,5.7E1,6.6E1,1.7E1,3E0,9E0,2.8E1,2.9E1,4.6E1,2E1,3E0,1.4E1,7E0,2E0,4E0,2.4E1,2.2E1,7E0,1E1,3.6E1,1.9E1,1E0],"tree_param":{"num_deleted":"0","num_feature":"10","num_nodes":"29","size_leaf_vector":"1"}},{"base_weights":[2.030487E-2,-1.4469091E1,4.6910954E0,-1.6889862E1,-8.918827E0,2.0779262E0,7.88857E0,-8.995E-1,-5.601589E-1,-4.581616E-1,-1.2520866E-1,-1.7838326E0,2.6760771E0,3.8760266E0,9.150084E0,-5.606567E-1,-2.3253384E0,-1.8042419E0,3.3241866E0,2.8927702E-1,2.6965566E0,7.0625806E0,1.088566E1,-4.2431895E-2,-4.2895E-3,-3.297882E-2,-1.5964401E-1,-2.1209133E-1,-3.323088E-2,9.0742886E-2,2.1419357E-1,6.360299E-2,1.8679155E-1,1.6629029E-2,3.6592385E-1,5.9398836E-1,2.7960053E-1],"categories":[],"categories_nodes":[],"categories_segments":[],"categories_sizes":[],"default_left":[0,0,0,0,0,0,0,0,0,0,0,0,0,0,0,0,0,0,0,0,0,0,0,0,0,0,0,0,0,0,0,0,0,0,0,0,0],"id":19,"left_children":[1,3,5,7,9,11,13,-1,-1,-1,-1,15,17,19,21,23,25,27,29,-1,31,33,35,-1,-1,-1,-1,-1,-1,-1,-1,-1,-1,-1,-1,-1,-1],"loss_changes":[1.3603263E4,5.0772168E2,1.2536509E3,4.9072266E0,3.7059326E0,2.0111642E2,3.087417E2,0E0,0E0,0E0,0E0,6.644562E0,2.208742E2,2.4938812E1,1.0789307E2,6.109588E-1,9.454998E0,2.4960117E1,8.637659E1,0E0,1.4493561E1,4.2342773E1,7.039209E1,0E0,0E0,0E0,0E0,0E0,0E0,0E0,0E0,0E0,0E0,0E0,0E0,0E0,0E0],"parents":[2147483647,0,0,1,1,2,2,3,3,4,4,5,5,6,6,11,11,12,12,13,13,14,14,15,15,16,16,17,17,18,18,20,20,21,21,22,22],"right_children":[2,4,6,8,10,12,14,-1,-1,-1,-1,16,18,20,22,24,26,28,30,-1,32,34,36,-1,-1,-1,-1,-1,-1,-1,-1,-1,-1,-1,-1,-1,-1],"split_conditions":[7.678556E-1,6.9741154E-1,9.1394305E-1,5.0305295E-1,7.6369077E-1,8.305717E-1,5.215719E-1,-8.995E-1,-5.601589E-1,-4.581616E-1,-1.2520866E-1,7.039583E-1,3.8438845E-1,2.6771927E-1,9.476823E-1,8.1658846E-1,6.6297334E-1,2.7816865E-1,5.6382567E-1,2.8927702E-1,3.2471052E-1,4.8144326E-1,9.9380165E-1,-4.2431895E-2,-4.2895E-3,-3.297882E-2,-1.5964401E-1,-2.1209133E-1,-3.323088E-2,9.0742886E-2,2.1419357E-1,6.360299E-2,1.8679155E-1,1.6629029E-2,3.6592385E-1,5.9398836E-1,2.7960053E-1],"split_indices":[0,0,2,8,0,0,5,0,0,0,0,7,4,4,2,0,8,4,4,0,4,4,1,0,0,0,0,0,0,0,0,0,0,0,0,0,0],"split_type":[0,0,0,0,0,0,0,0,0,0,0,0,0,0,0,0,0,0,0,0,0,0,0,0,0,0,0,0,0,0,0,0,0,0,0,0,0],"sum_hessian":[1.99E2,4.8E1,1.51E2,3.2E1,1.6E1,8.4E1,6.7E1,2.5E1,7E0,1.5E1,1E0,1.1E1,7.3E1,1.7E1,5E1,4E0,7E0,9E0,6.4E1,5E0,1.2E1,2.5E1,2.5E1,2E0,2E0,3E0,4E0,2E0,7E0,2.6E1,3.8E1,6E0,6E0,1E0,2.4E1,2E1,5E0],"tree_param":{"num_deleted":"0","num_feature":"10","num_nodes":"37","size_leaf_vector":"1"}},{"base_weights":[1.7156372E-2,-1.3787328E1,4.467173E0,-1.6089596E1,-8.507202E0,1.3837006E0,6.946845E0,-8.562546E-1,-5.356517E-1,-4.3668532E-1,-1.2207832E-1,-1.7145895E0,2.0008693E0,5.581273E0,1.0541582E1,-5.4196775E-1,-2.2331543E0,1.3565905E-1,3.73721E0,3.7663713E0,7.22176E0,3.5230494E-1,5.851534E-1,-4.1017406E-2,-4.146576E-3,-3.1742286E-2,-1.5325852E-1,-1.5666825E-1,3.9201874E-2,1.4540206E-1,2.8269598E-1,2.5275788E-1,1.3092546E-1,5.170057E-1,3.0522215E-1],"categories":[],"categories_nodes":[],"categories_segments":[],"categories_sizes":[],"default_left":[0,0,0,0,0,0,0,0,0,0,0,0,0,0,0,0,0,0,0,0,0,0,0,0,0,0,0,0,0,0,0,0,0,0,0],"id":20,"left_children":[1,3,5,7,9,11,13,-1,-1,-1,-1,15,17,19,21,23,25,27,29,31,33,-1,-1,-1,-1,-1,-1,-1,-1,-1,-1,-1,-1,-1,-1],"loss_changes":[1.2347629E4,4.5877832E2,1.1525793E3,2.626953E-1,2.0322266E0,1.3537024E2,3.5351E2,0E0,0E0,0E0,0E0,6.086666E0,1.8733415E2,1.603717E2,6.85791E0,5.709007E-1,8.692638E0,6.392405E1,3.123642E1,3.4102173E1,4.8373413E1,0E0,0E0,0E0,0E0,0E0,0E0,0E0,0E0,0E0,0E0,0E0,0E0,0E0,0E0],"parents":[2147483647,0,0,1,1,2,2,3,3,4,4,5,5,6,6,11,11,12,12,13,13,14,14,15,15,16,16,17,17,18,18,19,19,20,20],"right_children":[2,4,6,8,10,12,14,-1,-1,-1,-1,16,18,20,22,24,26,28,30,32,34,-1,-1,-1,-1,-1,-1,-1,-1,-1,-1,-1,-1,-1,-1],"split_conditions":[7.678556E-1,6.9741154E-1,8.991128E-1,5.0305295E-1,7.6369077E-1,8.305717E-1,7.3772943E-1,-8.562546E-1,-5.356517E-1,-4.3668532E-1,-1.2207832E-1,7.039583E-1,5.198651E-1,8.826455E-1,9.4050443E-1,8.1658846E-1,6.6297334E-1,4.9687165E-1,8.762899E-1,9.153799E-1,9.459306E-1,3.5230494E-1,5.851534E-1,-4.1017406E-2,-4.146576E-3,-3.1742286E-2,-1.5325852E-1,-1.5666825E-1,3.9201874E-2,1.4540206E-1,2.8269598E-1,2.5275788E-1,1.3092546E-1,5.170057E-1,3.0522215E-1],"split_indices":[0,0,0,8,0,0,4,0,0,0,0,7,7,6,2,0,8,5,7,0,1,0,0,0,0,0,0,0,0,0,0,0,0,0,0],"split_type":[0,0,0,0,0,0,0,0,0,0,0,0,0,0,0,0,0,0,0,0,0,0,0,0,0,0,0,0,0,0,0,0,0,0,0],"sum_hessian":[1.99E2,4.8E1,1.51E2,3.2E1,1.6E1,6.8E1,8.3E1,2.5E1,7E0,1.5E1,1E0,1.1E1,5.7E1,6.2E1,2.1E1,4E0,7E0,2.8E1,2.9E1,3.1E1,3.1E1,7E0,1.4E1,2E0,2E0,3E0,4E0,4E0,2.4E1,2.2E1,7E0,1.3E1,1.8E1,6E0,2.5E1],"tree_param":{"num_deleted":"0","num_feature":"10","num_nodes":"35","size_leaf_vector":"1"}},{"base_weights":[1.7665558E-2,-1.3137766E1,4.2584453E0,-7.663645E-1,-8.114705E0,1.315682E0,6.625019E0,-4.1621542E-1,-1.19026184E-1,-1.6480408E0,1.9061818E0,5.3213525E0,1.005711E1,-1.9535996E0,-4.0082294E-3,1.24826364E-1,3.5646195E0,3.590044E0,6.8863683E0,3.3689138E-1,5.57846E-1,-1.0977775E-1,5.5999756E-3,-1.5040176E-1,3.7320282E-2,1.384481E-1,2.7032787E-1,2.410225E-1,1.2472397E-1,4.9484864E-1,2.9054806E-1],"categories":[],"categories_nodes":[],"categories_segments":[],"categories_sizes":[],"default_left":[0,0,0,0,0,0,0,0,0,0,0,0,0,0,0,0,0,0,0,0,0,0,0,0,0,0,0,0,0,0,0],"id":21,"left_children":[1,3,5,-1,7,9,11,-1,-1,13,15,17,19,21,-1,23,25,27,29,-1,-1,-1,-1,-1,-1,-1,-1,-1,-1,-1,-1],"loss_changes":[1.1213804E4,4.1453125E2,1.0498523E3,0E0,6.1621094E-1,1.2389684E2,3.2232397E2,0E0,0E0,5.592331E0,1.7090253E2,1.4597778E2,5.1394043E0,5.2437325E0,0E0,5.8717552E1,2.8996002E1,3.1111115E1,4.609314E1,0E0,0E0,0E0,0E0,0E0,0E0,0E0,0E0,0E0,0E0,0E0,0E0],"parents":[2147483647,0,0,1,1,2,2,4,4,5,5,6,6,9,9,10,10,11,11,12,12,13,13,15,15,16,16,17,17,18,18],"right_children":[2,4,6,-1,8,10,12,-1,-1,14,16,18,20,22,-1,24,26,28,30,-1,-1,-1,-1,-1,-1,-1,-1,-1,-1,-1,-1],"split_conditions":[7.678556E-1,6.9741154E-1,8.991128E-1,-7.663645E-1,7.6369077E-1,8.305717E-1,7.3772943E-1,-4.1621542E-1,-1.19026184E-1,8.2044595E-1,5.198651E-1,8.826455E-1,9.4050443E-1,9.6626073E-1,-4.0082294E-3,4.9687165E-1,8.762899E-1,9.153799E-1,9.459306E-1,3.3689138E-1,5.57846E-1,-1.0977775E-1,5.5999756E-3,-1.5040176E-1,3.7320282E-2,1.384481E-1,2.7032787E-1,2.410225E-1,1.2472397E-1,4.9484864E-1,2.9054806E-1],"split_indices":[0,0,0,0,0,0,4,0,0,0,7,6,2,7,0,5,7,0,1,0,0,0,0,0,0,0,0,0,0,0,0],"split_type":[0,0,0,0,0,0,0,0,0,0,0,0,0,0,0,0,0,0,0,0,0,0,0,0,0,0,0,0,0,0,0],"sum_hessian":[1.99E2,4.8E1,1.51E2,3.2E1,1.6E1,6.8E1,8.3E1,1.5E1,1E0,1.1E1,5.7E1,6.2E1,2.1E1,9E0,2E0,2.8E1,2.9E1,3.1E1,3.1E1,7E0,1.4E1,8E0,1E0,4E0,2.4E1,2.2E1,7E0,1.3E1,1.8E1,6E0,2.5E1],"tree_param":{"num_deleted":"0","num_feature":"10","num_nodes":"31","size_leaf_vector":"1"}},{"base_weights":[2.1440353E-2,-1.2507446E1,4.060217E0,-7.4005216E-1,-8.1069765E0,1.2526162E0,6.3181243E0,-4.149737E-1,-1.1605034E-1,-1.6196357E-2,2.559223E0,4.6967144E0,8.806143E0,-2.4749687E0,1.0246764E0,-9.8042977E-1,3.6860557E0,3.0003176E0,6.104201E0,2.965681E-1,5.23046E-1,-5.6032658E-2,-2.2824287E-1,1.2840304E-1,2.1662904E-2,-6.79718E-2,-8.340645E-3,-1.2296677E-2,1.9265863E-1,1.8795207E-1,1.04073994E-1,2.364731E-3,3.1633896E-1],"categories":[],"categories_nodes":[],"categories_segments":[],"categories_sizes":[],"default_left":[0,0,0,0,0,0,0,0,0,0,0,0,0,0,0,0,0,0,0,0,0,0,0,0,0,0,0,0,0,0,0,0,0],"id":22,"left_children":[1,3,5,-1,7,9,11,-1,-1,13,15,17,19,21,23,25,27,29,31,-1,-1,-1,-1,-1,-1,-1,-1,-1,-1,-1,-1,-1,-1],"loss_changes":[1.0171058E4,3.7456055E2,9.556594E2,0E0,1.8988037E0,1.1443234E2,2.975044E2,0E0,0E0,9.466972E1,1.3922621E2,1.082312E2,9.018042E1,2.6018433E1,2.2619797E1,2.548522E0,1.8032257E1,1.0301361E1,3.744861E1,0E0,0E0,0E0,0E0,0E0,0E0,0E0,0E0,0E0,0E0,0E0,0E0,0E0,0E0],"parents":[2147483647,0,0,1,1,2,2,4,4,5,5,6,6,9,9,10,10,11,11,12,12,13,13,14,14,15,15,16,16,17,17,18,18],"right_children":[2,4,6,-1,8,10,12,-1,-1,14,16,18,20,22,24,26,28,30,32,-1,-1,-1,-1,-1,-1,-1,-1,-1,-1,-1,-1,-1,-1],"split_conditions":[7.678556E-1,6.9100493E-1,8.991128E-1,-7.4005216E-1,7.6369077E-1,6.295131E-1,5.5025685E-1,-4.149737E-1,-1.1605034E-1,8.84635E-1,8.359998E-1,8.826455E-1,9.4050443E-1,8.863979E-1,8.9305633E-1,6.875977E-1,4.6159932E-1,9.186484E-1,9.7932085E-2,2.965681E-1,5.23046E-1,-5.6032658E-2,-2.2824287E-1,1.2840304E-1,2.1662904E-2,-6.79718E-2,-8.340645E-3,-1.2296677E-2,1.9265863E-1,1.8795207E-1,1.04073994E-1,2.364731E-3,3.1633896E-1],"split_indices":[0,0,0,0,0,4,7,0,0,2,0,6,2,0,0,8,7,0,7,0,0,0,0,0,0,0,0,0,0,0,0,0,0],"split_type":[0,0,0,0,0,0,0,0,0,0,0,0,0,0,0,0,0,0,0,0,0,0,0,0,0,0,0,0,0,0,0,0,0],"sum_hessian":[1.99E2,4.8E1,1.51E2,3E1,1.8E1,6.8E1,8.3E1,1.7E1,1E0,3.5E1,3.3E1,5.2E1,3.1E1,1E1,2.5E1,8E0,2.5E1,2.5E1,2.7E1,1.3E1,1.8E1,7E0,3E0,6E0,1.9E1,5E0,3E0,1E0,2.4E1,1.2E1,1.3E1,1E0,2.6E1],"tree_param":{"num_deleted":"0","num_feature":"10","num_nodes":"33","size_leaf_vector":"1"}},{"base_weights":[2.1012725E-2,-1.1908013E1,3.8664157E0,-7.46463E-1,-8.66117E0,1.2919731E0,6.1070757E0,-4.7492346E-1,-2.5157887E-1,-1.4053626E0,1.8548629E0,4.6997294E0,8.7477045E0,-1.8147094E0,-3.0654907E-2,-1.1751747E-1,3.0841134E0,2.8582666E0,6.0331755E0,2.965977E-1,5.1563936E-1,-2.5328636E-2,-1.15148604E-1,-2.8015138E-3,1.1367798E-3,-1.5284781E-1,4.084557E-2,1.23501025E-1,2.500724E-1,1.8195413E-1,9.92417E-2,2.3056031E-3,3.1156036E-1],"categories":[],"categories_nodes":[],"categories_segments":[],"categories_sizes":[],"default_left":[0,0,0,0,0,0,0,0,0,0,0,0,0,0,0,0,0,0,0,0,0,0,0,0,0,0,0,0,0,0,0,0,0],"id":23,"left_children":[1,3,5,-1,7,9,11,-1,-1,13,15,17,19,21,23,25,27,29,31,-1,-1,-1,-1,-1,-1,-1,-1,-1,-1,-1,-1,-1,-1],"loss_changes":[9.220425E3,3.5136133E2,8.689143E2,0E0,3.1223267E1,1.1192456E2,2.5990674E2,0E0,0E0,7.2598877E0,1.4583542E2,1.1780762E2,5.781079E1,5.220516E0,6.693096E-3,6.841797E1,3.1210907E1,9.826782E0,3.6467163E1,0E0,0E0,0E0,0E0,0E0,0E0,0E0,0E0,0E0,0E0,0E0,0E0,0E0,0E0],"parents":[2147483647,0,0,1,1,2,2,4,4,5,5,6,6,9,9,10,10,11,11,12,12,13,13,14,14,15,15,16,16,17,17,18,18],"right_children":[2,4,6,-1,8,10,12,-1,-1,14,16,18,20,22,24,26,28,30,32,-1,-1,-1,-1,-1,-1,-1,-1,-1,-1,-1,-1,-1,-1],"split_conditions":[7.678556E-1,6.403777E-1,9.02749E-1,-7.46463E-1,7.492966E-1,8.359998E-1,7.1199924E-1,-4.7492346E-1,-2.5157887E-1,8.2044595E-1,5.2737945E-1,8.826455E-1,9.4050443E-1,6.6297334E-1,8.305717E-1,8.84635E-1,8.762899E-1,9.186484E-1,9.7932085E-2,2.965977E-1,5.1563936E-1,-2.5328636E-2,-1.15148604E-1,-2.8015138E-3,1.1367798E-3,-1.5284781E-1,4.084557E-2,1.23501025E-1,2.500724E-1,1.8195413E-1,9.92417E-2,2.3056031E-3,3.1156036E-1],"split_indices":[0,5,0,0,0,0,5,0,0,0,4,6,2,8,0,2,7,0,7,0,0,0,0,0,0,0,0,0,0,0,0,0,0],"split_type":[0,0,0,0,0,0,0,0,0,0,0,0,0,0,0,0,0,0,0,0,0,0,0,0,0,0,0,0,0,0,0,0,0],"sum_hessian":[1.99E2,4.8E1,1.51E2,2.3E1,2.5E1,7.1E1,8E1,1.9E1,6E0,1.2E1,5.9E1,5.4E1,2.6E1,9E0,3E0,2.3E1,3.6E1,2.4E1,3E1,1.1E1,1.5E1,3E0,6E0,2E0,1E0,5E0,1.8E1,2.9E1,7E0,1.1E1,1.3E1,1E0,2.9E1],"tree_param":{"num_deleted":"0","num_feature":"10","num_nodes":"33","size_leaf_vector":"1"}},{"base_weights":[2.023018E-2,-1.1342673E1,3.6831384E0,-7.1069515E-1,-8.256051E0,1.1292381E0,5.737138E0,-4.523643E-1,-2.407972E-1,-3.6084916E-2,2.329897E0,4.4263577E0,8.340401E0,-2.2871592E0,9.176806E-1,-8.928731E-1,3.3558595E0,2.81206E0,5.7416477E0,2.830035E-1,4.9146873E-1,-5.0266173E-2,-2.1395206E-1,1.1996863E-1,1.7660217E-2,-6.2587105E-2,-6.5675736E-3,1.2892447E-1,2.3913155E-1,1.7413391E-1,9.4633974E-2,2.248001E-3,2.9650193E-1],"categories":[],"categories_nodes":[],"categories_segments":[],"categories_sizes":[],"default_left":[0,0,0,0,0,0,0,0,0,0,0,0,0,0,0,0,0,0,0,0,0,0,0,0,0,0,0,0,0,0,0,0,0],"id":24,"left_children":[1,3,5,-1,7,9,11,-1,-1,13,15,17,19,21,23,25,27,29,31,-1,-1,-1,-1,-1,-1,-1,-1,-1,-1,-1,-1,-1,-1],"loss_changes":[8.366031E3,3.1690674E2,7.9086914E2,0E0,2.7199097E1,9.6625786E1,2.4971606E2,0E0,0E0,7.939078E1,1.15415375E2,1.07003784E2,5.212036E1,2.3784103E1,2.089841E1,2.2951593E0,1.6505371E1,1.067189E1,3.3002686E1,0E0,0E0,0E0,0E0,0E0,0E0,0E0,0E0,0E0,0E0,0E0,0E0,0E0,0E0],"parents":[2147483647,0,0,1,1,2,2,4,4,5,5,6,6,9,9,10,10,11,11,12,12,13,13,14,14,15,15,16,16,17,17,18,18],"right_children":[2,4,6,-1,8,10,12,-1,-1,14,16,18,20,22,24,26,28,30,32,-1,-1,-1,-1,-1,-1,-1,-1,-1,-1,-1,-1,-1,-1],"split_conditions":[7.678556E-1,6.403777E-1,8.991128E-1,-7.1069515E-1,7.492966E-1,6.295131E-1,7.1199924E-1,-4.523643E-1,-2.407972E-1,8.84635E-1,8.359998E-1,8.826455E-1,9.4050443E-1,8.863979E-1,8.9305633E-1,6.875977E-1,8.762899E-1,9.186484E-1,9.7932085E-2,2.830035E-1,4.9146873E-1,-5.0266173E-2,-2.1395206E-1,1.1996863E-1,1.7660217E-2,-6.2587105E-2,-6.5675736E-3,1.2892447E-1,2.3913155E-1,1.7413391E-1,9.4633974E-2,2.248001E-3,2.9650193E-1],"split_indices":[0,5,0,0,0,4,5,0,0,2,0,6,2,0,0,8,7,0,7,0,0,0,0,0,0,0,0,0,0,0,0,0,0],"split_type":[0,0,0,0,0,0,0,0,0,0,0,0,0,0,0,0,0,0,0,0,0,0,0,0,0,0,0,0,0,0,0,0,0],"sum_hessian":[1.99E2,4.8E1,1.51E2,2.3E1,2.5E1,6.8E1,8.3E1,1.9E1,6E0,3.5E1,3.3E1,5.7E1,2.6E1,1E1,2.5E1,8E0,2.5E1,2.7E1,3E1,1.1E1,1.5E1,7E0,3E0,6E0,1.9E1,5E0,3E0,1.8E1,7E0,1.4E1,1.3E1,1E0,2.9E1],"tree_param":{"num_deleted":"0","num_feature":"10","num_nodes":"33","size_leaf_vector":"1"}},{"base_weights":[1.9770127E-2,-1.0804192E1,3.5089433E0,-6.7664105E-1,-7.8699102E0,1.0752758E0,5.466254E0,-8.617542E0,-2.3047726E-1,-3.7793476E-2,2.222194E0,4.2148213E0,7.9520636E0,-1.23888016E-1,-4.40514E-1,-2.1968217E0,8.7709516E-1,-8.559129E-1,3.2022235E0,2.6810558E0,5.464196E0,3.3643332E-1,5.9946394E-1,-4.806719E-2,-2.0592861E-1,-7.98322E-2,5.748835E-2,-5.9979122E-2,-6.3215257E-3,-1.8299866E-2,1.6797961E-1,1.5923093E-1,8.066559E-2,2.1919252E-3,2.8217065E-1],"categories":[],"categories_nodes":[],"categories_segments":[],"categories_sizes":[],"default_left":[0,0,0,0,0,0,0,0,0,0,0,0,0,0,0,0,0,0,0,0,0,0,0,0,0,0,0,0,0,0,0,0,0,0,0],"id":25,"left_children":[1,3,5,-1,7,9,11,13,-1,15,17,19,21,-1,-1,23,25,27,29,31,33,-1,-1,-1,-1,-1,-1,-1,-1,-1,-1,-1,-1,-1,-1],"loss_changes":[7.591246E3,2.8581982E2,7.1816565E2,0E0,2.3653564E1,8.816934E1,2.2779297E2,1.8376465E0,0E0,7.303655E1,1.0530646E2,9.649255E1,5.2684204E1,0E0,0E0,2.2157722E1,1.9373259E1,2.1046448E0,1.5829285E1,9.917145E0,2.98667E1,0E0,0E0,0E0,0E0,0E0,0E0,0E0,0E0,0E0,0E0,0E0,0E0,0E0,0E0],"parents":[2147483647,0,0,1,1,2,2,4,4,5,5,6,6,7,7,9,9,10,10,11,11,12,12,15,15,16,16,17,17,18,18,19,19,20,20],"right_children":[2,4,6,-1,8,10,12,14,-1,16,18,20,22,-1,-1,24,26,28,30,32,34,-1,-1,-1,-1,-1,-1,-1,-1,-1,-1,-1,-1,-1,-1],"split_conditions":[7.678556E-1,6.403777E-1,8.991128E-1,-6.7664105E-1,7.492966E-1,6.295131E-1,7.1199924E-1,6.7713267E-1,-2.3047726E-1,8.84635E-1,8.359998E-1,8.826455E-1,9.514791E-1,-1.23888016E-1,-4.40514E-1,8.863979E-1,6.837693E-1,6.875977E-1,4.6159932E-1,9.2039067E-1,9.7932085E-2,3.3643332E-1,5.9946394E-1,-4.806719E-2,-2.0592861E-1,-7.98322E-2,5.748835E-2,-5.9979122E-2,-6.3215257E-3,-1.8299866E-2,1.6797961E-1,1.5923093E-1,8.066559E-2,2.1919252E-3,2.8217065E-1],"split_indices":[0,5,0,0,0,4,5,0,0,2,0,6,0,0,0,0,8,8,7,0,7,0,0,0,0,0,0,0,0,0,0,0,0,0,0],"split_type":[0,0,0,0,0,0,0,0,0,0,0,0,0,0,0,0,0,0,0,0,0,0,0,0,0,0,0,0,0,0,0,0,0,0,0],"sum_hessian":[1.99E2,4.8E1,1.51E2,2.3E1,2.5E1,6.8E1,8.3E1,1.9E1,6E0,3.5E1,3.3E1,5.7E1,2.6E1,1E0,1.8E1,1E1,2.5E1,8E0,2.5E1,2.7E1,3E1,2.2E1,4E0,7E0,3E0,2E0,2.3E1,5E0,3E0,1E0,2.4E1,1.7E1,1E1,1E0,2.9E1],"tree_param":{"num_deleted":"0","num_feature":"10","num_nodes":"35","size_leaf_vector":"1"}},{"base_weights":[1.7761307E-2,-1.0294012E1,3.3418343E0,-1.20356E1,-3.1538755E-1,1.0187117E0,5.21033E0,-6.430246E-1,-3.925124E-1,-1.2656602E0,1.5218366E0,4.1585526E0,7.9854045E0,-1.3013892E-1,-7.8593165E-1,6.047321E-2,2.930723E0,3.579794E0,4.1386133E-1,3.4028152E-1,5.79649E-1,-5.8081385E-2,-5.13855E-3,-1.4650993E-1,2.5912536E-2,1.1268127E-1,2.2132006E-1,1.0690756E-1,2.045118E-1],"categories":[],"categories_nodes":[],"categories_segments":[],"categories_sizes":[],"default_left":[0,0,0,0,0,0,0,0,0,0,0,0,0,0,0,0,0,0,0,0,0,0,0,0,0,0,0,0,0],"id":26,"left_children":[1,3,5,7,-1,9,11,-1,-1,13,15,17,19,-1,21,23,25,27,-1,-1,-1,-1,-1,-1,-1,-1,-1,-1,-1],"loss_changes":[6.8898184E3,2.6426123E2,6.544855E2,1.2973145E1,0E0,8.1229515E1,2.1196802E2,0E0,0E0,6.293291E0,1.1717978E2,1.2054358E2,1.4737183E1,0E0,2.7038865E0,4.1221382E1,1.9393448E1,3.319934E1,0E0,0E0,0E0,0E0,0E0,0E0,0E0,0E0,0E0,0E0,0E0],"parents":[2147483647,0,0,1,1,2,2,3,3,5,5,6,6,9,9,10,10,11,11,12,12,14,14,15,15,16,16,17,17],"right_children":[2,4,6,8,-1,10,12,-1,-1,14,16,18,20,-1,22,24,26,28,-1,-1,-1,-1,-1,-1,-1,-1,-1,-1,-1],"split_conditions":[7.678556E-1,6.9741154E-1,8.991128E-1,5.0305295E-1,-3.1538755E-1,8.359998E-1,7.3772943E-1,-6.430246E-1,-3.925124E-1,6.051432E-1,5.198651E-1,9.9270433E-1,9.514791E-1,-1.3013892E-1,6.9230646E-1,3.0721384E-1,8.762899E-1,6.111137E-1,4.1386133E-1,3.4028152E-1,5.79649E-1,-5.8081385E-2,-5.13855E-3,-1.4650993E-1,2.5912536E-2,1.1268127E-1,2.2132006E-1,1.0690756E-1,2.045118E-1],"split_indices":[0,0,0,8,0,0,4,0,0,4,7,2,0,0,8,4,7,8,0,0,0,0,0,0,0,0,0,0,0],"split_type":[0,0,0,0,0,0,0,0,0,0,0,0,0,0,0,0,0,0,0,0,0,0,0,0,0,0,0,0,0],"sum_hessian":[1.99E2,4.8E1,1.51E2,3.2E1,1.6E1,6.8E1,8.3E1,2.5E1,7E0,1.2E1,5.6E1,6.2E1,2.1E1,2E0,1E1,2.8E1,2.8E1,5.6E1,6E0,1.8E1,3E0,6E0,4E0,3E0,2.5E1,2.1E1,7E0,1.6E1,4E1],"tree_param":{"num_deleted":"0","num_feature":"10","num_nodes":"29","size_leaf_vector":"1"}},{"base_weights":[1.8443832E-2,-9.806884E0,3.1856978E0,-1.1465202E1,-6.010919E0,1.7139357E0,5.9024997E0,-6.121102E-1,-7.506796E0,-3.084309E-1,-8.71933E-2,7.9547554E-1,3.1915424E0,8.877226E0,4.4946547E0,-1.1097794E-1,-3.9725178E-1,-3.1288385E-1,1.8789763E0,2.245451E0,4.6530237E0,1.7284165E-1,4.7023255E-1,5.4276867E0,2.0207775E0,-1.03172235E-1,2.8830929E-2,-3.9325293E-2,1.4001207E-1,1.2822288E-1,4.0392686E-2,2.4438417E-1,4.0061187E-2,3.0348456E-1,1.0845286E-1,3.1546023E-2,1.9201966E-1],"categories":[],"categories_nodes":[],"categories_segments":[],"categories_sizes":[],"default_left":[0,0,0,0,0,0,0,0,0,0,0,0,0,0,0,0,0,0,0,0,0,0,0,0,0,0,0,0,0,0,0,0,0,0,0,0,0],"id":27,"left_children":[1,3,5,7,9,11,13,-1,15,-1,-1,17,19,21,23,-1,-1,25,27,29,31,-1,-1,33,35,-1,-1,-1,-1,-1,-1,-1,-1,-1,-1,-1,-1],"loss_changes":[6.255103E3,2.3953467E2,5.976533E2,9.597656E0,6.82251E-1,1.331735E2,1.8206152E2,0E0,9.021301E-1,0E0,0E0,7.6245125E1,4.209427E1,1.3231445E1,7.674371E1,0E0,0E0,5.1017918E1,8.078211E1,9.393379E0,8.737946E0,0E0,0E0,4.3320007E1,2.7925083E1,0E0,0E0,0E0,0E0,0E0,0E0,0E0,0E0,0E0,0E0,0E0,0E0],"parents":[2147483647,0,0,1,1,2,2,3,3,4,4,5,5,6,6,8,8,11,11,12,12,13,13,14,14,17,17,18,18,19,19,20,20,23,23,24,24],"right_children":[2,4,6,8,10,12,14,-1,16,-1,-1,18,20,22,24,-1,-1,26,28,30,32,-1,-1,34,36,-1,-1,-1,-1,-1,-1,-1,-1,-1,-1,-1,-1],"split_conditions":[7.678556E-1,6.9741154E-1,9.225744E-1,5.0305295E-1,7.6369077E-1,9.0059674E-1,9.459306E-1,-6.121102E-1,6.7713267E-1,-3.084309E-1,-8.71933E-2,6.295131E-1,6.5107423E-1,9.285879E-1,9.5893264E-1,-1.1097794E-1,-3.9725178E-1,8.84635E-1,8.359998E-1,9.2039067E-1,9.154125E-1,1.7284165E-1,4.7023255E-1,8.9966667E-1,9.915255E-1,-1.03172235E-1,2.8830929E-2,-3.9325293E-2,1.4001207E-1,1.2822288E-1,4.0392686E-2,2.4438417E-1,4.0061187E-2,3.0348456E-1,1.0845286E-1,3.1546023E-2,1.9201966E-1],"split_indices":[0,0,0,8,0,2,1,0,0,0,0,4,4,0,0,0,0,2,0,0,0,0,0,8,0,0,0,0,0,0,0,0,0,0,0,0,0],"split_type":[0,0,0,0,0,0,0,0,0,0,0,0,0,0,0,0,0,0,0,0,0,0,0,0,0,0,0,0,0,0,0,0,0,0,0,0,0],"sum_hessian":[1.99E2,4.8E1,1.51E2,3.2E1,1.6E1,9.9E1,5.2E1,2.5E1,7E0,1.5E1,1E0,6.2E1,3.7E1,1.5E1,3.7E1,1E0,6E0,3.1E1,3.1E1,2.4E1,1.3E1,2E0,1.3E1,2.6E1,1.1E1,1E1,2.1E1,8E0,2.3E1,1.9E1,5E0,1.2E1,1E0,2.1E1,5E0,7E0,4E0],"tree_param":{"num_deleted":"0","num_feature":"10","num_nodes":"37","size_leaf_vector":"1"}},{"base_weights":[1.8731613E-2,-9.347482E0,3.0379798E0,-1.0925896E1,-5.7336497E0,9.9847263E-1,4.813369E0,-5.82682E-1,-7.1949883E0,-2.9397345E-1,-8.501358E-2,-1.5300217E0,1.3839722E0,3.817528E0,7.310509E0,-1.0820351E-1,-3.802269E-1,-3.225975E-1,-2.0014038E0,-1.5036118E0,1.8930808E0,3.2669568E0,3.7597156E-1,3.094972E-1,5.4027843E-1,-3.036779E-2,1.3291932E-2,-2.579829E-2,-1.246193E-1,-1.5976386E-1,-3.4064293E-2,7.3770694E-2,2.0551196E-1,9.705223E-2,1.8870777E-1],"categories":[],"categories_nodes":[],"categories_segments":[],"categories_sizes":[],"default_left":[0,0,0,0,0,0,0,0,0,0,0,0,0,0,0,0,0,0,0,0,0,0,0,0,0,0,0,0,0,0,0,0,0,0,0],"id":28,"left_children":[1,3,5,7,9,11,13,-1,15,-1,-1,17,19,21,23,-1,-1,25,27,29,31,33,-1,-1,-1,-1,-1,-1,-1,-1,-1,-1,-1,-1,-1],"loss_changes":[5.6841816E3,2.1685693E2,5.455737E2,5.7521973E0,1.7089844E-3,7.229831E1,1.7351892E2,0E0,2.6519775E-2,0E0,0E0,5.045933E0,9.546238E1,9.772406E1,1.9275879E1,0E0,0E0,8.317069E-1,3.8192787E0,1.1734108E1,4.3941498E1,2.8989197E1,0E0,0E0,0E0,0E0,0E0,0E0,0E0,0E0,0E0,0E0,0E0,0E0,0E0],"parents":[2147483647,0,0,1,1,2,2,3,3,4,4,5,5,6,6,8,8,11,11,12,12,13,13,14,14,17,17,18,18,19,19,20,20,21,21],"right_children":[2,4,6,8,10,12,14,-1,16,-1,-1,18,20,22,24,-1,-1,26,28,30,32,34,-1,-1,-1,-1,-1,-1,-1,-1,-1,-1,-1,-1,-1],"split_conditions":[7.678556E-1,6.9741154E-1,9.02749E-1,5.0305295E-1,7.6369077E-1,8.2044595E-1,7.3772943E-1,-5.82682E-1,6.7713267E-1,-2.9397345E-1,-8.501358E-2,6.6297334E-1,3.8438845E-1,9.9270433E-1,9.514791E-1,-1.0820351E-1,-3.802269E-1,7.778656E-1,6.9696957E-1,2.7816865E-1,8.762899E-1,6.111137E-1,3.7597156E-1,3.094972E-1,5.4027843E-1,-3.036779E-2,1.3291932E-2,-2.579829E-2,-1.246193E-1,-1.5976386E-1,-3.4064293E-2,7.3770694E-2,2.0551196E-1,9.705223E-2,1.8870777E-1],"split_indices":[0,0,0,8,0,0,4,0,0,0,0,8,4,2,0,0,0,0,7,4,7,8,0,0,0,0,0,0,0,0,0,0,0,0,0],"split_type":[0,0,0,0,0,0,0,0,0,0,0,0,0,0,0,0,0,0,0,0,0,0,0,0,0,0,0,0,0,0,0,0,0,0,0],"sum_hessian":[1.99E2,4.8E1,1.51E2,3.2E1,1.6E1,7.1E1,8E1,2.5E1,7E0,1.5E1,1E0,9E0,6.2E1,5.9E1,2.1E1,1E0,6E0,3E0,6E0,9E0,5.3E1,5.3E1,6E0,1.8E1,3E0,2E0,1E0,2E0,4E0,2E0,7E0,4.6E1,7E0,1.6E1,3.7E1],"tree_param":{"num_deleted":"0","num_feature":"10","num_nodes":"35","size_leaf_vector":"1"}},{"base_weights":[1.7692566E-2,-8.909698E0,2.8954847E0,-1.0412053E1,-2.7346295E-1,8.675373E-1,4.526829E0,-5.546682E-1,-3.448144E-1,-8.340369E-2,1.8489003E0,3.3203557E0,6.383586E0,-1.9393394E0,7.050077E-1,-5.652863E-1,2.740619E0,2.5637133E0,5.066269E0,4.1889114E0,3.8323683E-1,-3.9366245E-2,-1.8792668E-1,1.0437633E-1,9.293785E-3,-4.6881758E-2,1.1382294E-2,-2.3834992E-2,1.4472681E-1,1.4466237E-1,3.2197572E-2,1.3897553E-1,2.9658484E-1,6.101036E-2,2.1617055E-1],"categories":[],"categories_nodes":[],"categories_segments":[],"categories_sizes":[],"default_left":[0,0,0,0,0,0,0,0,0,0,0,0,0,0,0,0,0,0,0,0,0,0,0,0,0,0,0,0,0,0,0,0,0,0,0],"id":29,"left_children":[1,3,5,7,-1,9,11,-1,-1,13,15,17,19,21,23,25,27,29,31,33,-1,-1,-1,-1,-1,-1,-1,-1,-1,-1,-1,-1,-1,-1,-1],"loss_changes":[5.164032E3,1.9632324E2,4.9893127E2,2.5424805E0,0E0,6.4546265E1,1.6697498E2,0E0,0E0,5.404392E1,7.474359E1,5.7026245E1,5.7867798E1,2.009393E1,1.8272434E1,3.1659226E0,1.3759857E1,2.2809326E1,1.319812E1,3.1459045E-1,0E0,0E0,0E0,0E0,0E0,0E0,0E0,0E0,0E0,0E0,0E0,0E0,0E0,0E0,0E0],"parents":[2147483647,0,0,1,1,2,2,3,3,5,5,6,6,9,9,10,10,11,11,12,12,13,13,14,14,15,15,16,16,17,17,18,18,19,19],"right_children":[2,4,6,8,-1,10,12,-1,-1,14,16,18,20,22,24,26,28,30,32,34,-1,-1,-1,-1,-1,-1,-1,-1,-1,-1,-1,-1,-1,-1,-1],"split_conditions":[7.678556E-1,6.9741154E-1,8.991128E-1,5.0305295E-1,-2.7346295E-1,6.295131E-1,5.5025685E-1,-5.546682E-1,-3.448144E-1,8.84635E-1,8.420804E-1,9.039013E-1,9.4050443E-1,8.863979E-1,8.9305633E-1,8.2044595E-1,4.6159932E-1,9.5893264E-1,3.0957484E-1,5.2089006E-1,3.8323683E-1,-3.9366245E-2,-1.8792668E-1,1.0437633E-1,9.293785E-3,-4.6881758E-2,1.1382294E-2,-2.3834992E-2,1.4472681E-1,1.4466237E-1,3.2197572E-2,1.3897553E-1,2.9658484E-1,6.101036E-2,2.1617055E-1],"split_indices":[0,0,0,8,0,4,7,0,0,2,0,6,2,0,0,0,7,0,7,4,0,0,0,0,0,0,0,0,0,0,0,0,0,0,0],"split_type":[0,0,0,0,0,0,0,0,0,0,0,0,0,0,0,0,0,0,0,0,0,0,0,0,0,0,0,0,0,0,0,0,0,0,0],"sum_hessian":[1.99E2,4.8E1,1.51E2,3.2E1,1.6E1,6.8E1,8.3E1,2.5E1,7E0,3.5E1,3.3E1,5.2E1,3.1E1,1E1,2.5E1,9E0,2.4E1,3.8E1,1.4E1,1.3E1,1.8E1,7E0,3E0,6E0,1.9E1,6E0,3E0,1E0,2.3E1,3.2E1,6E0,5E0,9E0,1E0,1.2E1],"tree_param":{"num_deleted":"0","num_feature":"10","num_nodes":"35","size_leaf_vector":"1"}},{"base_weights":[1.7165832E-2,-8.488146E0,2.7588968E0,-9.918704E0,-5.2118773E0,1.4706806E0,5.137439E0,-1.0560025E1,-6.594572E0,-2.6737452E-1,-7.605171E-2,6.6552514E-1,2.7668412E0,7.798465E0,3.8818111E0,-3.3722416E-1,-5.683732E-1,-9.687805E-2,-3.4915325E-1,2.2943115E-1,2.9538803E0,3.4751246E0,1.3044183E0,1.4955826E-1,4.1357836E-1,4.711561E0,1.6913885E0,-3.9433848E-2,5.6715317E-2,2.1197455E-1,-1.7204285E-3,2.0777111E-1,9.019962E-2,7.167922E-2,-9.368516E-3,2.6456133E-1,9.0043135E-2,1.9834328E-2,1.7123169E-1],"categories":[],"categories_nodes":[],"categories_segments":[],"categories_sizes":[],"default_left":[0,0,0,0,0,0,0,0,0,0,0,0,0,0,0,0,0,0,0,0,0,0,0,0,0,0,0,0,0,0,0,0,0,0,0,0,0,0,0],"id":30,"left_children":[1,3,5,7,9,11,13,15,17,-1,-1,19,21,23,25,-1,-1,-1,-1,27,29,31,33,-1,-1,35,37,-1,-1,-1,-1,-1,-1,-1,-1,-1,-1,-1,-1],"loss_changes":[4.687273E3,1.7796265E2,4.581842E2,7.116699E-1,3.7524414E-1,1.025197E2,1.4681445E2,3.4333496E0,9.436035E-1,0E0,0E0,6.2192375E1,3.482776E1,1.1647949E1,6.109607E1,0E0,0E0,0E0,0E0,5.0642677E1,3.8563637E1,2.0925323E1,2.9662476E0,0E0,0E0,3.602643E1,2.5569923E1,0E0,0E0,0E0,0E0,0E0,0E0,0E0,0E0,0E0,0E0,0E0,0E0],"parents":[2147483647,0,0,1,1,2,2,3,3,4,4,5,5,6,6,7,7,8,8,11,11,12,12,13,13,14,14,19,19,20,20,21,21,22,22,25,25,26,26],"right_children":[2,4,6,8,10,12,14,16,18,-1,-1,20,22,24,26,-1,-1,-1,-1,28,30,32,34,-1,-1,36,38,-1,-1,-1,-1,-1,-1,-1,-1,-1,-1,-1,-1],"split_conditions":[7.678556E-1,6.9741154E-1,9.225744E-1,5.0305295E-1,7.6369077E-1,9.0059674E-1,9.459306E-1,2.0595992E-1,6.7713267E-1,-2.6737452E-1,-7.605171E-2,8.79445E-1,9.154125E-1,9.285879E-1,9.5893264E-1,-3.3722416E-1,-5.683732E-1,-9.687805E-2,-3.4915325E-1,8.877038E-1,9.5312357E-1,6.593049E-1,9.215195E-1,1.4955826E-1,4.1357836E-1,8.9966667E-1,9.915255E-1,-3.9433848E-2,5.6715317E-2,2.1197455E-1,-1.7204285E-3,2.0777111E-1,9.019962E-2,7.167922E-2,-9.368516E-3,2.6456133E-1,9.0043135E-2,1.9834328E-2,1.7123169E-1],"split_indices":[0,0,0,8,0,2,1,4,0,0,0,7,0,0,0,0,0,0,0,2,7,8,0,0,0,8,0,0,0,0,0,0,0,0,0,0,0,0,0],"split_type":[0,0,0,0,0,0,0,0,0,0,0,0,0,0,0,0,0,0,0,0,0,0,0,0,0,0,0,0,0,0,0,0,0,0,0,0,0,0,0],"sum_hessian":[1.99E2,4.8E1,1.51E2,3.2E1,1.6E1,9.9E1,5.2E1,2.5E1,7E0,1.5E1,1E0,6.2E1,3.7E1,1.5E1,3.7E1,6E0,1.9E1,1E0,6E0,5.3E1,9E0,2.4E1,1.3E1,2E0,1.3E1,2.6E1,1.1E1,2.5E1,2.8E1,6E0,3E0,1.6E1,8E0,1.2E1,1E0,2.1E1,5E0,7E0,4E0],"tree_param":{"num_deleted":"0","num_feature":"10","num_nodes":"39","size_leaf_vector":"1"}},{"base_weights":[1.6315995E-2,-8.0983305E0,2.6321144E0,-9.463728E0,-4.9714804E0,1.4030238E0,4.90149E0,-1.151924E1,-4.0345952E-1,-2.8073418E-1,-1.6252606E-1,6.3585794E-1,2.6379824E0,7.443742E0,3.7020822E0,-6.0122085E-1,-1.616867E-1,-3.3091593E-1,1.5827613E0,3.3132935E0,1.2436426E0,1.4457321E-1,3.9437672E-1,4.4891205E0,1.6227392E0,-9.13595E-2,2.161314E-2,-3.3836365E-2,1.1820606E-1,1.9799401E-1,8.619096E-2,6.837064E-2,-9.134293E-3,2.5193474E-1,8.629138E-2,1.8966485E-2,1.6438232E-1],"categories":[],"categories_nodes":[],"categories_segments":[],"categories_sizes":[],"default_left":[0,0,0,0,0,0,0,0,0,0,0,0,0,0,0,0,0,0,0,0,0,0,0,0,0,0,0,0,0,0,0,0,0,0,0,0,0],"id":31,"left_children":[1,3,5,7,9,11,13,15,-1,-1,-1,17,19,21,23,-1,-1,25,27,29,31,-1,-1,33,35,-1,-1,-1,-1,-1,-1,-1,-1,-1,-1,-1,-1],"loss_changes":[4.2665713E3,1.6215161E2,4.1709192E2,1.6430664E0,5.6710815E-1,9.306442E1,1.3405005E2,7.158325E0,0E0,0E0,0E0,5.819657E1,3.1660736E1,9.517761E0,5.49032E1,0E0,0E0,3.7331413E1,5.8095024E1,1.8867188E1,2.7213268E0,0E0,0E0,3.230725E1,2.3594837E1,0E0,0E0,0E0,0E0,0E0,0E0,0E0,0E0,0E0,0E0,0E0,0E0],"parents":[2147483647,0,0,1,1,2,2,3,3,4,4,5,5,6,6,7,7,11,11,12,12,13,13,14,14,17,17,18,18,19,19,20,20,23,23,24,24],"right_children":[2,4,6,8,10,12,14,16,-1,-1,-1,18,20,22,24,-1,-1,26,28,30,32,-1,-1,34,36,-1,-1,-1,-1,-1,-1,-1,-1,-1,-1,-1,-1],"split_conditions":[7.678556E-1,6.9741154E-1,9.225744E-1,4.2952457E-1,7.492966E-1,9.0059674E-1,9.459306E-1,6.8297786E-1,-4.0345952E-1,-2.8073418E-1,-1.6252606E-1,6.295131E-1,9.154125E-1,9.285879E-1,9.5893264E-1,-6.0122085E-1,-1.616867E-1,8.84635E-1,8.359998E-1,6.593049E-1,9.215195E-1,1.4457321E-1,3.9437672E-1,8.9966667E-1,9.915255E-1,-9.13595E-2,2.161314E-2,-3.3836365E-2,1.1820606E-1,1.9799401E-1,8.619096E-2,6.837064E-2,-9.134293E-3,2.5193474E-1,8.629138E-2,1.8966485E-2,1.6438232E-1],"split_indices":[0,0,0,7,0,2,1,0,0,0,0,4,0,0,0,0,0,2,0,8,0,0,0,8,0,0,0,0,0,0,0,0,0,0,0,0,0],"split_type":[0,0,0,0,0,0,0,0,0,0,0,0,0,0,0,0,0,0,0,0,0,0,0,0,0,0,0,0,0,0,0,0,0,0,0,0,0],"sum_hessian":[1.99E2,4.8E1,1.51E2,3.2E1,1.6E1,9.9E1,5.2E1,1E1,2.2E1,1E1,6E0,6.2E1,3.7E1,1.5E1,3.7E1,9E0,1E0,3.1E1,3.1E1,2.4E1,1.3E1,2E0,1.3E1,2.6E1,1.1E1,1E1,2.1E1,8E0,2.3E1,1.6E1,8E0,1.2E1,1E0,2.1E1,5E0,7E0,4E0],"tree_param":{"num_deleted":"0","num_feature":"10","num_nodes":"37","size_leaf_vector":"1"}},{"base_weights":[1.4543533E-2,-7.726264E0,2.5098398E0,-9.025886E0,-4.748984E0,1.3364518E0,4.676424E0,-1.1012629E1,-3.841637E-1,-2.679737E-1,-1.5556085E-1,6.0429746E-1,2.5151167E0,7.105237E0,3.5307024E0,-5.7416564E-1,-1.5764466E-1,1.9552612E-1,2.7512329E0,1.7758677E0,3.800144E0,2.1138752E-1,4.0144226E-1,4.2771893E0,1.556881E0,-3.6879584E-2,5.1268615E-2,1.9782378E-1,-2.2874833E-3,1.03042126E-1,2.412389E-2,2.0156872E-1,2.5634384E-2,2.3991044E-1,8.269603E-2,1.8136693E-2,1.57807E-1],"categories":[],"categories_nodes":[],"categories_segments":[],"categories_sizes":[],"default_left":[0,0,0,0,0,0,0,0,0,0,0,0,0,0,0,0,0,0,0,0,0,0,0,0,0,0,0,0,0,0,0,0,0,0,0,0,0],"id":32,"left_children":[1,3,5,7,9,11,13,15,-1,-1,-1,17,19,21,23,-1,-1,25,27,29,31,-1,-1,33,35,-1,-1,-1,-1,-1,-1,-1,-1,-1,-1,-1,-1],"loss_changes":[3.8825134E3,1.4673364E2,3.8017133E2,3.4121094E0,3.227539E-1,8.4776566E1,1.22398926E2,4.4884033E0,0E0,0E0,0E0,5.475122E1,2.9349762E1,8.578735E0,4.933139E1,0E0,0E0,4.2570892E1,3.3891426E1,8.588852E0,7.815262E0,0E0,0E0,2.8967041E1,2.1772171E1,0E0,0E0,0E0,0E0,0E0,0E0,0E0,0E0,0E0,0E0,0E0,0E0],"parents":[2147483647,0,0,1,1,2,2,3,3,4,4,5,5,6,6,7,7,11,11,12,12,13,13,14,14,17,17,18,18,19,19,20,20,23,23,24,24],"right_children":[2,4,6,8,10,12,14,16,-1,-1,-1,18,20,22,24,-1,-1,26,28,30,32,-1,-1,34,36,-1,-1,-1,-1,-1,-1,-1,-1,-1,-1,-1,-1],"split_conditions":[7.678556E-1,6.9741154E-1,9.225744E-1,4.2952457E-1,7.492966E-1,9.0059674E-1,9.459306E-1,6.8297786E-1,-3.841637E-1,-2.679737E-1,-1.5556085E-1,8.79445E-1,6.574365E-1,9.404943E-1,9.5893264E-1,-5.7416564E-1,-1.5764466E-1,8.877038E-1,9.5312357E-1,9.2039067E-1,6.593049E-1,2.1138752E-1,4.0144226E-1,8.9966667E-1,9.915255E-1,-3.6879584E-2,5.1268615E-2,1.9782378E-1,-2.2874833E-3,1.03042126E-1,2.412389E-2,2.0156872E-1,2.5634384E-2,2.3991044E-1,8.269603E-2,1.8136693E-2,1.57807E-1],"split_indices":[0,0,0,7,0,2,1,0,0,0,0,7,4,0,0,0,0,2,7,0,8,0,0,8,0,0,0,0,0,0,0,0,0,0,0,0,0],"split_type":[0,0,0,0,0,0,0,0,0,0,0,0,0,0,0,0,0,0,0,0,0,0,0,0,0,0,0,0,0,0,0,0,0,0,0,0,0],"sum_hessian":[1.99E2,4.8E1,1.51E2,3.2E1,1.6E1,9.9E1,5.2E1,1E1,2.2E1,1E1,6E0,6.2E1,3.7E1,1.5E1,3.7E1,9E0,1E0,5.3E1,9E0,2.5E1,1.2E1,5E0,1E1,2.6E1,1.1E1,2.5E1,2.8E1,6E0,3E0,2E1,5E0,1.1E1,1E0,2.1E1,5E0,7E0,4E0],"tree_param":{"num_deleted":"0","num_feature":"10","num_nodes":"37","size_leaf_vector":"1"}},{"base_weights":[1.4497528E-2,-7.3713646E0,2.395371E0,-8.608402E0,-4.536447E0,1.021929E0,4.076947E0,-9.193303E0,-5.631424E0,-2.3272395E-1,-6.619835E-2,-1.4024704E0,1.3274826E0,2.8611975E0,5.5215235E0,-2.890164E-1,-4.9640894E-1,-7.47654E-2,-3.004341E-1,-1.425855E-1,-6.8369675E-1,-9.9212766E-1,1.7779114E0,2.2398815E0,4.683375E0,4.3858757E0,7.3542314E0,1.8637467E-2,-4.4393376E-2,-1.1130702E-1,-2.8269265E-2,1.0730513E-1,2.6960326E-2,1.3887803E-1,1.734295E-2,2.494853E-1,5.5818178E-2,5.7520676E-2,2.2450642E-1,3.8657346E-1,9.897728E-2],"categories":[],"categories_nodes":[],"categories_segments":[],"categories_sizes":[],"default_left":[0,0,0,0,0,0,0,0,0,0,0,0,0,0,0,0,0,0,0,0,0,0,0,0,0,0,0,0,0,0,0,0,0,0,0,0,0,0,0,0,0],"id":33,"left_children":[1,3,5,7,9,11,13,15,17,-1,-1,19,21,23,25,-1,-1,-1,-1,-1,27,29,31,33,35,37,39,-1,-1,-1,-1,-1,-1,-1,-1,-1,-1,-1,-1,-1,-1],"loss_changes":[3.5346177E3,1.3278638E2,3.4688477E2,5.689209E0,2.8359985E-1,6.482837E1,1.0362634E2,7.822754E0,3.49823E0,0E0,0E0,8.467049E0,8.11702E1,3.3663605E1,3.018457E1,0E0,0E0,0E0,0E0,0E0,2.0565155E0,5.587246E0,2.8031937E1,3.0589584E1,4.263855E0,1.9179077E0,4.970581E0,0E0,0E0,0E0,0E0,0E0,0E0,0E0,0E0,0E0,0E0,0E0,0E0,0E0,0E0],"parents":[2147483647,0,0,1,1,2,2,3,3,4,4,5,5,6,6,7,7,8,8,11,11,12,12,13,13,14,14,20,20,21,21,22,22,23,23,24,24,25,25,26,26],"right_children":[2,4,6,8,10,12,14,16,18,-1,-1,20,22,24,26,-1,-1,-1,-1,-1,28,30,32,34,36,38,40,-1,-1,-1,-1,-1,-1,-1,-1,-1,-1,-1,-1,-1,-1],"split_conditions":[7.678556E-1,6.9741154E-1,9.1394305E-1,5.0305295E-1,7.6369077E-1,3.8438845E-1,6.5560746E-1,2.0595992E-1,6.7713267E-1,-2.3272395E-1,-6.619835E-2,2.7816865E-1,8.359998E-1,9.915255E-1,9.4492656E-1,-2.890164E-1,-4.9640894E-1,-7.47654E-2,-3.004341E-1,-1.425855E-1,6.907491E-1,6.051432E-1,7.344915E-1,9.5893264E-1,6.830128E-1,6.44733E-1,9.913108E-1,1.8637467E-2,-4.4393376E-2,-1.1130702E-1,-2.8269265E-2,1.0730513E-1,2.6960326E-2,1.3887803E-1,1.734295E-2,2.494853E-1,5.5818178E-2,5.7520676E-2,2.2450642E-1,3.8657346E-1,9.897728E-2],"split_indices":[0,0,2,8,0,4,5,4,0,0,0,4,0,0,0,0,0,0,0,0,8,4,8,0,8,4,1,0,0,0,0,0,0,0,0,0,0,0,0,0,0],"split_type":[0,0,0,0,0,0,0,0,0,0,0,0,0,0,0,0,0,0,0,0,0,0,0,0,0,0,0,0,0,0,0,0,0,0,0,0,0,0,0,0,0],"sum_hessian":[1.99E2,4.8E1,1.51E2,3.2E1,1.6E1,8.4E1,6.7E1,2.5E1,7E0,1.5E1,1E0,9E0,7.5E1,3.8E1,2.9E1,6E0,1.9E1,1E0,6E0,2E0,7E0,1.2E1,6.3E1,3E1,8E0,2E1,9E0,1E0,6E0,2E0,1E1,4.8E1,1.5E1,2.3E1,7E0,7E0,1E0,1E0,1.9E1,8E0,1E0],"tree_param":{"num_deleted":"0","num_feature":"10","num_nodes":"41","size_leaf_vector":"1"}},{"base_weights":[1.1753692E-2,-7.032581E0,2.2825472E0,-8.21315E0,-4.3272057E0,1.2040932E0,4.2742996E0,-1.0077234E1,-3.482269E-1,-2.4521449E-1,-1.4010936E-1,5.431918E-1,2.2681115E0,6.510789E0,3.220138E0,-5.2598923E-1,-1.4129333E-1,-3.427887E-1,1.4121976E0,2.8926203E0,9.9090904E-1,1.2522456E-1,3.4521124E-1,3.902467E0,1.4165535E0,-8.313141E-2,1.6635617E-2,-2.2960892E-2,1.08222835E-1,1.7381188E-1,7.344148E-2,5.5353727E-2,-1.2981034E-2,2.1943414E-1,7.346319E-2,1.4420792E-1,1.6111566E-2],"categories":[],"categories_nodes":[],"categories_segments":[],"categories_sizes":[],"default_left":[0,0,0,0,0,0,0,0,0,0,0,0,0,0,0,0,0,0,0,0,0,0,0,0,0,0,0,0,0,0,0,0,0,0,0,0,0],"id":34,"left_children":[1,3,5,7,9,11,13,15,-1,-1,-1,17,19,21,23,-1,-1,25,27,29,31,-1,-1,33,35,-1,-1,-1,-1,-1,-1,-1,-1,-1,-1,-1,-1],"loss_changes":[3.215298E3,1.2096045E2,3.2135144E2,6.6245117E0,1.2183533E0,6.908908E1,1.0398822E2,5.572632E0,0E0,0E0,0E0,4.898918E1,2.744339E1,7.9279785E0,4.1236206E1,0E0,0E0,2.908287E1,4.6043205E1,1.5667725E1,2.3211746E0,0E0,0E0,2.5494568E1,1.8343027E1,0E0,0E0,0E0,0E0,0E0,0E0,0E0,0E0,0E0,0E0,0E0,0E0],"parents":[2147483647,0,0,1,1,2,2,3,3,4,4,5,5,6,6,7,7,11,11,12,12,13,13,14,14,17,17,18,18,19,19,20,20,23,23,24,24],"right_children":[2,4,6,8,10,12,14,16,-1,-1,-1,18,20,22,24,-1,-1,26,28,30,32,-1,-1,34,36,-1,-1,-1,-1,-1,-1,-1,-1,-1,-1,-1,-1],"split_conditions":[7.678556E-1,6.9741154E-1,9.225744E-1,4.2952457E-1,7.492966E-1,9.0059674E-1,9.459306E-1,6.8297786E-1,-3.482269E-1,-2.4521449E-1,-1.4010936E-1,6.295131E-1,9.154125E-1,9.285879E-1,9.5893264E-1,-5.2598923E-1,-1.4129333E-1,8.84635E-1,8.420804E-1,6.593049E-1,9.215195E-1,1.2522456E-1,3.4521124E-1,8.9966667E-1,2.6362717E-1,-8.313141E-2,1.6635617E-2,-2.2960892E-2,1.08222835E-1,1.7381188E-1,7.344148E-2,5.5353727E-2,-1.2981034E-2,2.1943414E-1,7.346319E-2,1.4420792E-1,1.6111566E-2],"split_indices":[0,0,0,7,0,2,1,0,0,0,0,4,0,0,0,0,0,2,0,8,0,0,0,8,4,0,0,0,0,0,0,0,0,0,0,0,0],"split_type":[0,0,0,0,0,0,0,0,0,0,0,0,0,0,0,0,0,0,0,0,0,0,0,0,0,0,0,0,0,0,0,0,0,0,0,0,0],"sum_hessian":[1.99E2,4.8E1,1.51E2,3.2E1,1.6E1,9.9E1,5.2E1,1E1,2.2E1,1E1,6E0,6.2E1,3.7E1,1.5E1,3.7E1,9E0,1E0,3.1E1,3.1E1,2.4E1,1.3E1,2E0,1.3E1,2.6E1,1.1E1,1E1,2.1E1,9E0,2.2E1,1.6E1,8E0,1.2E1,1E0,2.1E1,5E0,4E0,7E0],"tree_param":{"num_deleted":"0","num_feature":"10","num_nodes":"37","size_leaf_vector":"1"}},{"base_weights":[1.032135E-2,-6.709545E0,2.176526E0,-8.408331E0,-4.883375E0,1.1469743E0,4.07801E0,-3.1822905E-1,-4.96085E-1,-5.478896E0,-1.4292955E-1,5.163342E-1,2.1623259E0,6.2146482E0,3.071057E0,-6.419068E-2,-2.820317E-1,1.4079568E-1,2.4926085E0,2.757879E0,9.4438607E-1,1.8250822E-1,3.5242447E-1,3.7181911E0,1.3590838E0,-3.3495095E-2,4.313865E-2,1.8010896E-1,-3.6146163E-3,1.6563246E-1,7.017746E-2,6.2603764E-2,1.6272737E-2,2.0896104E-1,7.0402525E-2,1.5078354E-2,1.389647E-1],"categories":[],"categories_nodes":[],"categories_segments":[],"categories_sizes":[],"default_left":[0,0,0,0,0,0,0,0,0,0,0,0,0,0,0,0,0,0,0,0,0,0,0,0,0,0,0,0,0,0,0,0,0,0,0,0,0],"id":35,"left_children":[1,3,5,7,9,11,13,-1,-1,15,-1,17,19,21,23,-1,-1,25,27,29,31,-1,-1,33,35,-1,-1,-1,-1,-1,-1,-1,-1,-1,-1,-1,-1],"loss_changes":[2.9259248E3,1.10950195E2,2.928894E2,1.1083374E1,1.5689026E1,6.2915665E1,9.4943726E1,0E0,0E0,5.6499023E0,0E0,4.6405586E1,2.4958725E1,8.485779E0,3.704596E1,0E0,0E0,3.2184456E1,2.8719803E1,1.4134079E1,2.258644E0,0E0,0E0,2.2871613E1,1.7184605E1,0E0,0E0,0E0,0E0,0E0,0E0,0E0,0E0,0E0,0E0,0E0,0E0],"parents":[2147483647,0,0,1,1,2,2,3,3,4,4,5,5,6,6,9,9,11,11,12,12,13,13,14,14,17,17,18,18,19,19,20,20,23,23,24,24],"right_children":[2,4,6,8,10,12,14,-1,-1,16,-1,18,20,22,24,-1,-1,26,28,30,32,-1,-1,34,36,-1,-1,-1,-1,-1,-1,-1,-1,-1,-1,-1,-1],"split_conditions":[7.678556E-1,6.403777E-1,9.225744E-1,4.433593E-1,7.4098015E-1,9.0059674E-1,9.459306E-1,-3.1822905E-1,-4.96085E-1,6.7713267E-1,-1.4292955E-1,8.79445E-1,9.154125E-1,9.404943E-1,9.5893264E-1,-6.419068E-2,-2.820317E-1,8.877038E-1,9.5312357E-1,6.593049E-1,9.2039067E-1,1.8250822E-1,3.5242447E-1,8.9966667E-1,9.915255E-1,-3.3495095E-2,4.313865E-2,1.8010896E-1,-3.6146163E-3,1.6563246E-1,7.017746E-2,6.2603764E-2,1.6272737E-2,2.0896104E-1,7.0402525E-2,1.5078354E-2,1.389647E-1],"split_indices":[0,5,0,8,0,2,1,0,0,0,0,7,0,0,0,0,0,2,7,8,0,0,0,8,0,0,0,0,0,0,0,0,0,0,0,0,0],"split_type":[0,0,0,0,0,0,0,0,0,0,0,0,0,0,0,0,0,0,0,0,0,0,0,0,0,0,0,0,0,0,0,0,0,0,0,0,0],"sum_hessian":[1.99E2,4.8E1,1.51E2,2.3E1,2.5E1,9.9E1,5.2E1,1.2E1,1.1E1,1.8E1,7E0,6.2E1,3.7E1,1.5E1,3.7E1,1E0,1.7E1,5.3E1,9E0,2.4E1,1.3E1,5E0,1E1,2.6E1,1.1E1,2.5E1,2.8E1,6E0,3E0,1.6E1,8E0,8E0,5E0,2.1E1,5E0,7E0,4E0],"tree_param":{"num_deleted":"0","num_feature":"10","num_nodes":"37","size_leaf_vector":"1"}},{"base_weights":[1.0633774E-2,-6.4006734E0,2.0773668E0,-7.4818783E0,-3.925354E0,8.729381E-1,3.5523531E0,-9.215394E0,-3.1637532E-1,-2.1781857E-1,-1.2045466E-1,-1.3347336E0,1.1519352E0,2.4698339E0,4.8412166E0,-4.808856E-1,-1.2980537E-1,-1.20935634E-1,-5.2464074E-1,-8.872223E-1,1.54814E0,1.9280789E0,4.0614524E0,2.058879E-1,3.817479E-1,1.6677475E-2,-3.6163203E-2,-1.0370916E-1,-2.4142457E-2,3.8544636E-2,1.02982715E-1,1.19715504E-1,1.4418793E-2,2.1662083E-1,4.7343444E-2],"categories":[],"categories_nodes":[],"categories_segments":[],"categories_sizes":[],"default_left":[0,0,0,0,0,0,0,0,0,0,0,0,0,0,0,0,0,0,0,0,0,0,0,0,0,0,0,0,0,0,0,0,0,0,0],"id":36,"left_children":[1,3,5,7,9,11,13,15,-1,-1,-1,17,19,21,23,-1,-1,-1,25,27,29,31,33,-1,-1,-1,-1,-1,-1,-1,-1,-1,-1,-1,-1],"loss_changes":[2.6633884E3,1.01770996E2,2.6692944E2,7.7265625E0,6.1517334E-1,5.3891922E1,8.291797E1,4.325012E0,0E0,0E0,0E0,7.5122814E0,6.2775772E1,2.5797607E1,2.91958E1,0E0,0E0,0E0,1.4344405E0,5.23816E0,2.3856918E1,2.3008423E1,3.493225E0,0E0,0E0,0E0,0E0,0E0,0E0,0E0,0E0,0E0,0E0,0E0,0E0],"parents":[2147483647,0,0,1,1,2,2,3,3,4,4,5,5,6,6,7,7,11,11,12,12,13,13,14,14,18,18,19,19,20,20,21,21,22,22],"right_children":[2,4,6,8,10,12,14,16,-1,-1,-1,18,20,22,24,-1,-1,-1,26,28,30,32,34,-1,-1,-1,-1,-1,-1,-1,-1,-1,-1,-1,-1],"split_conditions":[7.678556E-1,6.9741154E-1,9.1394305E-1,4.2952457E-1,7.514715E-1,3.8438845E-1,6.5560746E-1,6.8297786E-1,-3.1637532E-1,-2.1781857E-1,-1.2045466E-1,3.0721384E-1,8.359998E-1,9.915255E-1,9.548104E-1,-4.808856E-1,-1.2980537E-1,-1.20935634E-1,3.3035314E-1,6.051432E-1,5.6382567E-1,9.5893264E-1,6.830128E-1,2.058879E-1,3.817479E-1,1.6677475E-2,-3.6163203E-2,-1.0370916E-1,-2.4142457E-2,3.8544636E-2,1.02982715E-1,1.19715504E-1,1.4418793E-2,2.1662083E-1,4.7343444E-2],"split_indices":[0,0,2,7,0,4,5,0,0,0,0,4,0,0,0,0,0,0,4,4,4,0,8,0,0,0,0,0,0,0,0,0,0,0,0],"split_type":[0,0,0,0,0,0,0,0,0,0,0,0,0,0,0,0,0,0,0,0,0,0,0,0,0,0,0,0,0,0,0,0,0,0,0],"sum_hessian":[1.99E2,4.8E1,1.51E2,3.2E1,1.6E1,8.4E1,6.7E1,1E1,2.2E1,1.1E1,5E0,9E0,7.5E1,3.8E1,2.9E1,9E0,1E0,3E0,6E0,1.2E1,6.3E1,3E1,8E0,2.5E1,4E0,1E0,5E0,2E0,1E1,2.6E1,3.7E1,2.3E1,7E0,7E0,1E0],"tree_param":{"num_deleted":"0","num_feature":"10","num_nodes":"35","size_leaf_vector":"1"}},{"base_weights":[8.070298E-3,-6.106464E0,1.9791498E0,-7.6647415E0,-4.4331894E0,1.0314156E0,3.7299855E0,-2.3450916E-1,-4.1978475E-1,-4.9082956E0,-1.22121535E-1,3.1470647E-1,1.801294E0,5.697688E0,2.8033214E0,-5.467644E-2,-5.0515184E0,-7.133563E-1,1.1901156E0,-4.0536803E-1,2.3209178E0,1.66325E-1,3.236546E-1,3.3954337E0,1.2374586E0,-2.6754633E-1,-1.2955037E-1,1.801251E-2,-9.532254E-2,7.058503E-2,-7.791595E-3,-4.1573334E-2,9.351197E-3,1.2409472E-1,1.4595032E-2,1.91316E-1,6.248067E-2,1.2916993E-1,1.207819E-2],"categories":[],"categories_nodes":[],"categories_segments":[],"categories_sizes":[],"default_left":[0,0,0,0,0,0,0,0,0,0,0,0,0,0,0,0,0,0,0,0,0,0,0,0,0,0,0,0,0,0,0,0,0,0,0,0,0,0,0],"id":37,"left_children":[1,3,5,7,9,11,13,-1,-1,15,-1,17,19,21,23,-1,25,27,29,31,33,-1,-1,35,37,-1,-1,-1,-1,-1,-1,-1,-1,-1,-1,-1,-1,-1,-1],"loss_changes":[2.4225325E3,9.378467E1,2.483706E2,1.2804932E1,1.260318E1,5.4611008E1,8.066766E1,0E0,0E0,5.4032288E0,0E0,4.8547676E1,5.5979248E1,7.885315E0,3.103064E1,0E0,1.3296509E-1,3.270965E1,8.868996E0,2.6796782E0,1.201387E1,0E0,0E0,2.0182892E1,1.546092E1,0E0,0E0,0E0,0E0,0E0,0E0,0E0,0E0,0E0,0E0,0E0,0E0,0E0,0E0],"parents":[2147483647,0,0,1,1,2,2,3,3,4,4,5,5,6,6,9,9,11,11,12,12,13,13,14,14,16,16,17,17,18,18,19,19,20,20,23,23,24,24],"right_children":[2,4,6,8,10,12,14,-1,-1,16,-1,18,20,22,24,-1,26,28,30,32,34,-1,-1,36,38,-1,-1,-1,-1,-1,-1,-1,-1,-1,-1,-1,-1,-1,-1],"split_conditions":[7.678556E-1,6.403777E-1,9.225744E-1,2.0595992E-1,7.492966E-1,6.29946E-1,9.459306E-1,-2.3450916E-1,-4.1978475E-1,6.7713267E-1,-1.22121535E-1,8.938177E-1,8.420804E-1,9.404943E-1,9.5893264E-1,-5.467644E-2,8.889732E-1,8.9305633E-1,9.2039067E-1,6.875977E-1,8.041059E-1,1.66325E-1,3.236546E-1,8.9966667E-1,2.6362717E-1,-2.6754633E-1,-1.2955037E-1,1.801251E-2,-9.532254E-2,7.058503E-2,-7.791595E-3,-4.1573334E-2,9.351197E-3,1.2409472E-1,1.4595032E-2,1.91316E-1,6.248067E-2,1.2916993E-1,1.207819E-2],"split_indices":[0,5,0,4,0,4,1,0,0,0,0,2,0,0,0,0,4,0,0,8,8,0,0,8,4,0,0,0,0,0,0,0,0,0,0,0,0,0,0],"split_type":[0,0,0,0,0,0,0,0,0,0,0,0,0,0,0,0,0,0,0,0,0,0,0,0,0,0,0,0,0,0,0,0,0,0,0,0,0,0,0],"sum_hessian":[1.99E2,4.8E1,1.51E2,2.3E1,2.5E1,9.9E1,5.2E1,6E0,1.7E1,1.9E1,6E0,5.2E1,4.7E1,1.5E1,3.7E1,1E0,1.8E1,2.4E1,2.8E1,9E0,3.8E1,5E0,1E1,2.6E1,1.1E1,1.5E1,3E0,1.3E1,1.1E1,2.4E1,4E0,5E0,4E0,3.5E1,3E0,2.1E1,5E0,4E0,7E0],"tree_param":{"num_deleted":"0","num_feature":"10","num_nodes":"39","size_leaf_vector":"1"}},{"base_weights":[6.4102174E-3,-5.8262057E0,1.8866192E0,-7.308766E0,-4.233604E0,9.807634E-1,3.5601847E0,-2.7392563E-1,-4.3412384E-1,-4.7496643E0,-1.2393799E-1,-1.1713715E0,1.2064841E0,5.443429E0,2.6735506E0,-5.330963E-2,-4.8950686E0,-1.0567474E-1,-1.6130022E0,3.1266195E-1,2.000686E0,1.7015742E-1,3.1636414E-1,3.2350621E0,1.1873537E0,-2.6045284E-1,-1.2469234E-1,-2.8905869E-2,1.2225596E-2,-1.4694722E-2,-1.0409333E-1,4.0685665E-2,-5.456422E-2,1.4292613E-1,7.412195E-2,1.8218505E-1,5.987714E-2,1.2400329E-1,1.1549473E-2],"categories":[],"categories_nodes":[],"categories_segments":[],"categories_sizes":[],"default_left":[0,0,0,0,0,0,0,0,0,0,0,0,0,0,0,0,0,0,0,0,0,0,0,0,0,0,0,0,0,0,0,0,0,0,0,0,0,0,0],"id":38,"left_children":[1,3,5,7,9,11,13,-1,-1,15,-1,17,19,21,23,-1,25,27,29,31,33,-1,-1,35,37,-1,-1,-1,-1,-1,-1,-1,-1,-1,-1,-1,-1,-1,-1],"loss_changes":[2.2042993E3,8.475281E1,2.2694171E2,1.2774658E1,1.177243E1,4.9991386E1,7.394336E1,0E0,0E0,4.957184E0,0E0,4.5359907E0,6.39731E1,7.320282E0,2.7870453E1,0E0,5.805969E-1,8.03129E-1,3.7175274E0,3.183976E1,1.7101822E1,0E0,0E0,1.8116974E1,1.4262777E1,0E0,0E0,0E0,0E0,0E0,0E0,0E0,0E0,0E0,0E0,0E0,0E0,0E0,0E0],"parents":[2147483647,0,0,1,1,2,2,3,3,4,4,5,5,6,6,9,9,11,11,12,12,13,13,14,14,16,16,17,17,18,18,19,19,20,20,23,23,24,24],"right_children":[2,4,6,8,10,12,14,-1,-1,16,-1,18,20,22,24,-1,26,28,30,32,34,-1,-1,36,38,-1,-1,-1,-1,-1,-1,-1,-1,-1,-1,-1,-1,-1,-1],"split_conditions":[7.678556E-1,6.403777E-1,9.225744E-1,4.433593E-1,7.4098015E-1,8.2044595E-1,9.459306E-1,-2.7392563E-1,-4.3412384E-1,6.7713267E-1,-1.2393799E-1,6.6297334E-1,5.198651E-1,9.498452E-1,9.5893264E-1,-5.330963E-2,8.889732E-1,7.7297235E-1,6.9696957E-1,7.588656E-1,6.593049E-1,1.7015742E-1,3.1636414E-1,8.9966667E-1,2.6362717E-1,-2.6045284E-1,-1.2469234E-1,-2.8905869E-2,1.2225596E-2,-1.4694722E-2,-1.0409333E-1,4.0685665E-2,-5.456422E-2,1.4292613E-1,7.412195E-2,1.8218505E-1,5.987714E-2,1.2400329E-1,1.1549473E-2],"split_indices":[0,5,0,8,0,0,1,0,0,0,0,8,7,0,0,0,4,0,7,8,8,0,0,8,4,0,0,0,0,0,0,0,0,0,0,0,0,0,0],"split_type":[0,0,0,0,0,0,0,0,0,0,0,0,0,0,0,0,0,0,0,0,0,0,0,0,0,0,0,0,0,0,0,0,0,0,0,0,0,0,0],"sum_hessian":[1.99E2,4.8E1,1.51E2,2.3E1,2.5E1,9.9E1,5.2E1,1.2E1,1.1E1,1.8E1,7E0,9E0,9E1,1.5E1,3.7E1,1E0,1.7E1,3E0,6E0,4.3E1,4.7E1,6E0,9E0,2.6E1,1.1E1,1.4E1,3E0,1E0,2E0,2E0,4E0,3.2E1,1.1E1,1.6E1,3.1E1,2.1E1,5E0,4E0,7E0],"tree_param":{"num_deleted":"0","num_feature":"10","num_nodes":"39","size_leaf_vector":"1"}},{"base_weights":[4.3964386E-3,-5.560823E0,1.7984184E0,-6.697301E0,-3.7265995E0,9.324022E-1,3.398479E0,-7.035487E0,-1.8334548E-1,-2.0879288E-1,-1.1157663E-1,2.706313E-1,1.6436825E0,5.2016697E0,2.549807E0,-2.612829E-1,-4.1520625E-1,-1.4769315E0,7.113885E-1,-3.878235E-1,2.1224358E0,1.6286524E-1,3.0212793E-1,3.0822709E0,1.1392797E0,-2.141638E-2,-1.6024533E-1,5.966373E-2,-4.7903173E-3,-3.806877E-2,6.9001773E-3,-2.8404236E-2,1.1040943E-1,1.7348962E-1,5.7382327E-2,1.1904297E-1,1.1044121E-2],"categories":[],"categories_nodes":[],"categories_segments":[],"categories_sizes":[],"default_left":[0,0,0,0,0,0,0,0,0,0,0,0,0,0,0,0,0,0,0,0,0,0,0,0,0,0,0,0,0,0,0,0,0,0,0,0,0],"id":39,"left_children":[1,3,5,7,9,11,13,15,-1,-1,-1,17,19,21,23,-1,-1,25,27,29,31,-1,-1,33,35,-1,-1,-1,-1,-1,-1,-1,-1,-1,-1,-1,-1],"loss_changes":[2.0068258E3,7.718506E1,2.0745435E2,3.9216309E0,4.7865295E0,4.6625633E1,6.7843506E1,1.40061035E1,0E0,0E0,0E0,4.187397E1,4.7507446E1,6.4774475E0,2.5028503E1,0E0,0E0,1.8558825E1,1.6840288E1,2.0693095E0,1.0252518E1,0E0,0E0,1.626007E1,1.3157271E1,0E0,0E0,0E0,0E0,0E0,0E0,0E0,0E0,0E0,0E0,0E0,0E0],"parents":[2147483647,0,0,1,1,2,2,3,3,4,4,5,5,6,6,7,7,11,11,12,12,13,13,14,14,17,17,18,18,19,19,20,20,23,23,24,24],"right_children":[2,4,6,8,10,12,14,16,-1,-1,-1,18,20,22,24,-1,-1,26,28,30,32,-1,-1,34,36,-1,-1,-1,-1,-1,-1,-1,-1,-1,-1,-1,-1],"split_conditions":[7.678556E-1,6.8776083E-1,9.225744E-1,4.9601647E-1,7.492966E-1,6.29946E-1,9.459306E-1,4.433593E-1,-1.8334548E-1,-2.0879288E-1,-1.1157663E-1,8.84635E-1,8.420804E-1,9.498452E-1,9.5893264E-1,-2.612829E-1,-4.1520625E-1,8.863979E-1,7.1582884E-1,6.875977E-1,4.6159932E-1,1.6286524E-1,3.0212793E-1,8.9966667E-1,2.6362717E-1,-2.141638E-2,-1.6024533E-1,5.966373E-2,-4.7903173E-3,-3.806877E-2,6.9001773E-3,-2.8404236E-2,1.1040943E-1,1.7348962E-1,5.7382327E-2,1.1904297E-1,1.1044121E-2],"split_indices":[0,0,0,8,0,4,1,8,0,0,0,2,0,0,0,0,0,0,8,8,7,0,0,8,4,0,0,0,0,0,0,0,0,0,0,0,0],"split_type":[0,0,0,0,0,0,0,0,0,0,0,0,0,0,0,0,0,0,0,0,0,0,0,0,0,0,0,0,0,0,0,0,0,0,0,0,0],"sum_hessian":[1.99E2,4.8E1,1.51E2,2.8E1,2E1,9.9E1,5.2E1,2.4E1,4E0,1.4E1,6E0,5.2E1,4.7E1,1.5E1,3.7E1,1.2E1,1.2E1,1E1,4.2E1,9E0,3.8E1,6E0,9E0,2.6E1,1.1E1,7E0,3E0,2.6E1,1.6E1,5E0,4E0,1E0,3.7E1,2.1E1,5E0,4E0,7E0],"tree_param":{"num_deleted":"0","num_feature":"10","num_nodes":"37","size_leaf_vector":"1"}},{"base_weights":[2.0241546E-3,-5.306871E0,1.713431E0,-6.661547E0,-3.8522902E0,8.850229E-1,3.2441363E0,-2.0152143E-1,-3.657337E-1,-4.319748E0,-1.13027096E-1,-1.1015762E0,1.0936049E0,4.970648E0,2.431812E0,-4.7393035E-2,-4.4544163E0,-7.600784E-2,-1.5302473E0,2.7390048E-1,1.8222173E0,9.1458894E-2,2.644387E-1,2.9367049E0,1.0931524E0,-2.3734848E-1,-1.1218681E-1,-2.7231598E-2,1.3087208E-2,-1.396281E-2,-9.8739624E-2,4.199029E-2,-3.8446095E-2,1.3145195E-1,6.6832446E-2,1.6520931E-1,5.4991152E-2,1.0160923E-2,1.1492081E-1],"categories":[],"categories_nodes":[],"categories_segments":[],"categories_sizes":[],"default_left":[0,0,0,0,0,0,0,0,0,0,0,0,0,0,0,0,0,0,0,0,0,0,0,0,0,0,0,0,0,0,0,0,0,0,0,0,0,0,0],"id":40,"left_children":[1,3,5,7,9,11,13,-1,-1,15,-1,17,19,21,23,-1,25,27,29,31,33,-1,-1,35,37,-1,-1,-1,-1,-1,-1,-1,-1,-1,-1,-1,-1,-1,-1],"loss_changes":[1.8262289E3,7.08916E1,1.8987228E2,1.1761597E1,9.580994E0,4.2641586E1,6.224414E1,0E0,0E0,4.4054565E0,0E0,4.2800045E0,5.3850357E1,6.3160095E0,2.2473145E1,0E0,9.904175E-1,7.756692E-1,3.341381E0,2.661185E1,1.5290726E1,0E0,0E0,1.4591492E1,1.240418E1,0E0,0E0,0E0,0E0,0E0,0E0,0E0,0E0,0E0,0E0,0E0,0E0,0E0,0E0],"parents":[2147483647,0,0,1,1,2,2,3,3,4,4,5,5,6,6,9,9,11,11,12,12,13,13,14,14,16,16,17,17,18,18,19,19,20,20,23,23,24,24],"right_children":[2,4,6,8,10,12,14,-1,-1,16,-1,18,20,22,24,-1,26,28,30,32,34,-1,-1,36,38,-1,-1,-1,-1,-1,-1,-1,-1,-1,-1,-1,-1,-1,-1],"split_conditions":[7.678556E-1,6.403777E-1,9.225744E-1,2.0595992E-1,7.4098015E-1,8.2044595E-1,9.459306E-1,-2.0152143E-1,-3.657337E-1,6.7713267E-1,-1.13027096E-1,6.6297334E-1,5.198651E-1,9.285879E-1,9.5893264E-1,-4.7393035E-2,8.889732E-1,7.7297235E-1,6.9696957E-1,7.21623E-1,6.593049E-1,9.1458894E-2,2.644387E-1,8.9966667E-1,9.915255E-1,-2.3734848E-1,-1.1218681E-1,-2.7231598E-2,1.3087208E-2,-1.396281E-2,-9.8739624E-2,4.199029E-2,-3.8446095E-2,1.3145195E-1,6.6832446E-2,1.6520931E-1,5.4991152E-2,1.0160923E-2,1.1492081E-1],"split_indices":[0,5,0,4,0,0,1,0,0,0,0,8,7,0,0,0,4,0,7,8,8,0,0,8,0,0,0,0,0,0,0,0,0,0,0,0,0,0,0],"split_type":[0,0,0,0,0,0,0,0,0,0,0,0,0,0,0,0,0,0,0,0,0,0,0,0,0,0,0,0,0,0,0,0,0,0,0,0,0,0,0],"sum_hessian":[1.99E2,4.8E1,1.51E2,2.3E1,2.5E1,9.9E1,5.2E1,6E0,1.7E1,1.8E1,7E0,9E0,9E1,1.5E1,3.7E1,1E0,1.7E1,3E0,6E0,4.3E1,4.7E1,2E0,1.3E1,2.6E1,1.1E1,1.4E1,3E0,1E0,2E0,2E0,4E0,2.8E1,1.5E1,1.6E1,3.1E1,2.1E1,5E0,7E0,4E0],"tree_param":{"num_deleted":"0","num_feature":"10","num_nodes":"39","size_leaf_vector":"1"}},{"base_weights":[4.1831972E-4,-5.1334248E0,1.611033E0,-6.3521023E0,-3.7581573E0,8.162822E-1,3.0951612E0,-2.3613334E-1,-3.7939912E-1,-4.1246505E0,-1.1132552E-1,-1.1181308E0,1.0411422E0,4.919503E0,2.3792624E0,-4.620819E-2,-4.251113E0,-1.5001373E0,-7.458496E-2,2.6028684E-1,1.7352358E0,1.652343E-1,3.2609063E-1,1.8961202E0,1.7403135E-1,-2.2234312E-1,-8.950399E-2,-3.14682E-2,-9.483643E-2,1.2650807E-2,-2.6434708E-2,3.4920387E-2,-4.8311807E-2,1.2526587E-1,6.35952E-2,1.016886E-1,-1.0335286E-3],"categories":[],"categories_nodes":[],"categories_segments":[],"categories_sizes":[],"default_left":[0,0,0,0,0,0,0,0,0,0,0,0,0,0,0,0,0,0,0,0,0,0,0,0,0,0,0,0,0,0,0,0,0,0,0,0,0],"id":41,"left_children":[1,3,5,7,9,11,13,-1,-1,15,-1,17,19,21,23,-1,25,27,29,31,33,-1,-1,35,-1,-1,-1,-1,-1,-1,-1,-1,-1,-1,-1,-1,-1],"loss_changes":[1.6619988E3,5.657617E1,1.7793884E2,1.2495361E1,4.849884E0,4.509632E1,5.7515594E1,0E0,0E0,3.761383E0,0E0,4.2731667E0,4.886914E1,1.467157E1,1.4684921E1,0E0,7.1118164E-1,1.5689964E0,7.2883487E-1,2.4318901E1,1.3940033E1,0E0,0E0,7.957535E0,0E0,0E0,0E0,0E0,0E0,0E0,0E0,0E0,0E0,0E0,0E0,0E0,0E0],"parents":[2147483647,0,0,1,1,2,2,3,3,4,4,5,5,6,6,9,9,11,11,12,12,13,13,14,14,16,16,17,17,18,18,19,19,20,20,23,23],"right_children":[2,4,6,8,10,12,14,-1,-1,16,-1,18,20,22,24,-1,26,28,30,32,34,-1,-1,36,-1,-1,-1,-1,-1,-1,-1,-1,-1,-1,-1,-1,-1],"split_conditions":[7.6369077E-1,6.403777E-1,9.225744E-1,4.433593E-1,7.4098015E-1,8.2044595E-1,9.42793E-1,-2.3613334E-1,-3.7939912E-1,6.7713267E-1,-1.1132552E-1,9.350287E-1,5.198651E-1,5.9844685E-1,6.4736104E-1,-4.620819E-2,8.9755213E-1,6.9696957E-1,9.2492133E-1,7.588656E-1,6.593049E-1,1.652343E-1,3.2609063E-1,9.9918264E-1,1.7403135E-1,-2.2234312E-1,-8.950399E-2,-3.14682E-2,-9.483643E-2,1.2650807E-2,-2.6434708E-2,3.4920387E-2,-4.8311807E-2,1.2526587E-1,6.35952E-2,1.016886E-1,-1.0335286E-3],"split_indices":[0,5,0,8,0,0,1,0,0,0,0,5,7,8,4,0,4,7,4,8,8,0,0,1,0,0,0,0,0,0,0,0,0,0,0,0,0],"split_type":[0,0,0,0,0,0,0,0,0,0,0,0,0,0,0,0,0,0,0,0,0,0,0,0,0,0,0,0,0,0,0,0,0,0,0,0,0],"sum_hessian":[1.99E2,4.7E1,1.52E2,2.3E1,2.4E1,1E2,5.2E1,1.2E1,1.1E1,1.8E1,6E0,1E1,9E1,1.3E1,3.9E1,1E0,1.7E1,7E0,3E0,4.3E1,4.7E1,8E0,5E0,2.9E1,1E1,1.5E1,2E0,3E0,4E0,2E0,1E0,3.2E1,1.1E1,1.6E1,3.1E1,2.7E1,2E0],"tree_param":{"num_deleted":"0","num_feature":"10","num_nodes":"37","size_leaf_vector":"1"}},{"base_weights":[-1.0219574E-3,-4.83358E0,1.5568489E0,-5.7408414E0,-3.0989122E0,8.003352E-1,2.9548585E0,-7.0621715E0,-2.3876713E-1,-1.7382413E-1,-9.775042E-2,2.0585114E-1,1.4400711E0,4.708619E0,2.2671707E0,-3.7089166E-1,-8.7638855E-2,-6.47691E-1,9.3456507E-1,-3.6720124E-1,1.8665494E0,1.5789041E-1,3.125033E-1,1.8046733E0,1.6612105E-1,1.8426841E-2,-8.8965796E-2,5.7118803E-2,-1.4570161E-2,-3.8977813E-2,1.8814087E-3,1.02286935E-1,2.7002588E-2,9.6785955E-2,-9.989421E-4],"categories":[],"categories_nodes":[],"categories_segments":[],"categories_sizes":[],"default_left":[0,0,0,0,0,0,0,0,0,0,0,0,0,0,0,0,0,0,0,0,0,0,0,0,0,0,0,0,0,0,0,0,0,0,0],"id":42,"left_children":[1,3,5,7,9,11,13,15,-1,-1,-1,17,19,21,23,-1,-1,25,27,29,31,-1,-1,33,-1,-1,-1,-1,-1,-1,-1,-1,-1,-1,-1],"loss_changes":[1.5132253E3,5.9325684E1,1.5839233E2,5.8237305E0,1.4096375E0,3.773484E1,5.3244812E1,7.7700806E0,0E0,0E0,0E0,3.357068E1,3.768199E1,1.3730408E1,1.3526154E1,0E0,0E0,2.940546E1,7.721216E0,1.6986678E0,8.165283E0,0E0,0E0,7.2120667E0,0E0,0E0,0E0,0E0,0E0,0E0,0E0,0E0,0E0,0E0,0E0],"parents":[2147483647,0,0,1,1,2,2,3,3,4,4,5,5,6,6,7,7,11,11,12,12,13,13,14,14,17,17,18,18,19,19,20,20,23,23],"right_children":[2,4,6,8,10,12,14,16,-1,-1,-1,18,20,22,24,-1,-1,26,28,30,32,-1,-1,34,-1,-1,-1,-1,-1,-1,-1,-1,-1,-1,-1],"split_conditions":[7.678556E-1,6.9100493E-1,9.225744E-1,4.2952457E-1,7.492966E-1,6.29946E-1,9.42793E-1,6.8297786E-1,-2.3876713E-1,-1.7382413E-1,-9.775042E-2,8.938177E-1,8.420804E-1,5.9844685E-1,6.4736104E-1,-3.7089166E-1,-8.7638855E-2,8.9305633E-1,9.2039067E-1,7.496879E-1,7.495801E-1,1.5789041E-1,3.125033E-1,9.9918264E-1,1.6612105E-1,1.8426841E-2,-8.8965796E-2,5.7118803E-2,-1.4570161E-2,-3.8977813E-2,1.8814087E-3,1.02286935E-1,2.7002588E-2,9.6785955E-2,-9.989421E-4],"split_indices":[0,0,0,7,0,4,1,0,0,0,0,2,0,8,4,0,0,0,0,7,8,0,0,1,0,0,0,0,0,0,0,0,0,0,0],"split_type":[0,0,0,0,0,0,0,0,0,0,0,0,0,0,0,0,0,0,0,0,0,0,0,0,0,0,0,0,0,0,0,0,0,0,0],"sum_hessian":[1.99E2,4.8E1,1.51E2,3E1,1.8E1,9.9E1,5.2E1,1E1,2E1,1.2E1,6E0,5.2E1,4.7E1,1.3E1,3.9E1,9E0,1E0,2.4E1,2.8E1,9E0,3.8E1,8E0,5E0,2.9E1,1E1,1.3E1,1.1E1,2.4E1,4E0,4E0,5E0,3.3E1,5E0,2.7E1,2E0],"tree_param":{"num_deleted":"0","num_feature":"10","num_nodes":"35","size_leaf_vector":"1"}},{"base_weights":[-1.831665E-3,-4.674865E0,1.46423E0,-5.788078E0,-3.4191859E0,7.3780036E-1,2.820931E0,-2.1428804E-1,-6.933248E0,-3.7486637E0,-1.0182168E-1,-1.0609866E0,9.471285E-1,4.358424E0,2.0993302E0,-3.599857E-1,-1.0005303E-1,-3.9083865E-2,-3.8700697E0,-1.4210014E0,-7.57103E-2,2.179459E-1,1.5676942E0,1.3317446E-1,5.1090364E0,2.554433E0,9.0040463E-1,-2.0648566E-1,-9.644451E-2,-2.880974E-2,-9.063233E-2,1.2166596E-2,-2.5820924E-2,2.8713021E-2,-8.4828295E-2,1.5370178E-2,8.681999E-2,3.2394335E-1,1.5580025E-1,1.44632E-1,4.4430163E-2,1.0279312E-1,3.284645E-3],"categories":[],"categories_nodes":[],"categories_segments":[],"categories_sizes":[],"default_left":[0,0,0,0,0,0,0,0,0,0,0,0,0,0,0,0,0,0,0,0,0,0,0,0,0,0,0,0,0,0,0,0,0,0,0,0,0,0,0,0,0,0,0],"id":43,"left_children":[1,3,5,7,9,11,13,-1,15,17,-1,19,21,23,25,-1,-1,-1,27,29,31,33,35,-1,37,39,41,-1,-1,-1,-1,-1,-1,-1,-1,-1,-1,-1,-1,-1,-1,-1,-1],"loss_changes":[1.377036E3,4.7305786E1,1.4870752E2,1.1575562E1,3.7557678E0,3.9035084E1,4.9651398E1,0E0,1.3640747E0,3.8188477E0,0E0,3.7942715E0,4.083635E1,6.7479553E0,1.8434097E1,0E0,0E0,0E0,1.1065063E0,1.6024761E0,6.880791E-1,3.0307507E1,9.884514E0,0E0,7.112976E0,1.2641266E1,1.1438636E1,0E0,0E0,0E0,0E0,0E0,0E0,0E0,0E0,0E0,0E0,0E0,0E0,0E0,0E0,0E0,0E0],"parents":[2147483647,0,0,1,1,2,2,3,3,4,4,5,5,6,6,8,8,9,9,11,11,12,12,13,13,14,14,18,18,19,19,20,20,21,21,22,22,24,24,25,25,26,26],"right_children":[2,4,6,8,10,12,14,-1,16,18,-1,20,22,24,26,-1,-1,-1,28,30,32,34,36,-1,38,40,42,-1,-1,-1,-1,-1,-1,-1,-1,-1,-1,-1,-1,-1,-1,-1,-1],"split_conditions":[7.6369077E-1,6.403777E-1,9.225744E-1,4.433593E-1,7.4098015E-1,8.2044595E-1,9.459306E-1,-2.1428804E-1,4.9601647E-1,6.7713267E-1,-1.0182168E-1,9.350287E-1,5.6382567E-1,9.498452E-1,9.5893264E-1,-3.599857E-1,-1.0005303E-1,-3.9083865E-2,8.889732E-1,6.9696957E-1,9.2492133E-1,7.7855873E-1,8.550778E-1,1.3317446E-1,9.9906397E-1,8.9966667E-1,2.6362717E-1,-2.0648566E-1,-9.644451E-2,-2.880974E-2,-9.063233E-2,1.2166596E-2,-2.5820924E-2,2.8713021E-2,-8.4828295E-2,1.5370178E-2,8.681999E-2,3.2394335E-1,1.5580025E-1,1.44632E-1,4.4430163E-2,1.0279312E-1,3.284645E-3],"split_indices":[0,5,0,8,0,0,1,0,8,0,0,5,4,0,0,0,0,0,4,7,4,8,0,0,0,8,4,0,0,0,0,0,0,0,0,0,0,0,0,0,0,0,0],"split_type":[0,0,0,0,0,0,0,0,0,0,0,0,0,0,0,0,0,0,0,0,0,0,0,0,0,0,0,0,0,0,0,0,0,0,0,0,0,0,0,0,0,0,0],"sum_hessian":[1.99E2,4.7E1,1.52E2,2.3E1,2.4E1,1E2,5.2E1,1.2E1,1.1E1,1.8E1,6E0,1E1,9E1,1.5E1,3.7E1,1E1,1E0,1E0,1.7E1,7E0,3E0,4.2E1,4.8E1,6E0,9E0,2.6E1,1.1E1,1.4E1,3E0,3E0,4E0,2E0,1E0,3.6E1,6E0,6E0,4.2E1,4E0,5E0,2.1E1,5E0,4E0,7E0],"tree_param":{"num_deleted":"0","num_feature":"10","num_nodes":"43","size_leaf_vector":"1"}},{"base_weights":[-3.2276916E-3,-4.4049296E0,1.4157633E0,-5.315332E0,-2.937949E0,7.225429E-1,2.6970136E0,-1.6334784E-1,-5.7076488E0,-1.6378759E-1,-8.971896E-2,1.7897178E-1,1.307683E0,4.1788063E0,2.002127E0,-3.0773696E-1,-1.4335877E-1,-1.2936692E0,5.515318E-1,-1.5786743E-1,1.7476538E0,1.274668E-1,4.901555E0,2.4337084E0,8.6422473E-1,-1.6035749E-2,-1.4580803E-1,3.461739E-2,-7.783992E-2,-3.5471804E-2,1.0329819E-2,5.9281666E-2,1.1695557E-1,3.3012086E-1,1.6147058E-1,1.3772881E-1,4.257876E-2,1.1086102E-1,8.343421E-3],"categories":[],"categories_nodes":[],"categories_segments":[],"categories_sizes":[],"default_left":[0,0,0,0,0,0,0,0,0,0,0,0,0,0,0,0,0,0,0,0,0,0,0,0,0,0,0,0,0,0,0,0,0,0,0,0,0,0,0],"id":44,"left_children":[1,3,5,7,9,11,13,-1,15,-1,-1,17,19,21,23,-1,-1,25,27,29,31,-1,33,35,37,-1,-1,-1,-1,-1,-1,-1,-1,-1,-1,-1,-1,-1,-1],"loss_changes":[1.2554314E3,4.982544E1,1.3305603E2,4.658142E0,2.234375E0,3.157249E1,4.620642E1,0E0,1.1562073E1,0E0,0E0,2.97918E1,3.1226273E1,6.3474426E0,1.6558441E1,0E0,0E0,1.6429451E1,1.3843974E1,2.5588882E0,9.525887E0,0E0,7.1189423E0,1.1360977E1,1.0952256E1,0E0,0E0,0E0,0E0,0E0,0E0,0E0,0E0,0E0,0E0,0E0,0E0,0E0,0E0],"parents":[2147483647,0,0,1,1,2,2,3,3,4,4,5,5,6,6,8,8,11,11,12,12,13,13,14,14,17,17,18,18,19,19,20,20,22,22,23,23,24,24],"right_children":[2,4,6,8,10,12,14,-1,16,-1,-1,18,20,22,24,-1,-1,26,28,30,32,-1,34,36,38,-1,-1,-1,-1,-1,-1,-1,-1,-1,-1,-1,-1,-1,-1],"split_conditions":[7.678556E-1,6.8776083E-1,9.225744E-1,2.0595992E-1,7.492966E-1,6.29946E-1,9.459306E-1,-1.6334784E-1,4.9601647E-1,-1.6378759E-1,-8.971896E-2,8.84635E-1,8.550778E-1,9.498452E-1,9.5893264E-1,-3.0773696E-1,-1.4335877E-1,8.863979E-1,7.0648414E-1,7.496879E-1,7.3772943E-1,1.274668E-1,9.802168E-1,8.9966667E-1,6.830128E-1,-1.6035749E-2,-1.4580803E-1,3.461739E-2,-7.783992E-2,-3.5471804E-2,1.0329819E-2,5.9281666E-2,1.1695557E-1,3.3012086E-1,1.6147058E-1,1.3772881E-1,4.257876E-2,1.1086102E-1,8.343421E-3],"split_indices":[0,0,0,4,0,4,1,0,8,0,0,2,0,0,0,0,0,0,5,7,4,0,0,8,8,0,0,0,0,0,0,0,0,0,0,0,0,0,0],"split_type":[0,0,0,0,0,0,0,0,0,0,0,0,0,0,0,0,0,0,0,0,0,0,0,0,0,0,0,0,0,0,0,0,0,0,0,0,0,0,0],"sum_hessian":[1.99E2,4.8E1,1.51E2,2.8E1,2E1,9.9E1,5.2E1,6E0,2.2E1,1.4E1,6E0,5.2E1,4.7E1,1.5E1,3.7E1,1.8E1,4E0,1E1,4.2E1,1.1E1,3.6E1,6E0,9E0,2.6E1,1.1E1,7E0,3E0,4E1,2E0,4E0,7E0,2E1,1.6E1,3E0,6E0,2.1E1,5E0,3E0,8E0],"tree_param":{"num_deleted":"0","num_feature":"10","num_nodes":"39","size_leaf_vector":"1"}},{"base_weights":[-3.0834961E-3,-4.202396E0,1.3506625E0,-5.070752E0,-2.8031223E0,2.6190645E-1,2.0977843E0,-1.5634733E-1,-5.441878E0,-1.7059653E0,-3.1282542E0,-3.7837557E-2,1.8543335E0,1.4927065E0,3.3190613E0,-2.9315984E-1,-1.3762452E-1,-9.420636E-2,-1.5924836E-2,-1.690766E-1,-7.931786E-2,-1.01145364E-1,1.185961E-1,3.5884056E0,5.9853035E-1,9.314108E-1,2.0239568E0,1.3261212E-1,2.9946718E-1,-8.572709E-2,1.5554371E-2,4.999466E-2,2.0589726E-1,5.6274414E-2,-2.3962148E-2,6.0037684E-2,1.5402569E-2,-1.8658066E-2,1.0581497E-1],"categories":[],"categories_nodes":[],"categories_segments":[],"categories_sizes":[],"default_left":[0,0,0,0,0,0,0,0,0,0,0,0,0,0,0,0,0,0,0,0,0,0,0,0,0,0,0,0,0,0,0,0,0,0,0,0,0,0,0],"id":45,"left_children":[1,3,5,7,9,11,13,-1,15,17,19,21,23,25,27,-1,-1,-1,-1,-1,-1,-1,29,31,33,35,37,-1,-1,-1,-1,-1,-1,-1,-1,-1,-1,-1,-1],"loss_changes":[1.1426364E3,4.53244E1,1.2309244E2,3.9040527E0,2.1544342E0,3.0141357E1,6.1552643E1,0E0,9.922668E0,1.1302719E0,4.9360657E-1,1.7008621E1,1.9628761E1,1.6602554E1,3.5752075E1,0E0,0E0,0E0,0E0,0E0,0E0,0E0,1.852939E1,1.3653755E0,4.514971E0,5.002823E0,7.651779E0,0E0,0E0,0E0,0E0,0E0,0E0,0E0,0E0,0E0,0E0,0E0,0E0],"parents":[2147483647,0,0,1,1,2,2,3,3,4,4,5,5,6,6,8,8,9,9,10,10,11,11,12,12,13,13,14,14,22,22,23,23,24,24,25,25,26,26],"right_children":[2,4,6,8,10,12,14,-1,16,18,20,22,24,26,28,-1,-1,-1,-1,-1,-1,-1,30,32,34,36,38,-1,-1,-1,-1,-1,-1,-1,-1,-1,-1,-1,-1],"split_conditions":[7.678556E-1,6.8776083E-1,9.0059674E-1,2.0595992E-1,6.434694E-1,8.79445E-1,7.1199924E-1,-1.5634733E-1,4.9601647E-1,8.2003516E-1,8.99055E-1,3.0721384E-1,8.2315934E-1,8.826455E-1,9.514791E-1,-2.9315984E-1,-1.3762452E-1,-9.420636E-2,-1.5924836E-2,-1.690766E-1,-7.931786E-2,-1.01145364E-1,6.857395E-1,8.705937E-1,9.100847E-1,9.2039067E-1,9.7932085E-2,1.3261212E-1,2.9946718E-1,-8.572709E-2,1.5554371E-2,4.999466E-2,2.0589726E-1,5.6274414E-2,-2.3962148E-2,6.0037684E-2,1.5402569E-2,-1.8658066E-2,1.0581497E-1],"split_indices":[0,0,2,4,7,7,5,0,8,4,5,4,4,6,0,0,0,0,0,0,0,0,8,0,4,0,7,0,0,0,0,0,0,0,0,0,0,0,0],"split_type":[0,0,0,0,0,0,0,0,0,0,0,0,0,0,0,0,0,0,0,0,0,0,0,0,0,0,0,0,0,0,0,0,0,0,0,0,0,0,0],"sum_hessian":[1.99E2,4.8E1,1.51E2,2.8E1,2E1,6.2E1,8.9E1,6E0,2.2E1,6E0,1.4E1,5.3E1,9E0,6.1E1,2.8E1,1.8E1,4E0,5E0,1E0,1.1E1,3E0,3E0,5E1,3E0,6E0,3.1E1,3E1,2.4E1,4E0,4E0,4.6E1,1E0,2E0,4E0,2E0,2.1E1,1E1,1E0,2.9E1],"tree_param":{"num_deleted":"0","num_feature":"10","num_nodes":"39","size_leaf_vector":"1"}},{"base_weights":[-4.099045E-3,-4.066695E0,1.2704678E0,-5.903696E0,-3.4279134E0,2.2541523E-1,1.9994998E0,-3.116897E-1,-6.506806E-2,-3.7103183E0,-9.525528E-2,-6.323242E-2,1.7904358E0,1.3755033E0,3.0875092E0,-1.9359417E-1,-8.258915E-2,-1.5992457E0,1.2235382E-1,3.4729576E0,5.732182E-1,1.0445616E0,2.7246523E0,1.2806794E-1,3.0651113E-1,-2.5134087E-2,-1.2641245E-1,-2.910172E-2,3.7197255E-2,4.8744965E-2,1.9903387E-1,5.402344E-2,-2.3163605E-2,6.0884636E-2,2.5262832E-4,1.451368E-1,2.3595428E-2],"categories":[],"categories_nodes":[],"categories_segments":[],"categories_sizes":[],"default_left":[0,0,0,0,0,0,0,0,0,0,0,0,0,0,0,0,0,0,0,0,0,0,0,0,0,0,0,0,0,0,0,0,0,0,0,0,0],"id":46,"left_children":[1,3,5,7,9,11,13,-1,-1,15,-1,17,19,21,23,-1,-1,25,27,29,31,33,35,-1,-1,-1,-1,-1,-1,-1,-1,-1,-1,-1,-1,-1,-1],"loss_changes":[1.0407766E3,3.608789E1,1.16116455E2,8.598999E0,9.273285E0,2.9024542E1,5.6855377E1,0E0,0E0,3.9147034E0,0E0,1.5874135E1,1.848919E1,2.3496834E1,3.5527893E1,0E0,0E0,4.841365E0,2.232508E1,1.1924896E0,4.180873E0,8.81245E0,3.0431137E0,0E0,0E0,0E0,0E0,0E0,0E0,0E0,0E0,0E0,0E0,0E0,0E0,0E0,0E0],"parents":[2147483647,0,0,1,1,2,2,3,3,4,4,5,5,6,6,9,9,11,11,12,12,13,13,14,14,17,17,18,18,19,19,20,20,21,21,22,22],"right_children":[2,4,6,8,10,12,14,-1,-1,16,-1,18,20,22,24,-1,-1,26,28,30,32,34,36,-1,-1,-1,-1,-1,-1,-1,-1,-1,-1,-1,-1,-1,-1],"split_conditions":[7.6369077E-1,4.2952457E-1,9.0059674E-1,6.8297786E-1,7.369509E-1,8.79445E-1,6.574365E-1,-3.116897E-1,-6.506806E-2,8.889732E-1,-9.525528E-2,6.857395E-1,8.2315934E-1,9.915255E-1,9.514791E-1,-1.9359417E-1,-8.258915E-2,7.778656E-1,8.877038E-1,8.705937E-1,9.100847E-1,9.5893264E-1,6.830128E-1,1.2806794E-1,3.0651113E-1,-2.5134087E-2,-1.2641245E-1,-2.910172E-2,3.7197255E-2,4.8744965E-2,1.9903387E-1,5.402344E-2,