{"learner":{"attributes":{"scikit_learn":"{\"_estimator_type\": \"classifier\"}"},"feature_names":[],"feature_types":[],"gradient_booster":{"model":{"gbtree_model_param":{"num_parallel_tree":"1","num_trees":"300"},"iteration_indptr":[0,3,6,9,12,15,18,21,24,27,30,33,36,39,42,45,48,51,54,57,60,63,66,69,72,75,78,81,84,87,90,93,96,99,102,105,108,111,114,117,120,123,126,129,132,135,138,141,144,147,150,153,156,159,162,165,168,171,174,177,180,183,186,189,192,195,198,201,204,207,210,213,216,219,222,225,228,231,234,237,240,243,246,249,252,255,258,261,264,267,270,273,276,279,282,285,288,291,294,297,300],"tree_info":[0,1,2,0,1,2,0,1,2,0,1,2,0,1,2,0,1,2,0,1,2,0,1,2,0,1,2,0,1,2,0,1,2,0,1,2,0,1,2,0,1,2,0,1,2,0,1,2,0,1,2,0,1,2,0,1,2,0,1,2,0,1,2,0,1,2,0,1,2,0,1,2,0,1,2,0,1,2,0,1,2,0,1,2,0,1,2,0,1,2,0,1,2,0,1,2,0,1,2,0,1,2,0,1,2,0,1,2,0,1,2,0,1,2,0,1,2,0,1,2,0,1,2,0,1,2,0,1,2,0,1,2,0,1,2,0,1,2,0,1,2,0,1,2,0,1,2,0,1,2,0,1,2,0,1,2,0,1,2,0,1,2,0,1,2,0,1,2,0,1,2,0,1,2,0,1,2,0,1,2,0,1,2,0,1,2,0,1,2,0,1,2,0,1,2,0,1,2,0,1,2,0,1,2,0,1,2,0,1,2,0,1,2,0,1,2,0,1,2,0,1,2,0,1,2,0,1,2,0,1,2,0,1,2,0,1,2,0,1,2,0,1,2,0,1,2,0,1,2,0,1,2,0,1,2,0,1,2,0,1,2,0,1,2,0,1,2,0,1,2,0,1,2,0,1,2,0,1,2,0,1,2,0,1,2,0,1,2,0,1,2,0,1,2,0,1,2,0,1,2],"trees":[{"base_weights":[-1.4906837E-1,-2.1282406E-1,4.4444442E-1,-5.985042E-2,-3.8709682E-1,-1.463415E-1,8.5714287E-1,-1.7647064E-1,7.35849E-1,-4.285715E-1,2.142857E-2,5.1724124E-3,-2.1428574E-2,-1.2772424E-9,5.675676E-2,1.3953485E-1,-3.417722E-1,4.7560975E-2,-1.2772424E-9,-3.3529416E-2,-3.3201587E-1,-2.1428574E-2,2.1910112E-2,1.46341445E-2,-2.268293E-2,-2.0886078E-2,3E-2],"categories":[],"categories_nodes":[],"categories_segments":[],"categories_sizes":[],"default_left":[0,0,0,0,0,0,0,0,0,0,0,0,0,0,0,0,0,0,0,0,0,0,0,0,0,0,0],"id":0,"left_children":[1,3,5,7,9,11,13,15,17,19,-1,-1,-1,-1,-1,21,23,-1,-1,-1,25,-1,-1,-1,-1,-1,-1],"loss_changes":[3.4791493E0,2.148071E0,2.3197837E0,4.264373E0,1.4654374E0,3.6549324E-1,1.2972972E0,2.119725E0,9.3327165E-1,6.31588E-1,0E0,0E0,0E0,0E0,0E0,2.6198065E0,2.0020995E0,0E0,0E0,0E0,2.4961221E0,0E0,0E0,0E0,0E0,0E0,0E0],"parents":[2147483647,0,0,1,1,2,2,3,3,4,4,5,5,6,6,7,7,8,8,9,9,15,15,16,16,20,20],"right_children":[2,4,6,8,10,12,14,16,18,20,-1,-1,-1,-1,-1,22,24,-1,-1,-1,26,-1,-1,-1,-1,-1,-1],"split_conditions":[9.6366334E-1,6.875977E-1,3.4629312E-1,6.6297334E-1,9.970674E-1,9.971318E-1,9.38265E-1,6.9100493E-1,6.857395E-1,8.790731E-1,2.142857E-2,5.1724124E-3,-2.1428574E-2,-1.2772424E-9,5.675676E-2,4.0319717E-1,4.6802843E-1,4.7560975E-2,-1.2772424E-9,-3.3529416E-2,7.67694E-1,-2.1428574E-2,2.1910112E-2,1.46341445E-2,-2.268293E-2,-2.0886078E-2,3E-2],"split_indices":[2,8,4,8,1,0,1,0,8,0,0,0,0,0,0,4,8,0,0,0,5,0,0,0,0,0,0],"split_type":[0,0,0,0,0,0,0,0,0,0,0,0,0,0,0,0,0,0,0,0,0,0,0,0,0,0,0],"sum_hessian":[8.844444E1,8.044444E1,7.9999995E0,4.3555553E1,3.6888885E1,3.5555553E0,4.444444E0,3.8666664E1,4.8888884E0,3.5555553E1,1.3333333E0,2.222222E0,1.3333333E0,1.3333333E0,3.111111E0,1.3333332E1,2.5333332E1,3.5555553E0,1.3333333E0,8.444444E0,2.7111109E1,4.444444E0,8.888888E0,3.5555553E0,2.1777777E1,2.5333332E1,1.7777777E0],"tree_param":{"num_deleted":"0","num_feature":"10","num_nodes":"27","size_leaf_vector":"1"}},{"base_weights":[-3.7267525E-3,-2.2198737E-1,2.991202E-1,-4.6229514E-1,2.033898E-1,3.7854886E-1,-2.727273E-2,-3.2432437E-1,-6.2790704E-1,3.834586E-1,-2.8301892E-1,4.5674738E-1,-3.2432437E-1,-4.363637E-1,2.0689655E-2,-1.0344829E-2,-3.4403674E-2,-3.576279E-8,5.2577317E-1,-2.837838E-2,1.1999999E-2,5.5731225E-1,-2.0000003E-1,-2.4000002E-2,-1.2772424E-9,-2.3529416E-2,-1.2772424E-9,3E-2,-2.5862072E-2,9.230767E-3,4.7560975E-2,2.112676E-2,5.2040815E-2,-2.5862072E-2,1.1999999E-2],"categories":[],"categories_nodes":[],"categories_segments":[],"categories_sizes":[],"default_left":[0,0,0,0,0,0,0,0,0,0,0,0,0,0,0,0,0,0,0,0,0,0,0,0,0,0,0,0,0,0,0,0,0,0,0],"id":1,"left_children":[1,3,5,7,9,11,-1,13,15,17,19,21,23,25,-1,-1,-1,27,29,-1,-1,31,33,-1,-1,-1,-1,-1,-1,-1,-1,-1,-1,-1,-1],"loss_changes":[5.978639E0,5.4663305E0,2.748198E0,5.707021E-1,1.8310713E0,2.084076E0,0E0,1.8804712E0,2.2071266E-1,8.064492E-1,1.0126262E0,2.2322636E0,2.0756751E-1,2.7379656E-1,0E0,0E0,0E0,1.862069E0,1.3887234E0,0E0,0E0,1.392086E0,8.220689E-1,0E0,0E0,0E0,0E0,0E0,0E0,0E0,0E0,0E0,0E0,0E0,0E0],"parents":[2147483647,0,0,1,1,2,2,3,3,4,4,5,5,7,7,8,8,9,9,10,10,11,11,12,12,13,13,17,17,18,18,21,21,22,22],"right_children":[2,4,6,8,10,12,-1,14,16,18,20,22,24,26,-1,-1,-1,28,30,-1,-1,32,34,-1,-1,-1,-1,-1,-1,-1,-1,-1,-1,-1,-1],"split_conditions":[6.9410455E-1,9.080422E-1,9.535834E-1,7.540431E-1,9.801668E-1,9.63024E-1,-2.727273E-2,7.336132E-1,5.0725114E-1,9.153799E-1,9.9953794E-1,8.355457E-1,9.5644635E-1,7.866775E-1,2.0689655E-2,-1.0344829E-2,-3.4403674E-2,6.574365E-1,6.0030335E-1,-2.837838E-2,1.1999999E-2,7.4800104E-1,8.1515E-1,-2.4000002E-2,-1.2772424E-9,-2.3529416E-2,-1.2772424E-9,3E-2,-2.5862072E-2,9.230767E-3,4.7560975E-2,2.112676E-2,5.2040815E-2,-2.5862072E-2,1.1999999E-2],"split_indices":[8,0,8,0,0,2,0,0,7,0,0,5,0,7,0,0,0,4,8,0,0,4,4,0,0,0,0,0,0,0,0,0,0,0,0],"split_type":[0,0,0,0,0,0,0,0,0,0,0,0,0,0,0,0,0,0,0,0,0,0,0,0,0,0,0,0,0,0,0,0,0,0,0],"sum_hessian":[8.844444E1,5.1555553E1,3.6888885E1,3.2888885E1,1.8666666E1,3.422222E1,2.6666665E0,1.9555553E1,1.3333332E1,1.3777777E1,4.8888884E0,3.1111109E1,3.111111E0,1.7333332E1,2.222222E0,2.222222E0,1.1111111E1,3.9999998E0,9.777777E0,3.111111E0,1.7777777E0,2.7111109E1,3.9999998E0,1.7777777E0,1.3333333E0,1.5999999E1,1.3333333E0,1.7777777E0,2.222222E0,6.222222E0,3.5555553E0,2.2666666E1,4.444444E0,2.222222E0,1.7777777E0],"tree_param":{"num_deleted":"0","num_feature":"10","num_nodes":"35","size_leaf_vector":"1"}},{"base_weights":[1.5279499E-1,4.9833885E-1,-5.2631624E-2,3.417721E-1,9.4520545E-1,4.736842E-1,-1.1612908E-1,4.2253518E-1,-2.727273E-1,5.6557376E-2,-1.2772424E-9,5.675676E-2,-2.5862072E-2,1.9834708E-1,-2.2096322E-1,3.3502534E-1,4.8E-2,-2.1428574E-2,-1.2772424E-9,4.5205477E-1,-1.5789478E-1,-3.9884397E-1,-4.7619093E-2,3.6585364E-2,1.090909E-2,6.122447E-3,4.0909093E-2,1.1999999E-2,-1.8292686E-2,5.1724124E-3,-2.3529416E-2,1.7010307E-2,-2.0792082E-2],"categories":[],"categories_nodes":[],"categories_segments":[],"categories_sizes":[],"default_left":[0,0,0,0,0,0,0,0,0,0,0,0,0,0,0,0,0,0,0,0,0,0,0,0,0,0,0,0,0,0,0,0,0],"id":2,"left_children":[1,3,5,7,9,11,13,15,17,-1,-1,-1,-1,19,21,23,-1,-1,-1,25,27,29,31,-1,-1,-1,-1,-1,-1,-1,-1,-1,-1],"loss_changes":[6.3753433E0,2.0168772E0,1.9599322E0,1.4221301E0,1.4255557E0,4.7383137E0,1.7471654E0,7.9150057E-1,1.5584415E-1,0E0,0E0,0E0,0E0,1.2865033E0,1.1904083E0,8.548989E-1,0E0,0E0,0E0,8.78644E-1,6.1186135E-1,7.41385E-1,3.1403978E0,0E0,0E0,0E0,0E0,0E0,0E0,0E0,0E0,0E0,0E0],"parents":[2147483647,0,0,1,1,2,2,3,3,4,4,5,5,6,6,7,7,8,8,13,13,14,14,15,15,19,19,20,20,21,21,22,22],"right_children":[2,4,6,8,10,12,14,16,18,-1,-1,-1,-1,20,22,24,-1,-1,-1,26,28,30,32,-1,-1,-1,-1,-1,-1,-1,-1,-1,-1],"split_conditions":[8.7894857E-1,8.2044595E-1,5.800763E-1,6.6297334E-1,8.7853897E-1,7.77502E-1,5.641159E-1,7.6369077E-1,8.071951E-1,5.6557376E-2,-1.2772424E-9,5.675676E-2,-2.5862072E-2,9.5893264E-1,5.7080555E-1,3.9678368E-1,4.8E-2,-2.1428574E-2,-1.2772424E-9,9.208542E-1,2.6362717E-1,8.9305633E-1,7.3179E-1,3.6585364E-2,1.090909E-2,6.122447E-3,4.0909093E-2,1.1999999E-2,-1.8292686E-2,5.1724124E-3,-2.3529416E-2,1.7010307E-2,-2.0792082E-2],"split_indices":[2,0,8,8,4,7,5,0,0,0,0,0,0,0,4,4,0,0,0,0,4,0,5,0,0,0,0,0,0,0,0,0,0],"split_type":[0,0,0,0,0,0,0,0,0,0,0,0,0,0,0,0,0,0,0,0,0,0,0,0,0,0,0,0,0,0,0,0,0],"sum_hessian":[8.844444E1,3.2444443E1,5.5999996E1,2.5333332E1,7.1111107E0,5.333333E0,5.0666664E1,2.2666666E1,2.6666665E0,5.7777777E0,1.3333333E0,3.111111E0,2.222222E0,1.2444444E1,3.822222E1,2.0888887E1,1.7777777E0,1.3333333E0,1.3333333E0,7.1111107E0,5.333333E0,1.8222221E1,1.9999998E1,3.5555553E0,1.7333332E1,4.444444E0,2.6666665E0,1.7777777E0,3.5555553E0,2.222222E0,1.5999999E1,9.777777E0,1.0222221E1],"tree_param":{"num_deleted":"0","num_feature":"10","num_nodes":"33","size_leaf_vector":"1"}},{"base_weights":[-1.4413485E-1,-2.2486128E-1,3.0821505E-1,-7.150284E-2,-4.3659437E-1,6.879403E-1,-4.1897404E-1,-1.8426496E-1,7.030356E-1,-4.8103356E-1,5.4488285E-3,-8.0438256E-2,5.3660627E-2,5.713952E-4,-2.80276E-2,1.3436306E-1,-3.4696224E-1,4.541414E-2,-2.0157127E-4,-6.0502493E-1,-2.04603E-1,1.1815774E-2,-2.1250373E-2,-2.1054475E-2,2.1101402E-2,1.4271917E-2,-2.2775868E-2,-5.1280423E-3,-3.2376174E-2,-3.205852E-2,3.241088E-2],"categories":[],"categories_nodes":[],"categories_segments":[],"categories_sizes":[],"default_left":[0,0,0,0,0,0,0,0,0,0,0,0,0,0,0,0,0,0,0,0,0,0,0,0,0,0,0,0,0,0,0],"id":3,"left_children":[1,3,5,7,9,11,13,15,17,19,-1,21,-1,-1,-1,23,25,-1,-1,27,29,-1,-1,-1,-1,-1,-1,-1,-1,-1,-1],"loss_changes":[3.3224988E0,2.442272E0,4.13002E0,4.092386E0,8.2345057E-1,2.9041624E0,3.3510906E-1,2.1409202E0,8.7061644E-1,8.904524E-1,0E0,5.489172E-1,0E0,0E0,0E0,2.4748702E0,1.9851437E0,0E0,0E0,3.589034E-1,4.3896832E0,0E0,0E0,0E0,0E0,0E0,0E0,0E0,0E0,0E0,0E0],"parents":[2147483647,0,0,1,1,2,2,3,3,4,4,5,5,6,6,7,7,8,8,9,9,11,11,15,15,16,16,19,19,20,20],"right_children":[2,4,6,8,10,12,14,16,18,20,-1,22,-1,-1,-1,24,26,-1,-1,28,30,-1,-1,-1,-1,-1,-1,-1,-1,-1,-1],"split_conditions":[8.9721787E-1,6.875977E-1,6.4736104E-1,6.6297334E-1,9.64897E-1,3.4629312E-1,9.791854E-1,6.9100493E-1,6.857395E-1,7.1079403E-1,5.4488285E-3,9.971318E-1,5.3660627E-2,5.713952E-4,-2.80276E-2,4.0319717E-1,4.6802843E-1,4.541414E-2,-2.0157127E-4,8.84635E-1,8.7530375E-1,1.1815774E-2,-2.1250373E-2,-2.1054475E-2,2.1101402E-2,1.4271917E-2,-2.2775868E-2,-5.1280423E-3,-3.2376174E-2,-3.205852E-2,3.241088E-2],"split_indices":[6,8,4,8,8,4,1,0,8,5,0,0,0,0,0,4,8,0,0,2,0,0,0,0,0,0,0,0,0,0,0],"split_type":[0,0,0,0,0,0,0,0,0,0,0,0,0,0,0,0,0,0,0,0,0,0,0,0,0,0,0,0,0,0,0],"sum_hessian":[8.80881E1,7.5175224E1,1.2912876E1,4.4373306E1,3.0801916E1,8.518592E0,4.3942842E0,3.9399395E1,4.9739113E0,2.8591318E1,2.2105968E0,3.1090956E0,5.4094963E0,1.3152279E0,3.0790565E0,1.3376627E1,2.6022768E1,3.6343544E0,1.3395569E0,1.8917345E1,9.673973E0,1.7836251E0,1.3254704E0,4.4057474E0,8.97088E0,3.5737922E0,2.2448977E1,1.7414391E0,1.7175907E1,6.5626593E0,3.1113138E0],"tree_param":{"num_deleted":"0","num_feature":"10","num_nodes":"31","size_leaf_vector":"1"}},{"base_weights":[-4.288301E-3,-2.162606E-1,2.8645834E-1,-4.5215026E-1,1.9525261E-1,3.62617E-1,-2.6845565E-2,-3.148999E-1,-6.1781365E-1,3.6863214E-1,-2.78284E-1,4.3737248E-1,-3.1858137E-1,-4.2598835E-1,2.0272696E-2,-1.0237138E-2,-3.3866934E-2,3.317999E-4,5.037839E-1,-2.7962357E-2,1.1570512E-2,5.3285986E-1,-1.9555399E-1,-2.3878839E-2,4.3513702E-4,-2.3042012E-2,5.7135633E-4,2.938754E-2,-2.55972E-2,8.750529E-3,4.5535393E-2,2.0191502E-2,4.9633093E-2,-2.5518328E-2,1.1829862E-2],"categories":[],"categories_nodes":[],"categories_segments":[],"categories_sizes":[],"default_left":[0,0,0,0,0,0,0,0,0,0,0,0,0,0,0,0,0,0,0,0,0,0,0,0,0,0,0,0,0,0,0,0,0,0,0],"id":4,"left_children":[1,3,5,7,9,11,-1,13,15,17,19,21,23,25,-1,-1,-1,27,29,-1,-1,31,33,-1,-1,-1,-1,-1,-1,-1,-1,-1,-1,-1,-1],"loss_changes":[5.574683E0,5.16535E0,2.5867226E0,5.6821585E-1,1.7245336E0,1.9478054E0,0E0,1.8040924E0,2.0949936E-1,7.410507E-1,9.692373E-1,2.0637383E0,2.1701041E-1,2.819605E-1,0E0,0E0,0E0,1.8049363E0,1.2979188E0,0E0,0E0,1.2864971E0,7.9851615E-1,0E0,0E0,0E0,0E0,0E0,0E0,0E0,0E0,0E0,0E0,0E0,0E0],"parents":[2147483647,0,0,1,1,2,2,3,3,4,4,5,5,7,7,8,8,9,9,10,10,11,11,12,12,13,13,17,17,18,18,21,21,22,22],"right_children":[2,4,6,8,10,12,-1,14,16,18,20,22,24,26,-1,-1,-1,28,30,-1,-1,32,34,-1,-1,-1,-1,-1,-1,-1,-1,-1,-1,-1,-1],"split_conditions":[6.9410455E-1,9.080422E-1,9.535834E-1,7.540431E-1,9.801668E-1,9.63024E-1,-2.6845565E-2,7.336132E-1,5.0725114E-1,9.153799E-1,9.9953794E-1,8.355457E-1,9.006961E-1,5.640879E-1,2.0272696E-2,-1.0237138E-2,-3.3866934E-2,6.574365E-1,6.0030335E-1,-2.7962357E-2,1.1570512E-2,7.4800104E-1,8.926547E-1,-2.3878839E-2,4.3513702E-4,-2.3042012E-2,5.7135633E-4,2.938754E-2,-2.55972E-2,8.750529E-3,4.5535393E-2,2.0191502E-2,4.9633093E-2,-2.5518328E-2,1.1829862E-2],"split_indices":[8,0,8,0,0,2,0,0,7,0,0,5,6,8,0,0,0,4,8,0,0,4,7,0,0,0,0,0,0,0,0,0,0,0,0],"split_type":[0,0,0,0,0,0,0,0,0,0,0,0,0,0,0,0,0,0,0,0,0,0,0,0,0,0,0,0,0,0,0,0,0,0,0],"sum_hessian":[8.8448524E1,5.130222E1,3.7146305E1,3.2546818E1,1.87554E1,3.4513527E1,2.6327794E0,1.9386309E1,1.316051E1,1.389094E1,4.8644605E0,3.142306E1,3.090466E0,1.7150158E1,2.2361503E0,2.2167935E0,1.0943717E1,3.9981332E0,9.892807E0,3.0731826E0,1.7912779E0,2.7441204E1,3.981856E0,1.7709317E0,1.3195343E0,1.5834929E1,1.3152292E0,1.7938358E0,2.2042973E0,6.2628403E0,3.6299667E0,2.2894743E1,4.546462E0,2.198967E0,1.7828894E0],"tree_param":{"num_deleted":"0","num_feature":"10","num_nodes":"35","size_leaf_vector":"1"}},{"base_weights":[1.4740883E-1,4.777202E-1,-5.118954E-2,3.2767388E-1,9.0228856E-1,4.54667E-1,-1.1293397E-1,4.0615517E-1,-2.7261224E-1,5.379773E-2,2.0455058E-5,5.439147E-2,-2.5645664E-2,1.9305204E-1,-2.1569672E-1,3.216326E-1,4.6157606E-2,-1.4459161E-5,-2.140998E-2,4.990638E-2,4.275446E-2,-3.9082253E-1,-4.610834E-2,3.4901835E-2,1.0485616E-2,1.1387356E-2,-2.5757814E-2,5.5069067E-3,-2.3146769E-2,1.6337484E-2,-2.0301279E-2],"categories":[],"categories_nodes":[],"categories_segments":[],"categories_sizes":[],"default_left":[0,0,0,0,0,0,0,0,0,0,0,0,0,0,0,0,0,0,0,0,0,0,0,0,0,0,0,0,0,0,0],"id":5,"left_children":[1,3,5,7,9,11,13,15,17,-1,-1,-1,-1,19,21,23,-1,-1,-1,25,-1,27,29,-1,-1,-1,-1,-1,-1,-1,-1],"loss_changes":[5.9094734E0,1.8564391E0,1.8294686E0,1.3606365E0,1.2919035E0,4.4738183E0,1.662185E0,7.459407E-1,1.55204E-1,0E0,0E0,0E0,0E0,1.2352357E0,1.1418227E0,7.823682E-1,0E0,0E0,0E0,1.3382252E0,0E0,7.402296E-1,2.9473195E0,0E0,0E0,0E0,0E0,0E0,0E0,0E0,0E0],"parents":[2147483647,0,0,1,1,2,2,3,3,4,4,5,5,6,6,7,7,8,8,13,13,14,14,15,15,19,19,21,21,22,22],"right_children":[2,4,6,8,10,12,14,16,18,-1,-1,-1,-1,20,22,24,-1,-1,-1,26,-1,28,30,-1,-1,-1,-1,-1,-1,-1,-1],"split_conditions":[8.7894857E-1,8.2044595E-1,5.800763E-1,6.6297334E-1,8.7853897E-1,7.77502E-1,5.641159E-1,7.6369077E-1,6.295131E-1,5.379773E-2,2.0455058E-5,5.439147E-2,-2.5645664E-2,5.5572873E-1,5.7080555E-1,3.9678368E-1,4.6157606E-2,-1.4459161E-5,-2.140998E-2,9.120118E-1,4.275446E-2,8.8894844E-1,7.3179E-1,3.4901835E-2,1.0485616E-2,1.1387356E-2,-2.5757814E-2,5.5069067E-3,-2.3146769E-2,1.6337484E-2,-2.0301279E-2],"split_indices":[2,0,8,8,4,7,5,0,4,0,0,0,0,5,4,4,0,0,0,6,0,2,5,0,0,0,0,0,0,0,0],"split_type":[0,0,0,0,0,0,0,0,0,0,0,0,0,0,0,0,0,0,0,0,0,0,0,0,0,0,0,0,0,0,0],"sum_hessian":[8.871161E1,3.2782265E1,5.5929344E1,2.5531118E1,7.251147E0,5.391821E0,5.0537525E1,2.2865133E1,2.6659849E0,5.9184713E0,1.3326755E0,3.1840038E0,2.2078173E0,1.2484652E1,3.805287E1,2.1046423E1,1.8187108E0,1.3336202E0,1.3323648E0,1.1149328E1,1.3353242E0,1.807901E1,1.9973862E1,3.6234224E0,1.7423E1,8.934384E0,2.2149436E0,2.2086244E0,1.5870386E1,9.855824E0,1.0118037E1],"tree_param":{"num_deleted":"0","num_feature":"10","num_nodes":"31","size_leaf_vector":"1"}},{"base_weights":[-1.396732E-1,-2.1875918E-1,2.9920122E-1,-6.942639E-2,-4.266485E-1,6.603551E-1,-4.0845102E-1,-1.7925175E-1,6.72039E-1,-4.708655E-1,5.4693436E-3,-8.1666164E-2,5.1355917E-2,8.2490005E-4,-2.7517691E-2,1.3008098E-1,-3.3880064E-1,4.344589E-2,-4.4608396E-4,-5.94557E-1,-1.9702937E-1,1.1351309E-2,-2.09873E-2,-2.0685373E-2,2.0385252E-2,1.3926948E-2,-2.2312896E-2,-4.593603E-3,-3.1878818E-2,-3.153858E-2,3.155255E-2],"categories":[],"categories_nodes":[],"categories_segments":[],"categories_sizes":[],"default_left":[0,0,0,0,0,0,0,0,0,0,0,0,0,0,0,0,0,0,0,0,0,0,0,0,0,0,0,0,0,0,0],"id":6,"left_children":[1,3,5,7,9,11,13,15,17,19,-1,21,-1,-1,-1,23,25,-1,-1,27,29,-1,-1,-1,-1,-1,-1,-1,-1,-1,-1],"loss_changes":[3.1443467E0,2.3216949E0,3.8392076E0,3.8070316E0,7.9735327E-1,2.704496E0,3.3092314E-1,2.029116E0,8.190048E-1,8.738704E-1,0E0,5.243876E-1,0E0,0E0,0E0,2.3439364E0,1.9029498E0,0E0,0E0,3.665533E-1,4.2050853E0,0E0,0E0,0E0,0E0,0E0,0E0,0E0,0E0,0E0,0E0],"parents":[2147483647,0,0,1,1,2,2,3,3,4,4,5,5,6,6,7,7,8,8,9,9,11,11,15,15,16,16,19,19,20,20],"right_children":[2,4,6,8,10,12,14,16,18,20,-1,22,-1,-1,-1,24,26,-1,-1,28,30,-1,-1,-1,-1,-1,-1,-1,-1,-1,-1],"split_conditions":[8.9721787E-1,6.875977E-1,6.4736104E-1,6.6297334E-1,9.64897E-1,3.4629312E-1,9.791854E-1,6.9100493E-1,6.857395E-1,7.1079403E-1,5.4693436E-3,9.971318E-1,5.1355917E-2,8.2490005E-4,-2.7517691E-2,4.0319717E-1,4.6802843E-1,4.344589E-2,-4.4608396E-4,8.84635E-1,8.7530375E-1,1.1351309E-2,-2.09873E-2,-2.0685373E-2,2.0385252E-2,1.3926948E-2,-2.2312896E-2,-4.593603E-3,-3.1878818E-2,-3.153858E-2,3.155255E-2],"split_indices":[6,8,4,8,8,4,1,0,8,5,0,0,0,0,0,4,8,0,0,2,0,0,0,0,0,0,0,0,0,0,0],"split_type":[0,0,0,0,0,0,0,0,0,0,0,0,0,0,0,0,0,0,0,0,0,0,0,0,0,0,0,0,0,0,0],"sum_hessian":[8.770639E1,7.47397E1,1.2966687E1,4.4271896E1,3.0467806E1,8.629444E0,4.337243E0,3.9220787E1,5.0511103E0,2.8258377E1,2.2094274E0,3.1115692E0,5.5178747E0,1.3069937E0,3.0302496E0,1.3408717E1,2.581207E1,3.7041514E0,1.3469589E0,1.865894E1,9.599438E0,1.7981794E0,1.3133898E0,4.3662577E0,9.042459E0,3.590817E0,2.2221252E1,1.7181237E0,1.6940817E1,6.45607E0,3.1433678E0],"tree_param":{"num_deleted":"0","num_feature":"10","num_nodes":"31","size_leaf_vector":"1"}},{"base_weights":[-4.6467944E-3,-2.1083207E-1,2.751542E-1,-4.42424E-1,1.8756045E-1,3.480451E-1,-2.6362626E-2,-3.0580515E-1,-6.082845E-1,3.5427278E-1,-2.729868E-1,4.1948012E-1,-3.1197613E-1,-4.159538E-1,1.986484E-2,-1.0113797E-2,-3.3366483E-2,6.526015E-4,4.8264578E-1,-2.7566304E-2,1.1279036E-2,8.640115E-1,2.6893356E-1,-2.3530107E-2,5.622909E-4,-2.2540363E-2,7.899931E-4,2.8797913E-2,-2.5340391E-2,8.276097E-3,4.3643005E-2,1.0763514E-2,5.1219165E-2,-1.8936021E-2,1.9538611E-2],"categories":[],"categories_nodes":[],"categories_segments":[],"categories_sizes":[],"default_left":[0,0,0,0,0,0,0,0,0,0,0,0,0,0,0,0,0,0,0,0,0,0,0,0,0,0,0,0,0,0,0,0,0,0,0],"id":7,"left_children":[1,3,5,7,9,11,-1,13,15,17,19,21,23,25,-1,-1,-1,27,29,-1,-1,31,33,-1,-1,-1,-1,-1,-1,-1,-1,-1,-1,-1,-1],"loss_changes":[5.2147408E0,4.883401E0,2.4269195E0,5.6628466E-1,1.6191524E0,1.817132E0,0E0,1.730882E0,2.0025682E-1,6.803422E-1,9.3408227E-1,1.9559126E0,2.1377891E-1,2.7748036E-1,0E0,0E0,0E0,1.7501129E0,1.2166293E0,0E0,0E0,5.9310913E-1,2.1900234E0,0E0,0E0,0E0,0E0,0E0,0E0,0E0,0E0,0E0,0E0,0E0,0E0],"parents":[2147483647,0,0,1,1,2,2,3,3,4,4,5,5,7,7,8,8,9,9,10,10,11,11,12,12,13,13,17,17,18,18,21,21,22,22],"right_children":[2,4,6,8,10,12,-1,14,16,18,20,22,24,26,-1,-1,-1,28,30,-1,-1,32,34,-1,-1,-1,-1,-1,-1,-1,-1,-1,-1,-1,-1],"split_conditions":[6.9410455E-1,9.080422E-1,9.535834E-1,7.540431E-1,9.801668E-1,9.63024E-1,-2.6362626E-2,7.336132E-1,5.0725114E-1,9.153799E-1,9.9953794E-1,4.2963105E-1,9.006961E-1,5.640879E-1,1.986484E-2,-1.0113797E-2,-3.3366483E-2,6.574365E-1,6.0030335E-1,-2.7566304E-2,1.1279036E-2,7.209693E-1,3.9854053E-1,-2.3530107E-2,5.622909E-4,-2.2540363E-2,7.899931E-4,2.8797913E-2,-2.5340391E-2,8.276097E-3,4.3643005E-2,1.0763514E-2,5.1219165E-2,-1.8936021E-2,1.9538611E-2],"split_indices":[8,0,8,0,0,2,0,0,7,0,0,4,6,8,0,0,0,4,8,0,0,8,7,0,0,0,0,0,0,0,0,0,0,0,0],"split_type":[0,0,0,0,0,0,0,0,0,0,0,0,0,0,0,0,0,0,0,0,0,0,0,0,0,0,0,0,0,0,0,0,0,0,0],"sum_hessian":[8.838558E1,5.1028896E1,3.7356686E1,3.22E1,1.8828896E1,3.4764877E1,2.591805E0,1.921577E1,1.298423E1,1.3994E1,4.834895E0,3.1698547E1,3.0663326E0,1.6966227E1,2.249544E0,2.2104485E0,1.0773782E1,3.994823E0,9.999177E0,3.0348082E0,1.800087E0,6.8203535E0,2.4878193E1,1.7510207E0,1.3153118E0,1.5658092E1,1.3081346E0,1.8089933E0,2.1858299E0,6.301877E0,3.6973E0,1.8161051E0,5.004248E0,3.6052895E0,2.1272903E1],"tree_param":{"num_deleted":"0","num_feature":"10","num_nodes":"35","size_leaf_vector":"1"}},{"base_weights":[1.4241774E-1,4.5909965E-1,-4.9924064E-2,3.143175E-1,8.6665E-1,-3.7383312E-1,4.3841932E-2,3.906375E-1,-2.7229E-1,5.1521838E-2,5.294014E-5,-4.3853328E-2,-3.171799E-2,4.2276704E-1,-1.569125E-1,6.730494E-2,4.9213615E-1,-1.0492549E-4,-2.1319417E-2,-3.9222902E-1,2.9598108E-2,8.8312197E-1,9.312824E-2,5.2933615E-1,-2.4361955E-1,2.3108583E-2,-2.6114134E-2,4.5792244E-2,1.6173225E-2,-2.6918916E-2,2.5038712E-4,-7.3004153E-4,5.613317E-2,3.5573494E-2,-8.263242E-3,-2.3296296E-4,4.176083E-2,-1.7368326E-2,7.842123E-3],"categories":[],"categories_nodes":[],"categories_segments":[],"categories_sizes":[],"default_left":[0,0,0,0,0,0,0,0,0,0,0,0,0,0,0,0,0,0,0,0,0,0,0,0,0,0,0,0,0,0,0,0,0,0,0,0,0,0,0],"id":8,"left_children":[1,3,5,7,9,11,13,15,17,-1,-1,19,-1,21,23,25,27,-1,-1,29,-1,31,33,35,37,-1,-1,-1,-1,-1,-1,-1,-1,-1,-1,-1,-1,-1,-1],"loss_changes":[5.4996505E0,1.7381163E0,1.7427225E0,1.3021998E0,1.1844759E0,1.0781945E0,3.4876218E0,7.560239E-1,1.5167409E-1,0E0,0E0,1.7274034E0,0E0,2.3224602E0,1.9216831E0,1.8485682E0,1.0003839E0,0E0,0E0,2.907915E-1,0E0,1.4129386E0,1.7715884E0,6.0740817E-1,1.1942606E0,0E0,0E0,0E0,0E0,0E0,0E0,0E0,0E0,0E0,0E0,0E0,0E0,0E0,0E0],"parents":[2147483647,0,0,1,1,2,2,3,3,4,4,5,5,6,6,7,7,8,8,11,11,13,13,14,14,15,15,16,16,19,19,21,21,22,22,23,23,24,24],"right_children":[2,4,6,8,10,12,14,16,18,-1,-1,20,-1,22,24,26,28,-1,-1,30,-1,32,34,36,38,-1,-1,-1,-1,-1,-1,-1,-1,-1,-1,-1,-1,-1,-1],"split_conditions":[8.7894857E-1,8.2044595E-1,8.9406127E-1,6.6297334E-1,8.7853897E-1,8.892459E-1,9.153799E-1,6.750919E-1,6.9230646E-1,5.1521838E-2,5.294014E-5,8.877038E-1,-3.171799E-2,6.4210665E-1,2.7600604E-1,4.3495685E-1,5.704801E-1,-1.0492549E-4,-2.1319417E-2,8.9663136E-1,2.9598108E-2,5.1369506E-1,8.937903E-1,9.5016944E-1,8.755824E-1,2.3108583E-2,-2.6114134E-2,4.5792244E-2,1.6173225E-2,-2.6918916E-2,2.5038712E-4,-7.3004153E-4,5.613317E-2,3.5573494E-2,-8.263242E-3,-2.3296296E-4,4.176083E-2,-1.7368326E-2,7.842123E-3],"split_indices":[2,0,2,8,4,2,0,0,8,0,0,2,0,8,4,4,4,0,0,0,0,7,0,1,8,0,0,0,0,0,0,0,0,0,0,0,0,0,0],"split_type":[0,0,0,0,0,0,0,0,0,0,0,0,0,0,0,0,0,0,0,0,0,0,0,0,0,0,0,0,0,0,0,0,0,0,0,0,0,0,0],"sum_hessian":[8.89134E1,3.3073128E1,5.584027E1,2.5710657E1,7.3624697E0,1.1865328E1,4.397494E1,2.3046312E1,2.664345E0,6.030869E0,1.3316004E0,5.750342E0,6.1149855E0,1.48463955E1,2.9128546E1,5.903458E0,1.7142855E1,1.3358037E0,1.3285412E0,3.9623835E0,1.7879585E0,5.4943037E0,9.352093E0,2.6948774E0,2.643367E1,3.6649966E0,2.2384615E0,3.6198704E0,1.3522984E1,2.6369152E0,1.3254683E0,1.3550539E0,4.13925E0,2.2394907E0,7.1126018E0,1.3401165E0,1.3547609E0,2.1099934E1,5.333736E0],"tree_param":{"num_deleted":"0","num_feature":"10","num_nodes":"39","size_leaf_vector":"1"}},{"base_weights":[-1.3546458E-1,-2.1265624E-1,2.8842756E-1,-6.7050315E-2,-4.170552E-1,6.3510776E-1,-4.0204585E-1,-1.7429909E-1,6.465004E-1,-4.6098566E-1,5.417667E-3,-8.256612E-2,9.854557E-1,7.978698E-4,-2.7148021E-2,1.2648688E-1,-3.3091584E-1,4.1757885E-2,-5.44747E-4,-5.8421785E-1,-1.9002579E-1,1.1029656E-2,-2.0804487E-2,1.7760282E-2,5.4430004E-2,-2.031183E-2,1.9733649E-2,1.3616598E-2,-2.1867232E-2,-4.2331647E-3,-3.137449E-2,-3.1008512E-2,3.0510006E-2],"categories":[],"categories_nodes":[],"categories_segments":[],"categories_sizes":[],"default_left":[0,0,0,0,0,0,0,0,0,0,0,0,0,0,0,0,0,0,0,0,0,0,0,0,0,0,0,0,0,0,0,0,0],"id":9,"left_children":[1,3,5,7,9,11,13,15,17,19,-1,21,23,-1,-1,25,27,-1,-1,29,31,-1,-1,-1,-1,-1,-1,-1,-1,-1,-1,-1,-1],"loss_changes":[2.950301E0,2.2120638E0,3.6126919E0,3.567573E0,7.6823664E-1,2.526579E0,3.2088196E-1,1.9278058E0,7.6703286E-1,8.5427666E-1,0E0,5.0763804E-1,4.3159485E-2,0E0,0E0,2.2221382E0,1.827095E0,0E0,0E0,3.6600733E-1,3.9993813E0,0E0,0E0,0E0,0E0,0E0,0E0,0E0,0E0,0E0,0E0,0E0,0E0],"parents":[2147483647,0,0,1,1,2,2,3,3,4,4,5,5,6,6,7,7,8,8,9,9,11,11,12,12,15,15,16,16,19,19,20,20],"right_children":[2,4,6,8,10,12,14,16,18,20,-1,22,24,-1,-1,26,28,-1,-1,30,32,-1,-1,-1,-1,-1,-1,-1,-1,-1,-1,-1,-1],"split_conditions":[8.9721787E-1,6.875977E-1,6.4736104E-1,6.6297334E-1,9.64897E-1,3.4629312E-1,9.791854E-1,6.9100493E-1,6.857395E-1,7.1079403E-1,5.417667E-3,9.971318E-1,5.863357E-1,7.978698E-4,-2.7148021E-2,4.0319717E-1,4.6802843E-1,4.1757885E-2,-5.44747E-4,8.84635E-1,8.7530375E-1,1.1029656E-2,-2.0804487E-2,1.7760282E-2,5.4430004E-2,-2.031183E-2,1.9733649E-2,1.3616598E-2,-2.1867232E-2,-4.2331647E-3,-3.137449E-2,-3.1008512E-2,3.0510006E-2],"split_indices":[6,8,4,8,8,4,1,0,8,5,0,0,5,0,0,4,8,0,0,2,0,0,0,0,0,0,0,0,0,0,0,0,0],"split_type":[0,0,0,0,0,0,0,0,0,0,0,0,0,0,0,0,0,0,0,0,0,0,0,0,0,0,0,0,0,0,0,0,0],"sum_hessian":[8.729101E1,7.426544E1,1.3025572E1,4.414575E1,3.0119692E1,8.725011E0,4.3005605E0,3.903448E1,5.111267E0,2.7908796E1,2.2108953E0,3.112831E0,5.6121798E0,1.3078287E0,2.9927318E0,1.3431454E1,2.5603027E1,3.7614222E0,1.3498449E0,1.8389275E1,9.519522E0,1.8080165E0,1.3048143E0,1.4142656E0,4.197914E0,4.3251805E0,9.106273E0,3.6058626E0,2.1997164E1,1.7016035E0,1.668767E1,6.3377857E0,3.1817362E0],"tree_param":{"num_deleted":"0","num_feature":"10","num_nodes":"33","size_leaf_vector":"1"}},{"base_weights":[-5.0630486E-3,-2.0554584E-1,2.6406634E-1,-4.3237627E-1,1.7890917E-1,3.34024E-1,-2.5944877E-2,-2.9627505E-1,-5.9867144E-1,3.3844265E-1,-2.673197E-1,4.0210295E-1,-3.0441105E-1,-4.0563935E-1,1.9536732E-2,-1.0064348E-2,-3.285117E-2,1.4574175E-3,4.5919353E-1,-2.7118418E-2,1.0900551E-2,4.9098706E-1,-1.9599152E-1,-2.317086E-2,7.7380624E-4,-2.202802E-2,1.0410899E-3,2.7917607E-2,-2.4931597E-2,7.626034E-3,4.183524E-2,1.84499E-2,4.631875E-2,-2.5142455E-2,1.1034975E-2],"categories":[],"categories_nodes":[],"categories_segments":[],"categories_sizes":[],"default_left":[0,0,0,0,0,0,0,0,0,0,0,0,0,0,0,0,0,0,0,0,0,0,0,0,0,0,0,0,0,0,0,0,0,0,0],"id":10,"left_children":[1,3,5,7,9,11,-1,13,15,17,19,21,23,25,-1,-1,-1,27,29,-1,-1,31,33,-1,-1,-1,-1,-1,-1,-1,-1,-1,-1,-1,-1],"loss_changes":[4.871227E0,4.588114E0,2.2849054E0,5.6553745E-1,1.5071993E0,1.686976E0,0E0,1.6634816E0,1.8759823E-1,6.1381876E-1,8.924618E-1,1.8483777E0,2.1254906E-1,2.7381945E-1,0E0,0E0,0E0,1.6672467E0,1.1591194E0,0E0,0E0,1.1973772E0,7.476304E-1,0E0,0E0,0E0,0E0,0E0,0E0,0E0,0E0,0E0,0E0,0E0,0E0],"parents":[2147483647,0,0,1,1,2,2,3,3,4,4,5,5,7,7,8,8,9,9,10,10,11,11,12,12,13,13,17,17,18,18,21,21,22,22],"right_children":[2,4,6,8,10,12,-1,14,16,18,20,22,24,26,-1,-1,-1,28,30,-1,-1,32,34,-1,-1,-1,-1,-1,-1,-1,-1,-1,-1,-1,-1],"split_conditions":[6.9410455E-1,9.080422E-1,9.535834E-1,7.540431E-1,9.801668E-1,9.63024E-1,-2.5944877E-2,7.336132E-1,5.0725114E-1,9.153799E-1,9.9953794E-1,8.355457E-1,9.006961E-1,5.640879E-1,1.9536732E-2,-1.0064348E-2,-3.285117E-2,6.574365E-1,6.0030335E-1,-2.7118418E-2,1.0900551E-2,7.4800104E-1,8.926547E-1,-2.317086E-2,7.7380624E-4,-2.202802E-2,1.0410899E-3,2.7917607E-2,-2.4931597E-2,7.626034E-3,4.183524E-2,1.84499E-2,4.631875E-2,-2.5142455E-2,1.1034975E-2],"split_indices":[8,0,8,0,0,2,0,0,7,0,0,5,6,8,0,0,0,4,8,0,0,4,7,0,0,0,0,0,0,0,0,0,0,0,0],"split_type":[0,0,0,0,0,0,0,0,0,0,0,0,0,0,0,0,0,0,0,0,0,0,0,0,0,0,0,0,0,0,0,0,0,0,0],"sum_hessian":[8.827582E1,5.072526E1,3.755056E1,3.1824183E1,1.890108E1,3.499697E1,2.5535882E0,1.9030579E1,1.2793606E1,1.4101228E1,4.7998505E0,3.1959204E1,3.0377667E0,1.6770464E1,2.2601137E0,2.2077904E0,1.0585815E1,3.9868906E0,1.0114338E1,2.9886098E0,1.8112407E0,2.7980103E1,3.9791021E0,1.7294302E0,1.3083365E0,1.5470585E1,1.2998796E0,1.8311901E0,2.1557004E0,6.3554654E0,3.7588723E0,2.3299465E1,4.680638E0,2.1724842E0,1.8066179E0],"tree_param":{"num_deleted":"0","num_feature":"10","num_nodes":"35","size_leaf_vector":"1"}},{"base_weights":[1.3782127E-1,4.4190222E-1,-4.8627887E-2,3.0099905E-1,8.379983E-1,-3.6708018E-1,4.2922463E-2,3.751799E-1,-2.7185908E-1,4.968915E-2,1.1440217E-4,-4.418585E-2,-3.1252008E-2,4.0648985E-1,-1.5192911E-1,6.009905E-2,4.7397652E-1,-2.1669772E-4,-2.1209499E-2,4.0126142E-1,-2.684926E-2,8.4578955E-1,8.867254E-2,5.168682E-1,-2.374514E-1,2.207431E-2,-2.5816316E-2,4.4095118E-2,1.5545303E-2,-5.2970704E-3,4.100582E-2,-6.4969243E-4,5.35204E-2,3.4446843E-2,-8.22325E-3,4.083946E-2,-3.6189187E-4,-1.6976397E-2,7.6330784E-3],"categories":[],"categories_nodes":[],"categories_segments":[],"categories_sizes":[],"default_left":[0,0,0,0,0,0,0,0,0,0,0,0,0,0,0,0,0,0,0,0,0,0,0,0,0,0,0,0,0,0,0,0,0,0,0,0,0,0,0],"id":11,"left_children":[1,3,5,7,9,11,13,15,17,-1,-1,19,-1,21,23,25,27,-1,-1,29,-1,31,33,35,37,-1,-1,-1,-1,-1,-1,-1,-1,-1,-1,-1,-1,-1,-1],"loss_changes":[5.127551E0,1.6638193E0,1.6696827E0,1.244411E0,1.097528E0,1.0362126E0,3.2466478E0,7.255039E-1,1.4739415E-1,0E0,0E0,1.6968063E0,0E0,2.1532075E0,1.8385545E0,1.7508181E0,9.427657E-1,0E0,0E0,9.614554E-1,0E0,1.2836084E0,1.6901157E0,5.900181E-1,1.138261E0,0E0,0E0,0E0,0E0,0E0,0E0,0E0,0E0,0E0,0E0,0E0,0E0,0E0,0E0],"parents":[2147483647,0,0,1,1,2,2,3,3,4,4,5,5,6,6,7,7,8,8,11,11,13,13,14,14,15,15,16,16,19,19,21,21,22,22,23,23,24,24],"right_children":[2,4,6,8,10,12,14,16,18,-1,-1,20,-1,22,24,26,28,-1,-1,30,-1,32,34,36,38,-1,-1,-1,-1,-1,-1,-1,-1,-1,-1,-1,-1,-1,-1],"split_conditions":[8.7894857E-1,8.2044595E-1,8.9406127E-1,6.6297334E-1,8.7853897E-1,8.892459E-1,9.153799E-1,6.750919E-1,6.295131E-1,4.968915E-2,1.1440217E-4,7.588656E-1,-3.1252008E-2,6.4210665E-1,2.7600604E-1,4.3495685E-1,5.704801E-1,-2.1669772E-4,-2.1209499E-2,8.874415E-1,-2.684926E-2,5.1369506E-1,8.937903E-1,9.8947334E-1,8.755824E-1,2.207431E-2,-2.5816316E-2,4.4095118E-2,1.5545303E-2,-5.2970704E-3,4.100582E-2,-6.4969243E-4,5.35204E-2,3.4446843E-2,-8.22325E-3,4.083946E-2,-3.6189187E-4,-1.6976397E-2,7.6330784E-3],"split_indices":[2,0,2,8,4,2,0,0,4,0,0,8,0,8,4,4,4,0,0,2,0,7,0,0,8,0,0,0,0,0,0,0,0,0,0,0,0,0,0],"split_type":[0,0,0,0,0,0,0,0,0,0,0,0,0,0,0,0,0,0,0,0,0,0,0,0,0,0,0,0,0,0,0,0,0,0,0,0,0,0,0],"sum_hessian":[8.906093E1,3.3331047E1,5.572988E1,2.5883448E1,7.447601E0,1.1772022E1,4.395786E1,2.3221508E1,2.6619387E0,6.117997E0,1.3296037E0,5.7481823E0,6.0238395E0,1.4959413E1,2.8998447E1,5.9271226E0,1.7294386E1,1.3389362E0,1.3230026E0,3.1167057E0,2.6314769E0,5.582213E0,9.3772E0,2.715915E0,2.6282532E1,3.7079103E0,2.2192123E0,3.6801848E0,1.3614202E1,1.7475812E0,1.3691244E0,1.3526769E0,4.229536E0,2.27082E0,7.1063795E0,1.3722173E0,1.3436978E0,2.0934502E1,5.34803E0],"tree_param":{"num_deleted":"0","num_feature":"10","num_nodes":"39","size_leaf_vector":"1"}},{"base_weights":[-1.3126746E-1,-2.069837E-1,2.811078E-1,-6.471638E-2,-4.082631E-1,6.129757E-1,-3.9275223E-1,-1.6933246E-1,6.216012E-1,-4.5195565E-1,5.3745615E-3,-8.454322E-2,9.5069116E-1,8.593897E-4,-2.664963E-2,1.2312278E-1,-3.2305628E-1,4.0161356E-2,-6.8922725E-4,-5.748056E-1,-1.8352692E-1,1.061995E-2,-2.0623159E-2,1.709508E-2,5.2542236E-2,-1.994298E-2,1.911564E-2,1.3319242E-2,-2.1424076E-2,-3.8029242E-3,-3.0925607E-2,-3.0541105E-2,2.9661492E-2],"categories":[],"categories_nodes":[],"categories_segments":[],"categories_sizes":[],"default_left":[0,0,0,0,0,0,0,0,0,0,0,0,0,0,0,0,0,0,0,0,0,0,0,0,0,0,0,0,0,0,0,0,0],"id":12,"left_children":[1,3,5,7,9,11,13,15,17,19,-1,21,23,-1,-1,25,27,-1,-1,29,31,-1,-1,-1,-1,-1,-1,-1,-1,-1,-1,-1,-1],"loss_changes":[2.8005245E0,2.1149557E0,3.3825116E0,3.336344E0,7.421808E-1,2.3897185E0,3.1071234E-1,1.8306476E0,7.2268724E-1,8.365636E-1,0E0,4.884387E-1,4.8440456E-2,0E0,0E0,2.107269E0,1.7538433E0,0E0,0E0,3.6994457E-1,3.8269126E0,0E0,0E0,0E0,0E0,0E0,0E0,0E0,0E0,0E0,0E0,0E0,0E0],"parents":[2147483647,0,0,1,1,2,2,3,3,4,4,5,5,6,6,7,7,8,8,9,9,11,11,12,12,15,15,16,16,19,19,20,20],"right_children":[2,4,6,8,10,12,14,16,18,20,-1,22,24,-1,-1,26,28,-1,-1,30,32,-1,-1,-1,-1,-1,-1,-1,-1,-1,-1,-1,-1],"split_conditions":[8.9721787E-1,6.875977E-1,6.4736104E-1,6.6297334E-1,9.64897E-1,3.4629312E-1,9.791854E-1,6.9100493E-1,6.857395E-1,7.1079403E-1,5.3745615E-3,9.971318E-1,5.863357E-1,8.593897E-4,-2.664963E-2,4.0319717E-1,4.6802843E-1,4.0161356E-2,-6.8922725E-4,8.84635E-1,8.7530375E-1,1.061995E-2,-2.0623159E-2,1.709508E-2,5.2542236E-2,-1.994298E-2,1.911564E-2,1.3319242E-2,-2.1424076E-2,-3.8029242E-3,-3.0925607E-2,-3.0541105E-2,2.9661492E-2],"split_indices":[6,8,4,8,8,4,1,0,8,5,0,0,5,0,0,4,8,0,0,2,0,0,0,0,0,0,0,0,0,0,0,0,0],"split_type":[0,0,0,0,0,0,0,0,0,0,0,0,0,0,0,0,0,0,0,0,0,0,0,0,0,0,0,0,0,0,0,0,0],"sum_hessian":[8.682934E1,7.3780556E1,1.304878E1,4.4001297E1,2.977926E1,8.803511E0,4.2452703E0,3.8834923E1,5.1663733E0,2.756755E1,2.211709E0,3.116448E0,5.6870623E0,1.3057734E0,2.9394968E0,1.3448531E1,2.538639E1,3.8124287E0,1.3539445E0,1.812914E1,9.438411E0,1.8203477E0,1.2961003E0,1.4269613E0,4.2601013E0,4.2833767E0,9.165154E0,3.6199865E0,2.1766405E1,1.6814852E0,1.6447655E1,6.2267113E0,3.2116995E0],"tree_param":{"num_deleted":"0","num_feature":"10","num_nodes":"33","size_leaf_vector":"1"}},{"base_weights":[-5.600383E-3,-2.0064868E-1,2.535826E-1,-4.2272487E-1,1.70352E-1,3.2081676E-1,-2.5545985E-2,-2.8703648E-1,-5.896141E-1,3.238642E-1,-2.6324165E-1,3.858388E-1,-2.972726E-1,-3.9563656E-1,1.9216744E-2,-9.990533E-3,-3.237264E-2,-7.173735E-3,3.9829576E-1,-2.6763795E-2,1.0548131E-2,8.0369824E-1,2.434175E-1,-2.2855166E-2,1.0105761E-3,-2.153162E-2,1.2797398E-3,1.1197409E-4,2.8286522E-2,9.628098E-3,4.780549E-2,-1.9004537E-2,1.7995793E-2],"categories":[],"categories_nodes":[],"categories_segments":[],"categories_sizes":[],"default_left":[0,0,0,0,0,0,0,0,0,0,0,0,0,0,0,0,0,0,0,0,0,0,0,0,0,0,0,0,0,0,0,0,0],"id":13,"left_children":[1,3,5,7,9,11,-1,13,15,17,19,21,23,25,-1,-1,-1,-1,27,-1,-1,29,31,-1,-1,-1,-1,-1,-1,-1,-1,-1,-1],"loss_changes":[4.5559464E0,4.3074737E0,2.1535354E0,5.654764E-1,1.4139681E0,1.5692914E0,0E0,1.598904E0,1.7727852E-1,5.8555746E-1,8.574023E-1,1.7791853E0,2.1271586E-1,2.7008295E-1,0E0,0E0,0E0,0E0,8.8526034E-1,0E0,0E0,5.611057E-1,2.0386612E0,0E0,0E0,0E0,0E0,0E0,0E0,0E0,0E0,0E0,0E0],"parents":[2147483647,0,0,1,1,2,2,3,3,4,4,5,5,7,7,8,8,9,9,10,10,11,11,12,12,13,13,18,18,21,21,22,22],"right_children":[2,4,6,8,10,12,-1,14,16,18,20,22,24,26,-1,-1,-1,-1,28,-1,-1,30,32,-1,-1,-1,-1,-1,-1,-1,-1,-1,-1],"split_conditions":[6.9410455E-1,9.080422E-1,9.535834E-1,7.540431E-1,9.801668E-1,9.63024E-1,-2.5545985E-2,7.336132E-1,5.0725114E-1,5.212591E-1,9.9953794E-1,4.2963105E-1,9.006961E-1,5.640879E-1,1.9216744E-2,-9.990533E-3,-3.237264E-2,-7.173735E-3,9.153799E-1,-2.6763795E-2,1.0548131E-2,7.209693E-1,3.9854053E-1,-2.2855166E-2,1.0105761E-3,-2.153162E-2,1.2797398E-3,1.1197409E-4,2.8286522E-2,9.628098E-3,4.780549E-2,-1.9004537E-2,1.7995793E-2],"split_indices":[8,0,8,0,0,2,0,0,7,8,0,4,6,8,0,0,0,0,0,0,0,8,7,0,0,0,0,0,0,0,0,0,0],"split_type":[0,0,0,0,0,0,0,0,0,0,0,0,0,0,0,0,0,0,0,0,0,0,0,0,0,0,0,0,0,0,0,0,0],"sum_hessian":[8.811534E1,5.0407207E1,3.770813E1,3.1445137E1,1.896207E1,3.5193405E1,2.5147254E0,1.8844025E1,1.2601113E1,1.4190904E1,4.771166E0,3.2183506E1,3.0098996E0,1.6573778E1,2.270247E0,2.2037268E0,1.0397387E1,1.8221893E0,1.2368714E1,2.950043E0,1.821123E0,7.0006685E0,2.5182837E1,1.7095135E0,1.3003862E0,1.5281846E1,1.2919316E0,3.9763298E0,8.392385E0,1.8492048E0,5.1514635E0,3.6083012E0,2.1574535E1],"tree_param":{"num_deleted":"0","num_feature":"10","num_nodes":"33","size_leaf_vector":"1"}},{"base_weights":[1.3343412E-1,4.249066E-1,-4.7018297E-2,2.884153E-1,8.0765235E-1,-3.5984668E-1,4.224202E-2,3.6060086E-1,-2.713611E-1,4.7774207E-2,1.6322601E-4,-4.2996977E-2,-3.0798614E-2,3.911874E-1,-1.4680709E-1,2.8126308E-1,4.264939E-2,-2.8576163E-4,-2.1115823E-2,3.9254832E-1,-2.6523834E-2,8.117187E-1,8.44176E-2,5.036385E-1,-2.3102918E-1,3.073573E-2,9.051633E-3,-5.20876E-3,3.9932378E-2,-5.65289E-4,5.116504E-2,4.1158088E-2,-5.9223264E-3,-4.967874E-4,3.986565E-2,-1.6572425E-2,7.440686E-3],"categories":[],"categories_nodes":[],"categories_segments":[],"categories_sizes":[],"default_left":[0,0,0,0,0,0,0,0,0,0,0,0,0,0,0,0,0,0,0,0,0,0,0,0,0,0,0,0,0,0,0,0,0,0,0,0,0],"id":14,"left_children":[1,3,5,7,9,11,13,15,17,-1,-1,19,-1,21,23,25,-1,-1,-1,27,-1,29,31,33,35,-1,-1,-1,-1,-1,-1,-1,-1,-1,-1,-1,-1],"loss_changes":[4.7612467E0,1.572958E0,1.5949594E0,1.1903498E0,1.0113916E0,1.0012631E0,3.0201051E0,7.1240735E-1,1.4430952E-1,0E0,0E0,1.6384428E0,0E0,2.0025952E0,1.7519525E0,6.402761E-1,0E0,0E0,0E0,9.1675663E-1,0E0,1.170548E0,1.6559212E0,5.715818E-1,1.0837514E0,0E0,0E0,0E0,0E0,0E0,0E0,0E0,0E0,0E0,0E0,0E0,0E0],"parents":[2147483647,0,0,1,1,2,2,3,3,4,4,5,5,6,6,7,7,8,8,11,11,13,13,14,14,15,15,19,19,21,21,22,22,23,23,24,24],"right_children":[2,4,6,8,10,12,14,16,18,-1,-1,20,-1,22,24,26,-1,-1,-1,28,-1,30,32,34,36,-1,-1,-1,-1,-1,-1,-1,-1,-1,-1,-1,-1],"split_conditions":[8.7894857E-1,8.2044595E-1,8.9406127E-1,6.6297334E-1,8.7853897E-1,8.892459E-1,9.153799E-1,7.6369077E-1,6.9230646E-1,4.7774207E-2,1.6322601E-4,7.588656E-1,-3.0798614E-2,6.4210665E-1,2.7600604E-1,3.9678368E-1,4.264939E-2,-2.8576163E-4,-2.1115823E-2,8.874415E-1,-2.6523834E-2,5.1369506E-1,4.06547E-1,9.5016944E-1,8.755824E-1,3.073573E-2,9.051633E-3,-5.20876E-3,3.9932378E-2,-5.65289E-4,5.116504E-2,4.1158088E-2,-5.9223264E-3,-4.967874E-4,3.986565E-2,-1.6572425E-2,7.440686E-3],"split_indices":[2,0,2,8,4,2,0,0,8,0,0,8,0,8,4,4,0,0,0,2,0,7,4,1,8,0,0,0,0,0,0,0,0,0,0,0,0],"split_type":[0,0,0,0,0,0,0,0,0,0,0,0,0,0,0,0,0,0,0,0,0,0,0,0,0,0,0,0,0,0,0,0,0,0,0,0,0],"sum_hessian":[8.914347E1,3.3568264E1,5.5575207E1,2.6036798E1,7.5314646E0,1.1664277E1,4.391093E1,2.3377928E1,2.658871E0,6.2035294E0,1.3279355E0,5.7360983E0,5.928179E0,1.50543995E1,2.8856531E1,2.1486977E1,1.8909506E0,1.3395096E0,1.3193613E0,3.1322694E0,2.603829E0,5.655548E0,9.398851E0,2.7372115E0,2.6119318E1,3.779647E0,1.770733E1,1.7433503E0,1.3889192E0,1.3501642E0,4.3053837E0,1.3661649E0,8.032686E0,1.3472773E0,1.3899343E0,2.0758728E1,5.3605914E0],"tree_param":{"num_deleted":"0","num_feature":"10","num_nodes":"37","size_leaf_vector":"1"}},{"base_weights":[-1.2734695E-1,-2.0137702E-1,2.7222493E-1,-6.270975E-2,-3.9929312E-1,5.923391E-1,-3.867702E-1,-1.6466492E-1,5.974486E-1,-4.427789E-1,5.338121E-3,-8.527111E-2,9.1761315E-1,8.2911487E-4,-2.6306188E-2,1.1948214E-1,-3.1543797E-1,3.865747E-2,-8.737744E-4,-5.652132E-1,-1.7694572E-1,1.0325406E-2,-2.0443238E-2,1.6455878E-2,5.0747633E-2,-1.9587932E-2,1.8495997E-2,1.30168265E-2,-2.099174E-2,-3.5265533E-3,-3.0455852E-2,-3.0064056E-2,2.8765172E-2],"categories":[],"categories_nodes":[],"categories_segments":[],"categories_sizes":[],"default_left":[0,0,0,0,0,0,0,0,0,0,0,0,0,0,0,0,0,0,0,0,0,0,0,0,0,0,0,0,0,0,0,0,0],"id":15,"left_children":[1,3,5,7,9,11,13,15,17,19,-1,21,23,-1,-1,25,27,-1,-1,29,31,-1,-1,-1,-1,-1,-1,-1,-1,-1,-1,-1,-1],"loss_changes":[2.6383128E0,2.013013E0,3.1987538E0,3.117269E0,7.164388E-1,2.2536428E0,3.0142868E-1,1.7357806E0,6.8515325E-1,8.1768894E-1,0E0,4.7307098E-1,5.2838326E-2,0E0,0E0,1.9970546E0,1.6823771E0,0E0,0E0,3.6641312E-1,3.6487272E0,0E0,0E0,0E0,0E0,0E0,0E0,0E0,0E0,0E0,0E0,0E0,0E0],"parents":[2147483647,0,0,1,1,2,2,3,3,4,4,5,5,6,6,7,7,8,8,9,9,11,11,12,12,15,15,16,16,19,19,20,20],"right_children":[2,4,6,8,10,12,14,16,18,20,-1,22,24,-1,-1,26,28,-1,-1,30,32,-1,-1,-1,-1,-1,-1,-1,-1,-1,-1,-1,-1],"split_conditions":[8.9721787E-1,6.875977E-1,6.4736104E-1,6.6297334E-1,9.64897E-1,3.4629312E-1,9.791854E-1,6.9100493E-1,6.857395E-1,7.1079403E-1,5.338121E-3,9.971318E-1,5.863357E-1,8.2911487E-4,-2.6306188E-2,4.0319717E-1,4.6802843E-1,3.865747E-2,-8.737744E-4,8.84635E-1,8.7530375E-1,1.0325406E-2,-2.0443238E-2,1.6455878E-2,5.0747633E-2,-1.9587932E-2,1.8495997E-2,1.30168265E-2,-2.099174E-2,-3.5265533E-3,-3.0455852E-2,-3.0064056E-2,2.8765172E-2],"split_indices":[6,8,4,8,8,4,1,0,8,5,0,0,5,0,0,4,8,0,0,2,0,0,0,0,0,0,0,0,0,0,0,0,0],"split_type":[0,0,0,0,0,0,0,0,0,0,0,0,0,0,0,0,0,0,0,0,0,0,0,0,0,0,0,0,0,0,0,0,0],"sum_hessian":[8.633819E1,7.32609E1,1.3077284E1,4.3852844E1,2.9408058E1,8.869819E0,4.207465E0,3.863639E1,5.216455E0,2.7196114E1,2.211946E0,3.1161373E0,5.753682E0,1.3065941E0,2.9008708E0,1.3465961E1,2.5170427E1,3.8570738E0,1.3593811E0,1.7849163E1,9.346951E0,1.8288875E0,1.2872498E0,1.4384174E0,4.3152647E0,4.2420325E0,9.223929E0,3.6340444E0,2.1536383E1,1.6674806E0,1.6181683E1,6.1042814E0,3.2426686E0],"tree_param":{"num_deleted":"0","num_feature":"10","num_nodes":"33","size_leaf_vector":"1"}},{"base_weights":[-6.354576E-3,-1.9633783E-1,2.4373586E-1,-4.135537E-1,1.6133137E-1,3.0842793E-1,-2.5164818E-2,-2.7879792E-1,-5.8053625E-1,3.0842707E-1,-2.5873658E-1,3.7058255E-1,-2.9019207E-1,-3.8649583E-1,1.8838659E-2,-9.82446E-3,-3.1911846E-2,-7.346841E-3,3.8120624E-1,-2.6390806E-2,1.0208431E-2,7.7148724E-1,2.3315114E-1,-2.2544548E-2,1.2454285E-3,-2.1075575E-2,1.4649638E-3,1.4710258E-4,2.6958657E-2,9.31305E-3,4.580221E-2,-1.87623E-2,1.7290486E-2],"categories":[],"categories_nodes":[],"categories_segments":[],"categories_sizes":[],"default_left":[0,0,0,0,0,0,0,0,0,0,0,0,0,0,0,0,0,0,0,0,0,0,0,0,0,0,0,0,0,0,0,0,0],"id":16,"left_children":[1,3,5,7,9,11,-1,13,15,17,19,21,23,25,-1,-1,-1,-1,27,-1,-1,29,31,-1,-1,-1,-1,-1,-1,-1,-1,-1,-1],"loss_changes":[4.2734566E0,4.036388E0,2.0322726E0,5.59782E-1,1.3171706E0,1.460572E0,0E0,1.5345048E0,1.7149925E-1,5.626695E-1,8.224095E-1,1.6594543E0,2.1283644E-1,2.6552987E-1,0E0,0E0,0E0,0E0,8.0265653E-1,0E0,0E0,5.137248E-1,1.9319956E0,0E0,0E0,0E0,0E0,0E0,0E0,0E0,0E0,0E0,0E0],"parents":[2147483647,0,0,1,1,2,2,3,3,4,4,5,5,7,7,8,8,9,9,10,10,11,11,12,12,13,13,18,18,21,21,22,22],"right_children":[2,4,6,8,10,12,-1,14,16,18,20,22,24,26,-1,-1,-1,-1,28,-1,-1,30,32,-1,-1,-1,-1,-1,-1,-1,-1,-1,-1],"split_conditions":[6.9410455E-1,9.080422E-1,9.535834E-1,7.540431E-1,9.801668E-1,9.63024E-1,-2.5164818E-2,7.336132E-1,5.0725114E-1,5.212591E-1,9.9953794E-1,4.2963105E-1,9.006961E-1,5.640879E-1,1.8838659E-2,-9.82446E-3,-3.1911846E-2,-7.346841E-3,9.153799E-1,-2.6390806E-2,1.0208431E-2,7.209693E-1,3.9854053E-1,-2.2544548E-2,1.2454285E-3,-2.1075575E-2,1.4649638E-3,1.4710258E-4,2.6958657E-2,9.31305E-3,4.580221E-2,-1.87623E-2,1.7290486E-2],"split_indices":[8,0,8,0,0,2,0,0,7,8,0,4,6,8,0,0,0,0,0,0,0,8,7,0,0,0,0,0,0,0,0,0,0],"split_type":[0,0,0,0,0,0,0,0,0,0,0,0,0,0,0,0,0,0,0,0,0,0,0,0,0,0,0,0,0,0,0,0,0],"sum_hessian":[8.793571E1,5.009532E1,3.784039E1,3.106998E1,1.902534E1,3.5364956E1,2.4754322E0,1.8671558E1,1.2398422E1,1.4287898E1,4.737441E0,3.238352E1,2.9814384E0,1.6389517E1,2.2820423E0,2.19489E0,1.0203532E1,1.8284888E0,1.2459409E1,2.9072673E0,1.830174E0,7.0893574E0,2.5294163E1,1.6890786E0,1.2923598E0,1.5103819E1,1.2856972E0,3.970458E0,8.488951E0,1.8575838E0,5.2317734E0,3.5878184E0,2.1706345E1],"tree_param":{"num_deleted":"0","num_feature":"10","num_nodes":"33","size_leaf_vector":"1"}},{"base_weights":[1.2961897E-1,4.102451E-1,-4.5603495E-2,4.5589653E-1,-2.1208605E-2,-3.5348684E-1,4.1629426E-2,3.115894E-1,4.325163E-2,-4.2811852E-2,-3.037543E-2,3.7725192E-1,-1.4197333E-1,3.6671162E-1,-2.0939205E-2,3.8319358E-1,-2.6230026E-2,7.8053623E-1,8.0945045E-2,4.93233E-1,-2.2511783E-1,1.2020364E-2,3.772871E-2,-5.1051094E-3,3.8784176E-2,-6.9260405E-4,4.9183283E-2,3.311693E-2,-8.302378E-3,3.9128613E-2,-6.1912823E-4,-1.6197553E-2,7.2563402E-3],"categories":[],"categories_nodes":[],"categories_segments":[],"categories_sizes":[],"default_left":[0,0,0,0,0,0,0,0,0,0,0,0,0,0,0,0,0,0,0,0,0,0,0,0,0,0,0,0,0,0,0,0,0],"id":17,"left_children":[1,3,5,7,-1,9,11,13,-1,15,-1,17,19,21,-1,23,-1,25,27,29,31,-1,-1,-1,-1,-1,-1,-1,-1,-1,-1,-1,-1],"loss_changes":[4.452418E0,1.5174389E0,1.5296998E0,1.7046967E0,0E0,9.651269E-1,2.817215E0,1.2116957E0,0E0,1.5813617E0,0E0,1.8645847E0,1.6804862E0,1.0418983E0,0E0,8.691286E-1,0E0,1.0975204E0,1.6056279E0,5.5871683E-1,1.033683E0,0E0,0E0,0E0,0E0,0E0,0E0,0E0,0E0,0E0,0E0,0E0,0E0],"parents":[2147483647,0,0,1,1,2,2,3,3,5,5,6,6,7,7,9,9,11,11,12,12,13,13,15,15,17,17,18,18,19,19,20,20],"right_children":[2,4,6,8,-1,10,12,14,-1,16,-1,18,20,22,-1,24,-1,26,28,30,32,-1,-1,-1,-1,-1,-1,-1,-1,-1,-1,-1,-1],"split_conditions":[8.7894857E-1,9.2492133E-1,8.9406127E-1,8.2044595E-1,-2.1208605E-2,8.892459E-1,9.153799E-1,6.9230646E-1,4.325163E-2,7.588656E-1,-3.037543E-2,6.4210665E-1,2.7600604E-1,7.5662315E-1,-2.0939205E-2,8.874415E-1,-2.6230026E-2,5.1369506E-1,8.937903E-1,9.8947334E-1,8.755824E-1,1.2020364E-2,3.772871E-2,-5.1051094E-3,3.8784176E-2,-6.9260405E-4,4.9183283E-2,3.311693E-2,-8.302378E-3,3.9128613E-2,-6.1912823E-4,-1.6197553E-2,7.2563402E-3],"split_indices":[2,4,2,0,0,2,0,8,0,8,0,8,4,7,0,2,0,7,0,0,8,0,0,0,0,0,0,0,0,0,0,0,0],"split_type":[0,0,0,0,0,0,0,0,0,0,0,0,0,0,0,0,0,0,0,0,0,0,0,0,0,0,0,0,0,0,0,0,0],"sum_hessian":[8.916735E1,3.375924E1,5.540811E1,3.2438164E1,1.321075E0,1.1559022E1,4.384909E1,2.5282356E1,7.155807E0,5.7253327E0,5.833689E0,1.5132479E1,2.8716614E1,2.3971136E1,1.3112199E0,3.1471844E0,2.5781484E0,5.7170935E0,9.415385E0,2.7528887E0,2.5963724E1,1.9304579E1,4.666557E0,1.7380391E0,1.4091454E0,1.3539481E0,4.3631454E0,2.3059106E0,7.1094747E0,1.4025284E0,1.3503604E0,2.0591942E1,5.371783E0],"tree_param":{"num_deleted":"0","num_feature":"10","num_nodes":"33","size_leaf_vector":"1"}},{"base_weights":[-1.23409905E-1,-1.9570589E-1,2.633411E-1,-6.0104E-2,-3.9086765E-1,5.7229304E-1,-3.8097095E-1,-1.5966262E-1,5.7707053E-1,-4.341613E-1,5.289164E-3,-8.709883E-2,8.870053E-1,7.984549E-4,-2.5973728E-2,1.159019E-1,-3.0740133E-1,3.732039E-2,-9.1932074E-4,-5.562979E-1,-1.7046411E-1,9.942081E-3,-2.0264907E-2,1.5841192E-2,4.9098976E-2,-1.9344851E-2,1.7991519E-2,1.2662383E-2,-2.0530013E-2,-3.27998E-3,-3.0020067E-2,-2.9602055E-2,2.7916333E-2],"categories":[],"categories_nodes":[],"categories_segments":[],"categories_sizes":[],"default_left":[0,0,0,0,0,0,0,0,0,0,0,0,0,0,0,0,0,0,0,0,0,0,0,0,0,0,0,0,0,0,0,0,0],"id":18,"left_children":[1,3,5,7,9,11,13,15,17,19,-1,21,23,-1,-1,25,27,-1,-1,29,31,-1,-1,-1,-1,-1,-1,-1,-1,-1,-1,-1,-1],"loss_changes":[2.4786935E0,1.9271603E0,3.024317E0,2.9259868E0,6.917653E-1,2.1375523E0,2.9249537E-1,1.6404322E0,6.442869E-1,8.0130005E-1,0E0,4.5528767E-1,5.76663E-2,0E0,0E0,1.9156283E0,1.604538E0,0E0,0E0,3.6259174E-1,3.4796376E0,0E0,0E0,0E0,0E0,0E0,0E0,0E0,0E0,0E0,0E0,0E0,0E0],"parents":[2147483647,0,0,1,1,2,2,3,3,4,4,5,5,6,6,7,7,8,8,9,9,11,11,12,12,15,15,16,16,19,19,20,20],"right_children":[2,4,6,8,10,12,14,16,18,20,-1,22,24,-1,-1,26,28,-1,-1,30,32,-1,-1,-1,-1,-1,-1,-1,-1,-1,-1,-1,-1],"split_conditions":[8.9721787E-1,6.875977E-1,6.4736104E-1,6.6297334E-1,9.64897E-1,3.4629312E-1,9.791854E-1,6.9100493E-1,6.857395E-1,7.1079403E-1,5.289164E-3,9.971318E-1,5.863357E-1,7.984549E-4,-2.5973728E-2,4.0319717E-1,4.6802843E-1,3.732039E-2,-9.1932074E-4,8.84635E-1,8.7530375E-1,9.942081E-3,-2.0264907E-2,1.5841192E-2,4.9098976E-2,-1.9344851E-2,1.7991519E-2,1.2662383E-2,-2.0530013E-2,-3.27998E-3,-3.0020067E-2,-2.9602055E-2,2.7916333E-2],"split_indices":[6,8,4,8,8,4,1,0,8,5,0,0,5,0,0,4,8,0,0,2,0,0,0,0,0,0,0,0,0,0,0,0,0],"split_type":[0,0,0,0,0,0,0,0,0,0,0,0,0,0,0,0,0,0,0,0,0,0,0,0,0,0,0,0,0,0,0,0,0],"sum_hessian":[8.580646E1,7.270885E1,1.3097608E1,4.3672432E1,2.9036419E1,8.928236E0,4.1693716E0,3.8418896E1,5.2535367E0,2.6823963E1,2.2124553E0,3.1181872E0,5.8100486E0,1.3073415E0,2.8620305E0,1.3483938E1,2.4934956E1,3.8929482E0,1.3605887E0,1.7574415E1,9.249548E0,1.8399097E0,1.2782774E0,1.4486874E0,4.3613615E0,4.2132483E0,9.27069E0,3.650252E0,2.1284704E1,1.6544365E0,1.5919979E1,5.9787273E0,3.2708209E0],"tree_param":{"num_deleted":"0","num_feature":"10","num_nodes":"33","size_leaf_vector":"1"}},{"base_weights":[-6.920176E-3,-1.9191729E-1,2.343513E-1,-4.0428275E-1,1.5273209E-1,2.966972E-1,-2.480712E-2,-2.7012926E-1,-5.718257E-1,2.9414594E-1,-2.5496897E-1,3.5615584E-1,-2.8317103E-1,-3.7700763E-1,1.8508567E-2,-9.744361E-3,-3.145781E-2,-7.5114765E-3,3.6546594E-1,-2.6059896E-2,9.88047E-3,4.3695408E-1,-1.963568E-1,-2.2238811E-2,1.4778766E-3,-2.0609109E-2,1.7248659E-3,1.077839E-2,4.202117E-2,1.610877E-2,4.2528268E-2,-2.4835039E-2,1.0422835E-2],"categories":[],"categories_nodes":[],"categories_segments":[],"categories_sizes":[],"default_left":[0,0,0,0,0,0,0,0,0,0,0,0,0,0,0,0,0,0,0,0,0,0,0,0,0,0,0,0,0,0,0,0,0],"id":19,"left_children":[1,3,5,7,9,11,-1,13,15,17,19,21,23,25,-1,-1,-1,-1,27,-1,-1,29,31,-1,-1,-1,-1,-1,-1,-1,-1,-1,-1],"loss_changes":[4.004052E0,3.7765589E0,1.9208989E0,5.575495E-1,1.23249E0,1.3596003E0,0E0,1.4731683E0,1.624403E-1,5.420352E-1,7.9049903E-1,1.5838103E0,2.128973E-1,2.631135E-1,0E0,0E0,0E0,0E0,7.8253007E-1,0E0,0E0,1.1304812E0,7.079382E-1,0E0,0E0,0E0,0E0,0E0,0E0,0E0,0E0,0E0,0E0],"parents":[2147483647,0,0,1,1,2,2,3,3,4,4,5,5,7,7,8,8,9,9,10,10,11,11,12,12,13,13,18,18,21,21,22,22],"right_children":[2,4,6,8,10,12,-1,14,16,18,20,22,24,26,-1,-1,-1,-1,28,-1,-1,30,32,-1,-1,-1,-1,-1,-1,-1,-1,-1,-1],"split_conditions":[6.9410455E-1,9.080422E-1,9.535834E-1,7.540431E-1,9.801668E-1,9.63024E-1,-2.480712E-2,7.336132E-1,5.0725114E-1,5.212591E-1,9.9953794E-1,8.355457E-1,9.006961E-1,5.640879E-1,1.8508567E-2,-9.744361E-3,-3.145781E-2,-7.5114765E-3,9.225744E-1,-2.6059896E-2,9.88047E-3,7.4800104E-1,8.1515E-1,-2.2238811E-2,1.4778766E-3,-2.0609109E-2,1.7248659E-3,1.077839E-2,4.202117E-2,1.610877E-2,4.2528268E-2,-2.4835039E-2,1.0422835E-2],"split_indices":[8,0,8,0,0,2,0,0,7,8,0,5,6,8,0,0,0,0,0,0,0,4,4,0,0,0,0,0,0,0,0,0,0],"split_type":[0,0,0,0,0,0,0,0,0,0,0,0,0,0,0,0,0,0,0,0,0,0,0,0,0,0,0,0,0,0,0,0,0],"sum_hessian":[8.769985E1,4.975461E1,3.7945244E1,3.067829E1,1.907632E1,3.5508514E1,2.4367278E0,1.848747E1,1.2190819E1,1.4370382E1,4.7059383E0,3.2556072E1,2.9524422E0,1.6195358E1,2.2921116E0,2.1901712E0,1.0000648E1,1.834389E0,1.2535993E1,2.867509E0,1.8384295E0,2.8585014E1,3.9710588E0,1.6681614E0,1.2842808E0,1.491851E1,1.2768474E0,1.0633799E1,1.9021946E0,2.3768185E1,4.8168287E0,2.1493795E0,1.8216794E0],"tree_param":{"num_deleted":"0","num_feature":"10","num_nodes":"33","size_leaf_vector":"1"}},{"base_weights":[1.2561743E-1,3.9535707E-1,-4.430163E-2,2.6543552E-1,7.595563E-1,-3.473984E-1,4.097271E-2,3.340412E-1,-2.7050272E-1,4.488557E-2,6.538503E-6,-4.261754E-2,-2.9970592E-2,3.638219E-1,-1.3723563E-1,2.9866114E-2,4.3081722E-1,-4.4593314E-4,-2.0937415E-2,3.7424237E-1,-2.5940765E-2,7.5177205E-1,7.7239275E-2,4.8330438E-1,-2.1931925E-1,1.9381162E-2,-2.573781E-2,4.1253842E-2,1.3754012E-2,-5.0031077E-3,3.770272E-2,-8.1345293E-4,4.7376167E-2,3.9661333E-2,-6.0483958E-3,3.8300794E-2,-6.423174E-4,-1.582974E-2,7.0805745E-3],"categories":[],"categories_nodes":[],"categories_segments":[],"categories_sizes":[],"default_left":[0,0,0,0,0,0,0,0,0,0,0,0,0,0,0,0,0,0,0,0,0,0,0,0,0,0,0,0,0,0,0,0,0,0,0,0,0,0,0],"id":20,"left_children":[1,3,5,7,9,11,13,15,17,-1,-1,19,-1,21,23,25,27,-1,-1,29,-1,31,33,35,37,-1,-1,-1,-1,-1,-1,-1,-1,-1,-1,-1,-1,-1,-1],"loss_changes":[4.1502395E0,1.4520612E0,1.4672856E0,1.0940115E0,9.076395E-1,9.306799E-1,2.6257088E0,7.126436E-1,1.3781765E-1,0E0,0E0,1.526414E0,0E0,1.7426865E0,1.6123133E0,1.5679643E0,9.165082E-1,0E0,0E0,8.2478464E-1,0E0,1.0327806E0,1.5761024E0,5.382206E-1,9.85973E-1,0E0,0E0,0E0,0E0,0E0,0E0,0E0,0E0,0E0,0E0,0E0,0E0,0E0,0E0],"parents":[2147483647,0,0,1,1,2,2,3,3,4,4,5,5,6,6,7,7,8,8,11,11,13,13,14,14,15,15,16,16,19,19,21,21,22,22,23,23,24,24],"right_children":[2,4,6,8,10,12,14,16,18,-1,-1,20,-1,22,24,26,28,-1,-1,30,-1,32,34,36,38,-1,-1,-1,-1,-1,-1,-1,-1,-1,-1,-1,-1,-1,-1],"split_conditions":[8.7894857E-1,8.2044595E-1,8.9406127E-1,6.6297334E-1,8.7853897E-1,8.892459E-1,9.153799E-1,6.750919E-1,6.295131E-1,4.488557E-2,6.538503E-6,7.588656E-1,-2.9970592E-2,6.4210665E-1,2.7600604E-1,4.3495685E-1,5.704801E-1,-4.4593314E-4,-2.0937415E-2,8.874415E-1,-2.5940765E-2,5.1369506E-1,4.06547E-1,9.8947334E-1,8.755824E-1,1.9381162E-2,-2.573781E-2,4.1253842E-2,1.3754012E-2,-5.0031077E-3,3.770272E-2,-8.1345293E-4,4.7376167E-2,3.9661333E-2,-6.0483958E-3,3.8300794E-2,-6.423174E-4,-1.582974E-2,7.0805745E-3],"split_indices":[2,0,2,8,4,2,0,0,4,0,0,8,0,8,4,4,4,0,0,2,0,7,4,0,8,0,0,0,0,0,0,0,0,0,0,0,0,0,0],"split_type":[0,0,0,0,0,0,0,0,0,0,0,0,0,0,0,0,0,0,0,0,0,0,0,0,0,0,0,0,0,0,0,0,0,0,0,0,0,0,0],"sum_hessian":[8.91674E1,3.394861E1,5.5218784E1,2.629659E1,7.6520195E0,1.1449413E1,4.376937E1,2.3646328E1,2.6502612E0,6.3201604E0,1.3318591E0,5.7113323E0,5.738081E0,1.5196766E1,2.8572605E1,6.023277E0,1.7623053E1,1.3421522E0,1.3081089E0,3.1595712E0,2.5517614E0,5.766865E0,9.429901E0,2.7669463E0,2.5805658E1,3.8092735E0,2.214003E0,3.7731533E0,1.3849898E1,1.7325422E0,1.4270289E0,1.3575057E0,4.409359E0,1.3936361E0,8.036264E0,1.4161135E0,1.3508329E0,2.042397E1,5.381689E0],"tree_param":{"num_deleted":"0","num_feature":"10","num_nodes":"39","size_leaf_vector":"1"}},{"base_weights":[-1.1975189E-1,-1.9066945E-1,2.5708896E-1,-5.824806E-2,-3.8283357E-1,5.5394953E-1,-3.7239352E-1,-1.5512696E-1,5.5465156E-1,-4.25985E-1,5.2669253E-3,-8.885004E-2,8.594046E-1,8.515903E-4,-2.55204E-2,1.13102764E-1,-3.0020213E-1,3.598051E-2,-1.1455454E-3,-5.4770553E-1,-1.6472735E-1,9.572278E-3,-2.0088218E-2,1.5249498E-2,4.763203E-2,-1.8986836E-2,1.7453944E-2,1.2398984E-2,-2.012307E-2,-2.901099E-3,-2.9613761E-2,-2.9199654E-2,2.7206028E-2],"categories":[],"categories_nodes":[],"categories_segments":[],"categories_sizes":[],"default_left":[0,0,0,0,0,0,0,0,0,0,0,0,0,0,0,0,0,0,0,0,0,0,0,0,0,0,0,0,0,0,0,0,0],"id":21,"left_children":[1,3,5,7,9,11,13,15,17,19,-1,21,23,-1,-1,25,27,-1,-1,29,31,-1,-1,-1,-1,-1,-1,-1,-1,-1,-1,-1,-1],"loss_changes":[2.3541846E0,1.839601E0,2.8387775E0,2.728173E0,6.6990757E-1,2.03489E0,2.8347194E-1,1.5595729E0,6.1596036E-1,7.8301E-1,0E0,4.3822634E-1,6.382084E-2,0E0,0E0,1.8174812E0,1.5414388E0,0E0,0E0,3.6508226E-1,3.3365452E0,0E0,0E0,0E0,0E0,0E0,0E0,0E0,0E0,0E0,0E0,0E0,0E0],"parents":[2147483647,0,0,1,1,2,2,3,3,4,4,5,5,6,6,7,7,8,8,9,9,11,11,12,12,15,15,16,16,19,19,20,20],"right_children":[2,4,6,8,10,12,14,16,18,20,-1,22,24,-1,-1,26,28,-1,-1,30,32,-1,-1,-1,-1,-1,-1,-1,-1,-1,-1,-1,-1],"split_conditions":[8.9721787E-1,6.875977E-1,6.4736104E-1,6.6297334E-1,9.64897E-1,3.4629312E-1,9.791854E-1,6.9100493E-1,6.857395E-1,7.1079403E-1,5.2669253E-3,9.971318E-1,5.863357E-1,8.515903E-4,-2.55204E-2,4.0319717E-1,4.6802843E-1,3.598051E-2,-1.1455454E-3,8.84635E-1,8.7530375E-1,9.572278E-3,-2.0088218E-2,1.5249498E-2,4.763203E-2,-1.8986836E-2,1.7453944E-2,1.2398984E-2,-2.012307E-2,-2.901099E-3,-2.9613761E-2,-2.9199654E-2,2.7206028E-2],"split_indices":[6,8,4,8,8,4,1,0,8,5,0,0,5,0,0,4,8,0,0,2,0,0,0,0,0,0,0,0,0,0,0,0,0],"split_type":[0,0,0,0,0,0,0,0,0,0,0,0,0,0,0,0,0,0,0,0,0,0,0,0,0,0,0,0,0,0,0,0,0],"sum_hessian":[8.52562E1,7.216881E1,1.3087393E1,4.3497528E1,2.867128E1,8.97488E0,4.112513E0,3.820543E1,5.2921014E0,2.6459784E1,2.2114968E0,3.1194446E0,5.8554354E0,1.3054929E0,2.8070202E0,1.3487939E1,2.471749E1,3.9251025E0,1.3669989E0,1.7302223E1,9.157561E0,1.8502517E0,1.2691929E0,1.457828E0,4.3976073E0,4.169876E0,9.318063E0,3.6619334E0,2.1055555E1,1.635454E0,1.5666768E1,5.864811E0,3.2927504E0],"tree_param":{"num_deleted":"0","num_feature":"10","num_nodes":"33","size_leaf_vector":"1"}},{"base_weights":[-7.405787E-3,-1.87622E-1,2.2563094E-1,-3.9555484E-1,1.4523223E-1,2.8576782E-1,-2.4455687E-2,-2.6165086E-1,-5.639846E-1,2.8152588E-1,-2.5134203E-1,3.4271228E-1,-2.7621928E-1,-3.6778826E-1,1.82114E-2,-9.571867E-3,-3.1069864E-2,1.0620664E-1,4.9681735E-1,-2.5739525E-2,9.5636835E-3,7.231381E-1,2.1187268E-1,-2.1938378E-2,1.707638E-3,-2.0152256E-2,1.9292192E-3,1.6049543E-2,-2.610068E-2,4.5010213E-2,-2.7920294E-3,8.464393E-3,4.303996E-2,-1.8801648E-2,1.6015781E-2],"categories":[],"categories_nodes":[],"categories_segments":[],"categories_sizes":[],"default_left":[0,0,0,0,0,0,0,0,0,0,0,0,0,0,0,0,0,0,0,0,0,0,0,0,0,0,0,0,0,0,0,0,0,0,0],"id":22,"left_children":[1,3,5,7,9,11,-1,13,15,17,19,21,23,25,-1,-1,-1,27,29,-1,-1,31,33,-1,-1,-1,-1,-1,-1,-1,-1,-1,-1,-1,-1],"loss_changes":[3.7561455E0,3.546572E0,1.8168561E0,5.582986E-1,1.1579924E0,1.266608E0,0E0,1.4161237E0,1.5901756E-1,5.3008425E-1,7.600024E-1,1.5240922E0,2.1290237E-1,2.5912142E-1,0E0,0E0,0E0,1.4875914E0,1.5347773E0,0E0,0E0,4.8018694E-1,1.8092078E0,0E0,0E0,0E0,0E0,0E0,0E0,0E0,0E0,0E0,0E0,0E0,0E0],"parents":[2147483647,0,0,1,1,2,2,3,3,4,4,5,5,7,7,8,8,9,9,10,10,11,11,12,12,13,13,17,17,18,18,21,21,22,22],"right_children":[2,4,6,8,10,12,-1,14,16,18,20,22,24,26,-1,-1,-1,28,30,-1,-1,32,34,-1,-1,-1,-1,-1,-1,-1,-1,-1,-1,-1,-1],"split_conditions":[6.9410455E-1,9.080422E-1,9.535834E-1,7.540431E-1,9.801668E-1,9.63024E-1,-2.4455687E-2,7.336132E-1,5.0725114E-1,6.0030335E-1,9.9953794E-1,4.2963105E-1,9.006961E-1,5.640879E-1,1.82114E-2,-9.571867E-3,-3.1069864E-2,5.873405E-1,6.574365E-1,-2.5739525E-2,9.5636835E-3,7.209693E-1,3.9854053E-1,-2.1938378E-2,1.707638E-3,-2.0152256E-2,1.9292192E-3,1.6049543E-2,-2.610068E-2,4.5010213E-2,-2.7920294E-3,8.464393E-3,4.303996E-2,-1.8801648E-2,1.6015781E-2],"split_indices":[8,0,8,0,0,2,0,0,7,8,0,4,6,8,0,0,0,8,4,0,0,8,7,0,0,0,0,0,0,0,0,0,0,0,0],"split_type":[0,0,0,0,0,0,0,0,0,0,0,0,0,0,0,0,0,0,0,0,0,0,0,0,0,0,0,0,0,0,0,0,0,0,0],"sum_hessian":[8.743042E1,4.941263E1,3.801779E1,3.029751E1,1.9115116E1,3.562092E1,2.3968768E0,1.8301245E1,1.1996266E1,1.44418745E1,4.673242E0,3.2697914E1,2.9230027E0,1.6000263E1,2.3009808E0,2.180639E0,9.815627E0,8.782941E0,5.658934E0,2.8273287E0,1.8459133E0,7.2093344E0,2.5488579E1,1.6468372E0,1.2761654E0,1.4730439E1,1.2698239E0,6.9096317E0,1.8733089E0,2.9077177E0,2.7512167E0,1.8790631E0,5.3302712E0,3.5850816E0,2.1903498E1],"tree_param":{"num_deleted":"0","num_feature":"10","num_nodes":"35","size_leaf_vector":"1"}},{"base_weights":[1.2190618E-1,3.8100883E-1,-4.2690527E-2,4.2412922E-1,-2.086119E-2,-3.4098312E-1,4.06044E-2,2.8743565E-1,4.05665E-2,-4.138813E-2,-2.9577503E-2,3.5225242E-1,-1.327754E-1,3.4004992E-1,-2.072159E-2,3.6663893E-1,-2.5629137E-2,7.269757E-1,7.4376844E-2,4.7188276E-1,-2.1361901E-1,1.0999075E-2,3.540162E-2,-4.914072E-3,3.680197E-2,-8.4206363E-4,4.578422E-2,3.1910475E-2,-8.34203E-3,-8.272499E-4,3.7571438E-2,2.0679599E-2,-1.3171854E-2],"categories":[],"categories_nodes":[],"categories_segments":[],"categories_sizes":[],"default_left":[0,0,0,0,0,0,0,0,0,0,0,0,0,0,0,0,0,0,0,0,0,0,0,0,0,0,0,0,0,0,0,0,0],"id":23,"left_children":[1,3,5,7,-1,9,11,13,-1,15,-1,17,19,21,-1,23,-1,25,27,29,31,-1,-1,-1,-1,-1,-1,-1,-1,-1,-1,-1,-1],"loss_changes":[3.858973E0,1.3852377E0,1.4052387E0,1.5557947E0,0E0,9.0114295E-1,2.4604294E0,1.1206393E0,0E0,1.4743483E0,0E0,1.6371036E0,1.5393323E0,9.58956E-1,0E0,7.8830665E-1,0E0,9.70134E-1,1.5263696E0,5.2884495E-1,9.4154716E-1,0E0,0E0,0E0,0E0,0E0,0E0,0E0,0E0,0E0,0E0,0E0,0E0],"parents":[2147483647,0,0,1,1,2,2,3,3,5,5,6,6,7,7,9,9,11,11,12,12,13,13,15,15,17,17,18,18,19,19,20,20],"right_children":[2,4,6,8,-1,10,12,14,-1,16,-1,18,20,22,-1,24,-1,26,28,30,32,-1,-1,-1,-1,-1,-1,-1,-1,-1,-1,-1,-1],"split_conditions":[8.7894857E-1,9.2492133E-1,8.9406127E-1,8.2044595E-1,-2.086119E-2,8.892459E-1,9.153799E-1,6.9230646E-1,4.05665E-2,7.588656E-1,-2.9577503E-2,6.4210665E-1,2.7600604E-1,7.5662315E-1,-2.072159E-2,8.874415E-1,-2.5629137E-2,5.1369506E-1,8.937903E-1,9.5016944E-1,5.17248E-1,1.0999075E-2,3.540162E-2,-4.914072E-3,3.680197E-2,-8.4206363E-4,4.578422E-2,3.1910475E-2,-8.34203E-3,-8.272499E-4,3.7571438E-2,2.0679599E-2,-1.3171854E-2],"split_indices":[2,4,2,0,0,2,0,8,0,8,0,8,4,7,0,2,0,7,0,1,8,0,0,0,0,0,0,0,0,0,0,0,0],"split_type":[0,0,0,0,0,0,0,0,0,0,0,0,0,0,0,0,0,0,0,0,0,0,0,0,0,0,0,0,0,0,0,0,0],"sum_hessian":[8.910406E1,3.410395E1,5.5000103E1,3.2800728E1,1.3032244E0,1.1330406E1,4.3669697E1,2.5530155E1,7.2705708E0,5.6910152E0,5.6393905E0,1.524154E1,2.8428158E1,2.4229351E1,1.3008038E0,3.1688612E0,2.522154E0,5.801652E0,9.439888E0,2.7821896E0,2.564597E1,1.9473257E1,4.756094E0,1.7279897E0,1.4408715E0,1.358343E0,4.443309E0,2.3353498E0,7.1045384E0,1.3551906E0,1.426999E0,1.3498077E0,2.4296162E1],"tree_param":{"num_deleted":"0","num_feature":"10","num_nodes":"33","size_leaf_vector":"1"}},{"base_weights":[-1.161813E-1,-1.8546833E-1,2.4910246E-1,-5.562166E-2,-3.7538204E-1,5.370096E-1,-3.6751518E-1,-1.5019768E-1,5.367245E-1,-4.183361E-1,5.187102E-3,-8.914213E-2,8.330127E-1,7.836555E-4,-2.522792E-2,1.0986057E-1,-2.9232728E-1,6.963722E-1,-1.1801001E-3,-5.397861E-1,-1.5888467E-1,9.319165E-3,-1.990344E-2,1.4665323E-2,4.6207305E-2,-1.8748615E-2,1.6992716E-2,1.2067474E-2,-1.9670604E-2,1.3476381E-2,4.0041372E-2,-2.6804262E-3,-2.9229576E-2,-2.8783793E-2,2.6439486E-2],"categories":[],"categories_nodes":[],"categories_segments":[],"categories_sizes":[],"default_left":[0,0,0,0,0,0,0,0,0,0,0,0,0,0,0,0,0,0,0,0,0,0,0,0,0,0,0,0,0,0,0,0,0,0,0],"id":24,"left_children":[1,3,5,7,9,11,13,15,17,19,-1,21,23,-1,-1,25,27,29,-1,31,33,-1,-1,-1,-1,-1,-1,-1,-1,-1,-1,-1,-1,-1,-1],"loss_changes":[2.2147484E0,1.7692592E0,2.6983202E0,2.5617743E0,6.464968E-1,1.9295213E0,2.7455735E-1,1.4726263E0,5.814707E-1,7.679224E-1,0E0,4.2457122E-1,6.799984E-2,0E0,0E0,1.7442513E0,1.4691486E0,4.794121E-3,0E0,3.615632E-1,3.1864727E0,0E0,0E0,0E0,0E0,0E0,0E0,0E0,0E0,0E0,0E0,0E0,0E0,0E0,0E0],"parents":[2147483647,0,0,1,1,2,2,3,3,4,4,5,5,6,6,7,7,8,8,9,9,11,11,12,12,15,15,16,16,17,17,19,19,20,20],"right_children":[2,4,6,8,10,12,14,16,18,20,-1,22,24,-1,-1,26,28,30,-1,32,34,-1,-1,-1,-1,-1,-1,-1,-1,-1,-1,-1,-1,-1,-1],"split_conditions":[8.9721787E-1,6.875977E-1,6.4736104E-1,6.6297334E-1,9.64897E-1,3.4629312E-1,9.791854E-1,6.9100493E-1,6.857395E-1,7.1079403E-1,5.187102E-3,9.971318E-1,9.006961E-1,7.836555E-4,-2.522792E-2,4.0319717E-1,4.6802843E-1,8.671074E-1,-1.1801001E-3,8.84635E-1,8.7530375E-1,9.319165E-3,-1.990344E-2,1.4665323E-2,4.6207305E-2,-1.8748615E-2,1.6992716E-2,1.2067474E-2,-1.9670604E-2,1.3476381E-2,4.0041372E-2,-2.6804262E-3,-2.9229576E-2,-2.8783793E-2,2.6439486E-2],"split_indices":[6,8,4,8,8,4,1,0,8,5,0,0,6,0,0,4,8,0,0,2,0,0,0,0,0,0,0,0,0,0,0,0,0,0,0],"split_type":[0,0,0,0,0,0,0,0,0,0,0,0,0,0,0,0,0,0,0,0,0,0,0,0,0,0,0,0,0,0,0,0,0,0,0],"sum_hessian":[8.4681435E1,7.159379E1,1.3087648E1,4.328922E1,2.8304567E1,9.009906E0,4.077743E0,3.7972786E1,5.3164296E0,2.609224E1,2.2123275E0,3.116419E0,5.8934865E0,1.3074894E0,2.7702537E0,1.3499477E1,2.447331E1,3.9486012E0,1.3678286E0,1.703678E1,9.05546E0,1.856933E0,1.2594862E0,1.4608039E0,4.4326825E0,4.1406083E0,9.358869E0,3.6763647E0,2.0796946E1,1.4802096E0,2.4683917E0,1.6229408E0,1.5413839E1,5.7396145E0,3.3158453E0],"tree_param":{"num_deleted":"0","num_feature":"10","num_nodes":"35","size_leaf_vector":"1"}},{"base_weights":[-7.940574E-3,-1.8307874E-1,2.164784E-1,-3.868146E-1,1.3877113E-1,2.7464125E-1,-2.4164738E-2,-2.534665E-1,-5.55961E-1,2.700913E-1,-2.4704169E-1,3.2909036E-1,-2.6915556E-1,-3.587903E-1,1.7895812E-2,-9.487379E-3,-3.0657966E-2,-7.948657E-3,3.398803E-1,-2.5395859E-2,9.27716E-3,6.9505537E-1,2.0275916E-1,-2.163621E-2,1.9422591E-3,-1.9711891E-2,2.181861E-3,9.751352E-3,4.009665E-2,8.059074E-3,4.139066E-2,-1.8576683E-2,1.5395819E-2],"categories":[],"categories_nodes":[],"categories_segments":[],"categories_sizes":[],"default_left":[0,0,0,0,0,0,0,0,0,0,0,0,0,0,0,0,0,0,0,0,0,0,0,0,0,0,0,0,0,0,0,0,0],"id":25,"left_children":[1,3,5,7,9,11,-1,13,15,17,19,21,23,25,-1,-1,-1,-1,27,-1,-1,29,31,-1,-1,-1,-1,-1,-1,-1,-1,-1,-1],"loss_changes":[3.503166E0,3.3346972E0,1.723495E0,5.5614805E-1,1.0867093E0,1.1759076E0,0E0,1.3595454E0,1.5147448E-1,5.180849E-1,7.301064E-1,1.42314E0,2.1290511E-1,2.5698066E-1,0E0,0E0,0E0,0E0,7.5705945E-1,0E0,0E0,4.5268345E-1,1.7184328E0,0E0,0E0,0E0,0E0,0E0,0E0,0E0,0E0,0E0,0E0],"parents":[2147483647,0,0,1,1,2,2,3,3,4,4,5,5,7,7,8,8,9,9,10,10,11,11,12,12,13,13,18,18,21,21,22,22],"right_children":[2,4,6,8,10,12,-1,14,16,18,20,22,24,26,-1,-1,-1,-1,28,-1,-1,30,32,-1,-1,-1,-1,-1,-1,-1,-1,-1,-1],"split_conditions":[6.9410455E-1,9.080422E-1,9.535834E-1,7.540431E-1,9.801668E-1,9.63024E-1,-2.4164738E-2,7.336132E-1,5.0725114E-1,5.212591E-1,9.9953794E-1,4.2963105E-1,9.006961E-1,7.866775E-1,1.7895812E-2,-9.487379E-3,-3.0657966E-2,-7.948657E-3,9.225744E-1,-2.5395859E-2,9.27716E-3,7.209693E-1,3.9854053E-1,-2.163621E-2,1.9422591E-3,-1.9711891E-2,2.181861E-3,9.751352E-3,4.009665E-2,8.059074E-3,4.139066E-2,-1.8576683E-2,1.5395819E-2],"split_indices":[8,0,8,0,0,2,0,0,7,8,0,4,6,7,0,0,0,0,0,0,0,8,7,0,0,0,0,0,0,0,0,0,0],"split_type":[0,0,0,0,0,0,0,0,0,0,0,0,0,0,0,0,0,0,0,0,0,0,0,0,0,0,0,0,0,0,0,0,0],"sum_hessian":[8.712091E1,4.9036606E1,3.8084305E1,2.9904657E1,1.913195E1,3.5722683E1,2.3616238E0,1.8118933E1,1.1785724E1,1.4497379E1,4.6345706E0,3.283029E1,2.8923922E0,1.5808694E1,2.3102384E0,2.1753514E0,9.610373E0,1.8493872E0,1.2647992E1,2.7824416E0,1.8521292E0,7.269538E0,2.5560753E1,1.6246505E0,1.2677416E0,1.4547628E1,1.2610655E0,1.07119055E1,1.9360874E0,1.8886403E0,5.3808975E0,3.563943E0,2.1996809E1],"tree_param":{"num_deleted":"0","num_feature":"10","num_nodes":"33","size_leaf_vector":"1"}},{"base_weights":[1.1835761E-1,3.67718E-1,-4.1341674E-2,4.508787E-2,2.8191775E-1,-3.3537942E-1,4.0183302E-2,-3.62126E-1,3.6689138E-1,-4.118612E-2,-2.9205555E-2,2.1014905E-1,-2.5880367E-1,-1.4718496E-3,-2.5572944E-2,4.187297E-1,-2.0590587E-2,3.58369E-1,-2.534845E-2,6.0002E-1,6.2879294E-2,-4.6434853E-2,-2.9767504E-2,1.3834092E-2,3.3579767E-2,-4.8151514E-3,3.5831627E-2,8.570307E-3,4.2094555E-2,-1.0762255E-2,1.9069029E-2,1.0142115E-2,-1.9036131E-2],"categories":[],"categories_nodes":[],"categories_segments":[],"categories_sizes":[],"default_left":[0,0,0,0,0,0,0,0,0,0,0,0,0,0,0,0,0,0,0,0,0,0,0,0,0,0,0,0,0,0,0,0,0],"id":26,"left_children":[1,3,5,-1,7,9,11,13,15,17,-1,19,21,-1,-1,23,-1,25,-1,27,29,31,-1,-1,-1,-1,-1,-1,-1,-1,-1,-1,-1],"loss_changes":[3.599958E0,1.3607111E0,1.3504431E0,0E0,1.8743069E0,8.697008E-1,2.3187869E0,1.9421554E-1,1.3272672E0,1.423282E0,0E0,1.6251194E0,1.1586533E0,0E0,0E0,7.9544306E-1,0E0,7.493982E-1,0E0,6.667371E-1,2.0431354E0,1.0156159E0,0E0,0E0,0E0,0E0,0E0,0E0,0E0,0E0,0E0,0E0,0E0],"parents":[2147483647,0,0,1,1,2,2,4,4,5,5,6,6,7,7,8,8,9,9,11,11,12,12,15,15,17,17,19,19,20,20,21,21],"right_children":[2,4,6,-1,8,10,12,14,16,18,-1,20,22,-1,-1,24,-1,26,-1,28,30,32,-1,-1,-1,-1,-1,-1,-1,-1,-1,-1,-1],"split_conditions":[8.7894857E-1,3.6707908E-1,8.9406127E-1,4.508787E-2,4.2952457E-1,8.892459E-1,9.4429934E-1,4.4859073E-1,9.2492133E-1,7.588656E-1,-2.9205555E-2,5.749108E-1,7.8615123E-1,-1.4718496E-3,-2.5572944E-2,7.5662315E-1,-2.0590587E-2,8.874415E-1,-2.534845E-2,6.111137E-1,6.574365E-1,9.229086E-1,-2.9767504E-2,1.3834092E-2,3.3579767E-2,-4.8151514E-3,3.5831627E-2,8.570307E-3,4.2094555E-2,-1.0762255E-2,1.9069029E-2,1.0142115E-2,-1.9036131E-2],"split_indices":[2,7,2,0,7,2,2,8,4,8,0,5,8,0,0,7,0,2,0,8,4,6,0,0,0,0,0,0,0,0,0,0,0],"split_type":[0,0,0,0,0,0,0,0,0,0,0,0,0,0,0,0,0,0,0,0,0,0,0,0,0,0,0,0,0,0,0,0,0],"sum_hessian":[8.901795E1,3.42446E1,5.4773357E1,3.423851E0,3.082075E1,1.1213951E1,4.3559406E1,3.2122676E0,2.7608482E1,5.6714697E0,5.5424814E0,2.796131E1,1.5598095E1,1.3660522E0,1.8462155E0,2.6318716E1,1.2897655E0,3.1768942E0,2.4945755E0,6.8233614E0,2.1137947E1,1.0261083E1,5.337013E0,1.819296E1,8.125754E0,1.7223084E0,1.4545858E0,3.0778484E0,3.7455132E0,1.14573E1,9.680648E0,6.1031766E0,4.157906E0],"tree_param":{"num_deleted":"0","num_feature":"10","num_nodes":"33","size_leaf_vector":"1"}},{"base_weights":[-1.1261423E-1,-1.8015607E-1,2.4073716E-1,-5.308456E-2,-3.6764058E-1,5.194217E-1,-3.621442E-1,-1.4560984E-1,5.212207E-1,-4.104031E-1,5.1170522E-3,-9.020599E-2,8.0673456E-1,8.2966685E-4,-2.4950875E-2,1.0610171E-1,-2.8458363E-1,6.768345E-1,-1.2408169E-3,-5.3144014E-1,-1.533507E-1,9.0390295E-3,-1.9746741E-2,1.3863604E-2,4.495996E-2,-1.8479714E-2,1.646888E-2,1.1784014E-2,-1.9229157E-2,1.3040371E-2,3.8963407E-2,-2.557423E-3,-2.8817857E-2,-2.8382823E-2,2.5709942E-2],"categories":[],"categories_nodes":[],"categories_segments":[],"categories_sizes":[],"default_left":[0,0,0,0,0,0,0,0,0,0,0,0,0,0,0,0,0,0,0,0,0,0,0,0,0,0,0,0,0,0,0,0,0,0,0],"id":27,"left_children":[1,3,5,7,9,11,13,15,17,19,-1,21,23,-1,-1,25,27,29,-1,31,33,-1,-1,-1,-1,-1,-1,-1,-1,-1,-1,-1,-1,-1,-1],"loss_changes":[2.0736938E0,1.6956186E0,2.5536926E0,2.4181068E0,6.231017E-1,1.831243E0,2.6955694E-1,1.3855019E0,5.550338E-1,7.492833E-1,0E0,4.1123247E-1,8.966303E-2,0E0,0E0,1.6628928E0,1.4034388E0,8.340597E-3,0E0,3.5341215E-1,3.0447779E0,0E0,0E0,0E0,0E0,0E0,0E0,0E0,0E0,0E0,0E0,0E0,0E0,0E0,0E0],"parents":[2147483647,0,0,1,1,2,2,3,3,4,4,5,5,6,6,7,7,8,8,9,9,11,11,12,12,15,15,16,16,17,17,19,19,20,20],"right_children":[2,4,6,8,10,12,14,16,18,20,-1,22,24,-1,-1,26,28,30,-1,32,34,-1,-1,-1,-1,-1,-1,-1,-1,-1,-1,-1,-1,-1,-1],"split_conditions":[8.9721787E-1,6.875977E-1,6.4736104E-1,6.6297334E-1,9.64897E-1,3.4629312E-1,9.791854E-1,6.9100493E-1,6.857395E-1,7.1079403E-1,5.1170522E-3,9.971318E-1,5.863357E-1,8.2966685E-4,-2.4950875E-2,4.0319717E-1,4.6802843E-1,8.671074E-1,-1.2408169E-3,8.84635E-1,8.7530375E-1,9.0390295E-3,-1.9746741E-2,1.3863604E-2,4.495996E-2,-1.8479714E-2,1.646888E-2,1.1784014E-2,-1.9229157E-2,1.3040371E-2,3.8963407E-2,-2.557423E-3,-2.8817857E-2,-2.8382823E-2,2.5709942E-2],"split_indices":[6,8,4,8,8,4,1,0,8,5,0,0,5,0,0,4,8,0,0,2,0,0,0,0,0,0,0,0,0,0,0,0,0,0,0],"split_type":[0,0,0,0,0,0,0,0,0,0,0,0,0,0,0,0,0,0,0,0,0,0,0,0,0,0,0,0,0,0,0,0,0,0,0],"sum_hessian":[8.407179E1,7.0992065E1,1.3079727E1,4.3078117E1,2.7913944E1,9.0395775E0,4.040149E0,3.774375E1,5.334368E0,2.5702135E1,2.211808E0,3.1153612E0,5.9242163E0,1.305769E0,2.7343802E0,1.351027E1,2.423348E1,3.964885E0,1.369483E0,1.674844E1,8.953695E0,1.8642695E0,1.2510917E0,1.4752809E0,4.4489355E0,4.106316E0,9.4039545E0,3.6881983E0,2.0545282E1,1.4839672E0,2.480918E0,1.6152724E0,1.5133168E1,5.617136E0,3.3365593E0],"tree_param":{"num_deleted":"0","num_feature":"10","num_nodes":"35","size_leaf_vector":"1"}},{"base_weights":[-8.030056E-3,-1.7833082E-1,2.084032E-1,-3.7865564E-1,1.3427475E-1,2.6453358E-1,-2.382237E-2,-2.454155E-1,-5.488838E-1,2.6131776E-1,-2.4278383E-1,3.259196E-1,-1.9560668E-1,-3.5002556E-1,1.7624674E-2,-9.3090935E-3,-3.031537E-2,9.116335E-2,4.723276E-1,-2.5032911E-2,8.947889E-3,2.169473E-1,7.8603613E-1,-2.4476303E-2,9.856382E-3,-1.9311635E-2,2.7206498E-3,1.5090637E-2,-2.6199494E-2,4.306157E-2,-3.0964017E-3,1.8398944E-2,-1.628135E-2,4.481672E-2,1.3602992E-2],"categories":[],"categories_nodes":[],"categories_segments":[],"categories_sizes":[],"default_left":[0,0,0,0,0,0,0,0,0,0,0,0,0,0,0,0,0,0,0,0,0,0,0,0,0,0,0,0,0,0,0,0,0,0,0],"id":28,"left_children":[1,3,5,7,9,11,-1,13,15,17,19,21,23,25,-1,-1,-1,27,29,-1,-1,31,33,-1,-1,-1,-1,-1,-1,-1,-1,-1,-1,-1,-1],"loss_changes":[3.2730432E0,3.1613579E0,1.6298673E0,5.578351E-1,1.0280648E0,1.1032152E0,0E0,1.3077961E0,1.4948916E-1,5.1502967E-1,6.979049E-1,1.4762514E0,6.686365E-1,2.6436734E-1,0E0,0E0,0E0,1.4337629E0,1.4453564E0,0E0,0E0,2.4090462E0,9.106445E-2,0E0,0E0,0E0,0E0,0E0,0E0,0E0,0E0,0E0,0E0,0E0,0E0],"parents":[2147483647,0,0,1,1,2,2,3,3,4,4,5,5,7,7,8,8,9,9,10,10,11,11,12,12,13,13,17,17,18,18,21,21,22,22],"right_children":[2,4,6,8,10,12,-1,14,16,18,20,22,24,26,-1,-1,-1,28,30,-1,-1,32,34,-1,-1,-1,-1,-1,-1,-1,-1,-1,-1,-1,-1],"split_conditions":[6.9410455E-1,9.080422E-1,9.535834E-1,7.540431E-1,9.801668E-1,8.355457E-1,-2.382237E-2,7.336132E-1,5.0725114E-1,6.0030335E-1,9.9953794E-1,7.4800104E-1,8.1515E-1,5.640879E-1,1.7624674E-2,-9.3090935E-3,-3.031537E-2,5.873405E-1,6.574365E-1,-2.5032911E-2,8.947889E-3,8.9721787E-1,9.384763E-1,-2.4476303E-2,9.856382E-3,-1.9311635E-2,2.7206498E-3,1.5090637E-2,-2.6199494E-2,4.306157E-2,-3.0964017E-3,1.8398944E-2,-1.628135E-2,4.481672E-2,1.3602992E-2],"split_indices":[8,0,8,0,0,5,0,0,7,8,0,4,4,8,0,0,0,8,4,0,0,6,0,0,0,0,0,0,0,0,0,0,0,0,0],"split_type":[0,0,0,0,0,0,0,0,0,0,0,0,0,0,0,0,0,0,0,0,0,0,0,0,0,0,0,0,0,0,0,0,0,0,0],"sum_hessian":[8.679133E1,4.8670742E1,3.8120583E1,2.9533627E1,1.9137114E1,3.580014E1,2.3204443E0,1.7936298E1,1.1597328E1,1.4543802E1,4.5933113E0,3.1843662E1,3.956478E0,1.5618306E1,2.3179927E0,2.1649852E0,9.432343E0,8.8441105E0,5.6996922E0,2.7342997E0,1.8590117E0,2.6935793E1,4.907868E0,2.121962E0,1.8345162E0,1.4376292E1,1.2420142E0,6.967553E0,1.8765574E0,2.9443634E0,2.7553287E0,2.1322289E1,5.613505E0,3.4282508E0,1.479617E0],"tree_param":{"num_deleted":"0","num_feature":"10","num_nodes":"35","size_leaf_vector":"1"}},{"base_weights":[1.1431673E-1,3.5479155E-1,-4.077212E-2,2.3271988E-1,6.986925E-1,-3.2997775E-1,3.874403E-2,2.9787225E-1,-2.759613E-1,4.1361433E-2,-3.8860439E-4,-4.0993687E-2,-2.8846338E-2,3.3429193E-1,-1.2741843E-1,8.119858E-3,3.906231E-1,-1.1187011E-3,-2.0801421E-2,3.5043016E-1,-2.5073016E-2,4.742353E-1,-2.7724636E-1,4.547764E-1,-2.064346E-1,1.7341577E-2,-2.5520274E-2,3.8700458E-2,1.2058144E-2,-4.7184383E-3,3.491414E-2,4.7646742E-2,1.4593395E-2,-4.7685113E-4,-2.1338878E-2,-9.4522117E-4,3.6272924E-2,-1.5102208E-2,7.1106637E-3],"categories":[],"categories_nodes":[],"categories_segments":[],"categories_sizes":[],"default_left":[0,0,0,0,0,0,0,0,0,0,0,0,0,0,0,0,0,0,0,0,0,0,0,0,0,0,0,0,0,0,0,0,0,0,0,0,0,0,0],"id":29,"left_children":[1,3,5,7,9,11,13,15,17,-1,-1,19,-1,21,23,25,27,-1,-1,29,-1,31,33,35,37,-1,-1,-1,-1,-1,-1,-1,-1,-1,-1,-1,-1,-1,-1],"loss_changes":[3.369954E0,1.3226008E0,1.2912377E0,9.972327E-1,8.026805E-1,8.394282E-1,2.2279122E0,6.675086E-1,1.2047386E-1,0E0,0E0,1.3741614E0,0E0,1.5256416E0,1.437566E0,1.4191889E0,8.953614E-1,0E0,0E0,7.130602E-1,0E0,9.113946E-1,1.4263332E-1,5.012869E-1,9.231752E-1,0E0,0E0,0E0,0E0,0E0,0E0,0E0,0E0,0E0,0E0,0E0,0E0,0E0,0E0],"parents":[2147483647,0,0,1,1,2,2,3,3,4,4,5,5,6,6,7,7,8,8,11,11,13,13,14,14,15,15,16,16,19,19,21,21,22,22,23,23,24,24],"right_children":[2,4,6,8,10,12,14,16,18,-1,-1,20,-1,22,24,26,28,-1,-1,30,-1,32,34,36,38,-1,-1,-1,-1,-1,-1,-1,-1,-1,-1,-1,-1,-1,-1],"split_conditions":[8.7894857E-1,8.2044595E-1,8.9406127E-1,6.6297334E-1,8.7853897E-1,8.892459E-1,9.153799E-1,6.750919E-1,6.295131E-1,4.1361433E-2,-3.8860439E-4,7.588656E-1,-2.8846338E-2,7.1582884E-1,2.7600604E-1,4.3495685E-1,5.704801E-1,-1.1187011E-3,-2.0801421E-2,8.874415E-1,-2.5073016E-2,5.4853237E-1,4.1478452E-1,9.5016944E-1,8.755824E-1,1.7341577E-2,-2.5520274E-2,3.8700458E-2,1.2058144E-2,-4.7184383E-3,3.491414E-2,4.7646742E-2,1.4593395E-2,-4.7685113E-4,-2.1338878E-2,-9.4522117E-4,3.6272924E-2,-1.5102208E-2,7.1106637E-3],"split_indices":[2,0,2,8,4,2,0,0,4,0,0,8,0,8,4,4,4,0,0,2,0,4,4,1,8,0,0,0,0,0,0,0,0,0,0,0,0,0,0],"split_type":[0,0,0,0,0,0,0,0,0,0,0,0,0,0,0,0,0,0,0,0,0,0,0,0,0,0,0,0,0,0,0,0,0,0,0,0,0,0,0],"sum_hessian":[8.897163E1,3.4378296E1,5.459333E1,2.660961E1,7.7686863E0,1.1093974E1,4.3499355E1,2.3955757E1,2.653853E0,6.4281836E0,1.3405029E0,5.649192E0,5.4447823E0,1.5290605E1,2.8208752E1,6.0725965E0,1.7883162E1,1.3569227E0,1.2969301E0,3.1826873E0,2.4665048E0,1.2625848E1,2.6647568E0,2.8027172E0,2.5406034E1,3.8734784E0,2.1991181E0,3.844021E0,1.403914E1,1.7165045E0,1.4661827E0,2.3174286E0,1.0308419E1,1.3362377E0,1.328519E0,1.3574332E0,1.445284E0,2.0043251E1,5.3627834E0],"tree_param":{"num_deleted":"0","num_feature":"10","num_nodes":"39","size_leaf_vector":"1"}},{"base_weights":[-1.092361E-1,-1.7503357E-1,2.3262972E-1,-5.1163882E-2,-3.5954517E-1,5.0259984E-1,-3.5710633E-1,-1.4183338E-1,5.0744385E-1,-4.0221664E-1,5.113072E-3,-9.0952836E-2,7.8161514E-1,6.4222905E-4,-2.4607552E-2,6.66185E-2,-3.054972E-1,6.591326E-1,-1.2636347E-3,-5.2286845E-1,-1.4762919E-1,8.771182E-3,-1.957651E-2,1.3351467E-2,4.3607038E-2,-1.813261E-2,1.1013455E-2,-2.0432016E-2,-1.6502738E-3,1.2571508E-2,3.804581E-2,-2.1900288E-3,-2.8416483E-2,-2.801997E-2,2.5157183E-2],"categories":[],"categories_nodes":[],"categories_segments":[],"categories_sizes":[],"default_left":[0,0,0,0,0,0,0,0,0,0,0,0,0,0,0,0,0,0,0,0,0,0,0,0,0,0,0,0,0,0,0,0,0,0,0],"id":30,"left_children":[1,3,5,7,9,11,13,15,17,19,-1,21,23,-1,-1,25,27,29,-1,31,33,-1,-1,-1,-1,-1,-1,-1,-1,-1,-1,-1,-1,-1,-1],"loss_changes":[1.9405222E0,1.6134224E0,2.4181657E0,2.2946737E0,6.0300374E-1,1.7372842E0,2.5612956E-1,1.3351109E0,5.295248E-1,7.307677E-1,0E0,3.979887E-1,9.0774536E-2,0E0,0E0,1.251995E0,5.9829354E-1,1.5217066E-2,0E0,3.5521078E-1,2.9281225E0,0E0,0E0,0E0,0E0,0E0,0E0,0E0,0E0,0E0,0E0,0E0,0E0,0E0,0E0],"parents":[2147483647,0,0,1,1,2,2,3,3,4,4,5,5,6,6,7,7,8,8,9,9,11,11,12,12,15,15,16,16,17,17,19,19,20,20],"right_children":[2,4,6,8,10,12,14,16,18,20,-1,22,24,-1,-1,26,28,30,-1,32,34,-1,-1,-1,-1,-1,-1,-1,-1,-1,-1,-1,-1,-1,-1],"split_conditions":[8.9721787E-1,6.875977E-1,6.4736104E-1,6.6297334E-1,9.64897E-1,3.4629312E-1,9.791854E-1,4.9601647E-1,6.857395E-1,7.1079403E-1,5.113072E-3,9.971318E-1,5.863357E-1,6.4222905E-4,-2.4607552E-2,4.0319717E-1,9.231479E-1,8.671074E-1,-1.2636347E-3,8.84635E-1,8.7530375E-1,8.771182E-3,-1.957651E-2,1.3351467E-2,4.3607038E-2,-1.813261E-2,1.1013455E-2,-2.0432016E-2,-1.6502738E-3,1.2571508E-2,3.804581E-2,-2.1900288E-3,-2.8416483E-2,-2.801997E-2,2.5157183E-2],"split_indices":[6,8,4,8,8,4,1,8,8,5,0,0,5,0,0,4,2,0,0,2,0,0,0,0,0,0,0,0,0,0,0,0,0,0,0],"split_type":[0,0,0,0,0,0,0,0,0,0,0,0,0,0,0,0,0,0,0,0,0,0,0,0,0,0,0,0,0,0,0,0,0,0,0],"sum_hessian":[8.345861E1,7.03975E1,1.3061104E1,4.2884678E1,2.7512825E1,9.060933E0,4.000171E0,3.7537872E1,5.3468037E0,2.5303766E1,2.20906E0,3.1128821E0,5.948051E0,1.3116984E0,2.6884727E0,1.677069E1,2.0767183E1,3.977051E0,1.3697526E0,1.6452808E1,8.850958E0,1.8710794E0,1.2418027E0,1.4807286E0,4.4673223E0,4.061998E0,1.2708693E1,1.4702409E1,6.064774E0,1.4877981E0,2.489253E0,1.5961462E0,1.4856662E1,5.5007987E0,3.3501592E0],"tree_param":{"num_deleted":"0","num_feature":"10","num_nodes":"35","size_leaf_vector":"1"}},{"base_weights":[-8.369384E-3,-1.7453162E-1,2.0132129E-1,-3.7041238E-1,1.2722868E-1,2.556587E-1,-2.3505803E-2,-2.3758551E-1,-5.414174E-1,2.4952325E-1,-2.3911934E-1,3.0594E-1,-2.5637454E-1,-3.4145185E-1,1.7344909E-2,-8.98652E-3,-2.9981455E-2,8.3044134E-2,4.57126E-1,-2.471868E-2,8.659375E-3,6.5508646E-1,1.8526004E-1,-2.1235757E-2,2.6315108E-3,-1.8886758E-2,2.888439E-3,1.4468535E-2,-2.6065884E-2,4.177916E-2,-3.1989515E-3,7.3457933E-3,3.912903E-2,-1.8389007E-2,1.4293465E-2],"categories":[],"categories_nodes":[],"categories_segments":[],"categories_sizes":[],"default_left":[0,0,0,0,0,0,0,0,0,0,0,0,0,0,0,0,0,0,0,0,0,0,0,0,0,0,0,0,0,0,0,0,0,0,0],"id":31,"left_children":[1,3,5,7,9,11,-1,13,15,17,19,21,23,25,-1,-1,-1,27,29,-1,-1,31,33,-1,-1,-1,-1,-1,-1,-1,-1,-1,-1,-1,-1],"loss_changes":[3.0810573E0,2.9616387E0,1.5471531E0,5.56304E-1,9.6255183E-1,1.0266848E0,0E0,1.256964E0,1.5332103E-1,5.0113964E-1,6.701739E-1,1.3109713E0,2.2197092E-1,2.5978208E-1,0E0,0E0,0E0,1.3826655E0,1.3787081E0,0E0,0E0,4.2519498E-1,1.5883317E0,0E0,0E0,0E0,0E0,0E0,0E0,0E0,0E0,0E0,0E0,0E0,0E0],"parents":[2147483647,0,0,1,1,2,2,3,3,4,4,5,5,7,7,8,8,9,9,10,10,11,11,12,12,13,13,17,17,18,18,21,21,22,22],"right_children":[2,4,6,8,10,12,-1,14,16,18,20,22,24,26,-1,-1,-1,28,30,-1,-1,32,34,-1,-1,-1,-1,-1,-1,-1,-1,-1,-1,-1,-1],"split_conditions":[6.9410455E-1,9.080422E-1,9.535834E-1,7.540431E-1,9.801668E-1,9.63024E-1,-2.3505803E-2,7.336132E-1,5.0725114E-1,6.0030335E-1,9.9953794E-1,4.2963105E-1,9.006961E-1,5.640879E-1,1.7344909E-2,-8.98652E-3,-2.9981455E-2,5.873405E-1,6.574365E-1,-2.471868E-2,8.659375E-3,7.209693E-1,3.9854053E-1,-2.1235757E-2,2.6315108E-3,-1.8886758E-2,2.888439E-3,1.4468535E-2,-2.6065884E-2,4.177916E-2,-3.1989515E-3,7.3457933E-3,3.912903E-2,-1.8389007E-2,1.4293465E-2],"split_indices":[8,0,8,0,0,2,0,0,7,8,0,4,6,8,0,0,0,8,4,0,0,8,7,0,0,0,0,0,0,0,0,0,0,0,0],"split_type":[0,0,0,0,0,0,0,0,0,0,0,0,0,0,0,0,0,0,0,0,0,0,0,0,0,0,0,0,0,0,0,0,0,0,0],"sum_hessian":[8.641926E1,4.8307384E1,3.811187E1,2.9154747E1,1.9152637E1,3.5831383E1,2.2804894E0,1.7753895E1,1.1400852E1,1.45983095E1,4.5543284E0,3.2993904E1,2.8374782E0,1.5428042E1,2.3258522E0,2.1471963E0,9.253655E0,8.878527E0,5.7197824E0,2.6899621E0,1.8643663E0,7.337383E0,2.565652E1,1.5944095E0,1.2430688E0,1.4192015E1,1.2360278E0,7.0074196E0,1.871107E0,2.9638073E0,2.7559752E0,1.9033347E0,5.4340477E0,3.5402966E0,2.2116224E1],"tree_param":{"num_deleted":"0","num_feature":"10","num_nodes":"35","size_leaf_vector":"1"}},{"base_weights":[1.10832386E-1,3.423436E-1,-3.946865E-2,4.271424E-2,2.60271E-1,3.7070537E-1,-9.2276834E-2,-3.626924E-1,3.4209174E-1,4.5034092E-2,-2.45708E-2,1.6883327E-1,-1.8451692E-1,-1.5787248E-3,-2.5521103E-2,3.9178947E-1,-2.0405747E-2,3.417044E-2,3.90182E-2,-3.390403E-1,-4.0585533E-2,1.3950752E-2,3.4529686E-2,9.718783E-3,-2.4554824E-2,5.220322E-3,-2.0381331E-2,1.2836254E-2,-1.772156E-2],"categories":[],"categories_nodes":[],"categories_segments":[],"categories_sizes":[],"default_left":[0,0,0,0,0,0,0,0,0,0,0,0,0,0,0,0,0,0,0,0,0,0,0,0,0,0,0,0,0],"id":32,"left_children":[1,3,5,-1,7,9,11,13,15,-1,-1,17,19,-1,-1,21,-1,23,-1,25,27,-1,-1,-1,-1,-1,-1,-1,-1],"loss_changes":[3.1397417E0,1.267992E0,1.2336192E0,0E0,1.755553E0,3.419439E0,1.2319708E0,1.8939292E-1,1.2339039E0,0E0,0E0,1.0881387E0,8.162782E-1,0E0,0E0,7.3490334E-1,0E0,1.1170509E0,0E0,5.858221E-1,1.9999682E0,0E0,0E0,0E0,0E0,0E0,0E0,0E0,0E0],"parents":[2147483647,0,0,1,1,2,2,4,4,5,5,6,6,7,7,8,8,11,11,12,12,15,15,17,17,19,19,20,20],"right_children":[2,4,6,-1,8,10,12,14,16,-1,-1,18,20,-1,-1,22,-1,24,-1,26,28,-1,-1,-1,-1,-1,-1,-1,-1],"split_conditions":[8.7894857E-1,3.6707908E-1,5.800763E-1,4.271424E-2,4.2952457E-1,7.77502E-1,5.641159E-1,4.4859073E-1,9.2492133E-1,4.5034092E-2,-2.45708E-2,5.5572873E-1,5.7080555E-1,-1.5787248E-3,-2.5521103E-2,7.823104E-1,-2.0405747E-2,9.120118E-1,3.90182E-2,8.8894844E-1,7.3179E-1,1.3950752E-2,3.4529686E-2,9.718783E-3,-2.4554824E-2,5.220322E-3,-2.0381331E-2,1.2836254E-2,-1.772156E-2],"split_indices":[2,7,8,0,7,7,5,8,4,0,0,5,4,0,0,7,0,6,0,2,5,0,0,0,0,0,0,0,0],"split_type":[0,0,0,0,0,0,0,0,0,0,0,0,0,0,0,0,0,0,0,0,0,0,0,0,0,0,0,0,0],"sum_hessian":[8.8843544E1,3.4470432E1,5.4373108E1,3.462656E0,3.1007776E1,5.5152187E0,4.885789E1,3.2012742E0,2.7806503E1,3.3878565E0,2.1273623E0,1.2537315E1,3.6320576E1,1.362077E0,1.8391972E0,2.6526972E1,1.2795306E0,1.1140079E1,1.3972371E0,1.6862059E1,1.9458515E1,2.066237E1,5.864601E0,9.019194E0,2.120885E0,2.1886995E0,1.4673359E1,1.0085949E1,9.372566E0],"tree_param":{"num_deleted":"0","num_feature":"10","num_nodes":"29","size_leaf_vector":"1"}},{"base_weights":[-1.0604221E-1,-1.7019694E-1,2.2534959E-1,-4.920002E-2,-3.5211045E-1,4.3408108E-1,-2.4338728E-2,-1.3765264E-1,4.9187863E-1,-3.9489818E-1,5.2069006E-3,-9.197262E-2,6.429939E-1,1.0554669E-1,-2.7364063E-1,6.401322E-1,-1.352707E-3,-5.152936E-1,-1.4214258E-1,8.421189E-3,-1.9355927E-2,-1.4051407E-3,7.7911466E-1,-1.7865654E-2,1.5910277E-2,1.1304661E-2,-1.859422E-2,1.2173878E-2,3.6976717E-2,-2.021332E-3,-2.8051337E-2,-2.7653515E-2,2.4550091E-2,1.1427614E-2,4.44132E-2],"categories":[],"categories_nodes":[],"categories_segments":[],"categories_sizes":[],"default_left":[0,0,0,0,0,0,0,0,0,0,0,0,0,0,0,0,0,0,0,0,0,0,0,0,0,0,0,0,0,0,0,0,0,0,0],"id":33,"left_children":[1,3,5,7,9,11,-1,13,15,17,-1,19,21,23,25,27,-1,29,31,-1,-1,-1,33,-1,-1,-1,-1,-1,-1,-1,-1,-1,-1,-1,-1],"loss_changes":[1.8211135E0,1.541559E0,2.296867E0,2.1589584E0,5.9022784E-1,1.3096814E0,0E0,1.296778E0,5.064697E-1,7.156582E-1,0E0,3.8102126E-1,7.7733064E-1,1.5380515E0,1.304929E0,1.6522646E-2,0E0,3.504038E-1,2.8070812E0,0E0,0E0,0E0,2.1222973E-1,0E0,0E0,0E0,0E0,0E0,0E0,0E0,0E0,0E0,0E0,0E0,0E0],"parents":[2147483647,0,0,1,1,2,2,3,3,4,4,5,5,7,7,8,8,9,9,11,11,12,12,13,13,14,14,15,15,17,17,18,18,22,22],"right_children":[2,4,6,8,10,12,-1,14,16,18,-1,20,22,24,26,28,-1,30,32,-1,-1,-1,34,-1,-1,-1,-1,-1,-1,-1,-1,-1,-1,-1,-1],"split_conditions":[8.9721787E-1,6.875977E-1,7.159307E-1,6.6297334E-1,9.64897E-1,3.4629312E-1,-2.4338728E-2,6.9100493E-1,6.857395E-1,7.1079403E-1,5.2069006E-3,9.971318E-1,9.425792E-1,4.0319717E-1,4.6802843E-1,8.671074E-1,-1.352707E-3,8.84635E-1,8.7530375E-1,8.421189E-3,-1.9355927E-2,-1.4051407E-3,9.039013E-1,-1.7865654E-2,1.5910277E-2,1.1304661E-2,-1.859422E-2,1.2173878E-2,3.6976717E-2,-2.021332E-3,-2.8051337E-2,-2.7653515E-2,2.4550091E-2,1.1427614E-2,4.44132E-2],"split_indices":[6,8,4,8,8,4,0,0,8,5,0,0,2,4,8,0,0,2,0,0,0,0,6,0,0,0,0,0,0,0,0,0,0,0,0],"split_type":[0,0,0,0,0,0,0,0,0,0,0,0,0,0,0,0,0,0,0,0,0,0,0,0,0,0,0,0,0,0,0,0,0,0,0],"sum_hessian":[8.285372E1,6.982298E1,1.3030739E1,4.269532E1,2.7127663E1,1.0378984E1,2.6517534E0,3.7337227E1,5.358093E0,2.4924654E1,2.2030082E0,3.1093168E0,7.269668E0,1.3470534E1,2.3866692E1,3.9858284E0,1.3722643E0,1.6179262E1,8.745391E0,1.8800085E0,1.2293084E0,1.3596961E0,5.9099717E0,4.026498E0,9.4440365E0,3.7073367E0,2.0159355E1,1.4899087E0,2.4959197E0,1.5868001E0,1.4592463E1,5.380059E0,3.3653324E0,1.4896975E0,4.4202743E0],"tree_param":{"num_deleted":"0","num_feature":"10","num_nodes":"35","size_leaf_vector":"1"}},{"base_weights":[-8.501284E-3,-1.7033207E-1,1.9425732E-1,-3.628394E-1,1.2300175E-1,2.4670562E-1,-2.3158884E-2,-2.3057945E-1,-5.3458387E-1,2.417964E-1,-2.3556112E-1,3.049654E-1,-1.924174E-1,-3.3418036E-1,1.7247614E-2,-3.0119613E-2,-2.0256402E-1,-8.4624095E-3,3.0984065E-1,-2.444889E-2,8.465075E-3,2.0000869E-1,7.477575E-1,-2.4153564E-2,9.635203E-3,-1.8534184E-2,3.1077964E-3,4.699915E-3,-1.9121379E-2,8.475947E-3,3.8168084E-2,1.7008405E-2,-1.5671069E-2,4.2890932E-2,1.2522037E-2],"categories":[],"categories_nodes":[],"categories_segments":[],"categories_sizes":[],"default_left":[0,0,0,0,0,0,0,0,0,0,0,0,0,0,0,0,0,0,0,0,0,0,0,0,0,0,0,0,0,0,0,0,0,0,0],"id":34,"left_children":[1,3,5,7,9,11,-1,13,15,17,19,21,23,25,-1,-1,27,-1,29,-1,-1,31,33,-1,-1,-1,-1,-1,-1,-1,-1,-1,-1,-1,-1],"loss_changes":[2.8892784E0,2.8082943E0,1.4626354E0,5.5369115E-1,9.147903E-1,1.0018709E0,0E0,1.2240127E0,1.5280819E-1,4.893409E-1,6.4895916E-1,1.3811109E0,6.451113E-1,2.5837374E-1,0E0,0E0,2.2674239E-1,0E0,7.4597716E-1,0E0,0E0,2.1208441E0,1.1061692E-1,0E0,0E0,0E0,0E0,0E0,0E0,0E0,0E0,0E0,0E0,0E0,0E0],"parents":[2147483647,0,0,1,1,2,2,3,3,4,4,5,5,7,7,8,8,9,9,10,10,11,11,12,12,13,13,16,16,18,18,21,21,22,22],"right_children":[2,4,6,8,10,12,-1,14,16,18,20,22,24,26,-1,-1,28,-1,30,-1,-1,32,34,-1,-1,-1,-1,-1,-1,-1,-1,-1,-1,-1,-1],"split_conditions":[6.9410455E-1,9.080422E-1,9.535834E-1,7.540431E-1,9.801668E-1,8.355457E-1,-2.3158884E-2,7.336132E-1,9.0048736E-1,5.212591E-1,9.9953794E-1,7.4800104E-1,8.926547E-1,7.866775E-1,1.7247614E-2,-3.0119613E-2,9.0574193E-1,-8.4624095E-3,9.225744E-1,-2.444889E-2,8.465075E-3,8.9721787E-1,9.384763E-1,-2.4153564E-2,9.635203E-3,-1.8534184E-2,3.1077964E-3,4.699915E-3,-1.9121379E-2,8.475947E-3,3.8168084E-2,1.7008405E-2,-1.5671069E-2,4.2890932E-2,1.2522037E-2],"split_indices":[8,0,8,0,0,5,0,0,0,8,0,4,7,7,0,0,0,0,0,0,0,6,0,0,0,0,0,0,0,0,0,0,0,0,0],"split_type":[0,0,0,0,0,0,0,0,0,0,0,0,0,0,0,0,0,0,0,0,0,0,0,0,0,0,0,0,0,0,0,0,0,0,0],"sum_hessian":[8.604557E1,4.7941345E1,3.810423E1,2.8802238E1,1.9139109E1,3.586756E1,2.2366679E0,1.7594969E1,1.1207269E1,1.4620781E1,4.518327E0,3.1936024E1,3.9315355E0,1.5266258E1,2.328711E0,8.630363E0,2.576905E0,1.8653244E0,1.2755457E1,2.651134E0,1.8671931E0,2.6990145E1,4.945879E0,2.0956209E0,1.8359146E0,1.4038052E1,1.2282066E0,1.1530787E0,1.4238263E0,1.0790581E1,1.9648762E0,2.146732E1,5.522826E0,3.4561124E0,1.4897664E0],"tree_param":{"num_deleted":"0","num_feature":"10","num_nodes":"35","size_leaf_vector":"1"}},{"base_weights":[1.0736483E-1,3.299967E-1,-3.8217645E-2,2.1244866E-1,6.6286296E-1,-2.8073373E-1,5.1214788E-2,2.7588654E-1,-2.8083563E-1,3.934531E-2,-6.966968E-4,2.1484338E-1,-4.690491E-1,4.2270923E-1,-1.2009337E-1,2.0585768E-1,3.63452E-2,-1.407137E-3,-2.084251E-2,3.4331895E-2,-1.9739321E-1,-5.359093E-1,1.3226859E-3,4.5517184E-2,2.3244879E-1,4.4239932E-1,-1.9763827E-1,3.3048313E-2,7.210364E-3,1.9652776E-3,-1.7656973E-2,-5.0419015E-3,-3.0696362E-2,3.080315E-2,-1.29856765E-2,-1.0220296E-3,3.5311393E-2,-1.4561101E-2,6.933038E-3],"categories":[],"categories_nodes":[],"categories_segments":[],"categories_sizes":[],"default_left":[0,0,0,0,0,0,0,0,0,0,0,0,0,0,0,0,0,0,0,0,0,0,0,0,0,0,0,0,0,0,0,0,0,0,0,0,0,0,0],"id":35,"left_children":[1,3,5,7,9,11,13,15,17,-1,-1,19,21,23,25,27,-1,-1,-1,-1,29,31,-1,-1,33,35,37,-1,-1,-1,-1,-1,-1,-1,-1,-1,-1,-1,-1],"loss_changes":[2.9203296E0,1.2511091E0,1.2102778E0,9.46223E-1,7.5078034E-1,1.5015454E0,2.6682403E0,6.432116E-1,1.1402714E-1,0E0,0E0,1.0727671E0,3.849206E-1,1.0132093E0,1.3492179E0,5.5348784E-1,0E0,0E0,0E0,0E0,1.3732189E-1,2.7438092E-1,0E0,0E0,2.2064703E0,4.8011392E-1,8.6224866E-1,0E0,0E0,0E0,0E0,0E0,0E0,0E0,0E0,0E0,0E0,0E0,0E0],"parents":[2147483647,0,0,1,1,2,2,3,3,4,4,5,5,6,6,7,7,8,8,11,11,12,12,13,13,14,14,15,15,20,20,21,21,24,24,25,25,26,26],"right_children":[2,4,6,8,10,12,14,16,18,-1,-1,20,22,24,26,28,-1,-1,-1,-1,30,32,-1,-1,34,36,38,-1,-1,-1,-1,-1,-1,-1,-1,-1,-1,-1,-1],"split_conditions":[8.7894857E-1,8.2044595E-1,8.97838E-1,6.6297334E-1,8.7853897E-1,7.1582884E-1,9.153799E-1,7.6369077E-1,6.9230646E-1,3.934531E-2,-6.966968E-4,5.98521E-1,8.9751846E-1,5.4853237E-1,2.7600604E-1,3.6338457E-1,3.63452E-2,-1.407137E-3,-2.084251E-2,3.4331895E-2,6.9410455E-1,8.790731E-1,1.3226859E-3,4.5517184E-2,6.4210665E-1,9.5016944E-1,8.755824E-1,3.3048313E-2,7.210364E-3,1.9652776E-3,-1.7656973E-2,-5.0419015E-3,-3.0696362E-2,3.080315E-2,-1.29856765E-2,-1.0220296E-3,3.5311393E-2,-1.4561101E-2,6.933038E-3],"split_indices":[2,0,2,8,4,8,0,0,8,0,0,5,0,4,4,7,0,0,0,0,8,0,0,0,8,1,8,0,0,0,0,0,0,0,0,0,0,0,0],"split_type":[0,0,0,0,0,0,0,0,0,0,0,0,0,0,0,0,0,0,0,0,0,0,0,0,0,0,0,0,0,0,0,0,0,0,0,0,0,0,0],"sum_hessian":[8.87131E1,3.4574043E1,5.4139053E1,2.6761688E1,7.8123546E0,1.400966E1,4.0129395E1,2.4102718E1,2.6589696E0,6.464796E0,1.3475585E0,3.8188841E0,1.0190776E1,1.2201657E1,2.7927736E1,2.2123985E1,1.978732E0,1.352729E0,1.3062408E0,1.4704036E0,2.3484807E0,8.907328E0,1.2834486E0,2.3623273E0,9.83933E0,2.8135836E0,2.5114153E1,1.4796774E0,2.0644308E1,1.2287269E0,1.1197538E0,1.7029927E0,7.2043347E0,5.3879576E0,4.4513726E0,1.3564531E0,1.4571306E0,1.9751762E1,5.3623905E0],"tree_param":{"num_deleted":"0","num_feature":"10","num_nodes":"39","size_leaf_vector":"1"}},{"base_weights":[-1.0310923E-1,-1.655974E-1,2.1776372E-1,-4.7507774E-2,-3.4473327E-1,4.7278345E-1,-3.4802207E-1,-1.3392262E-1,4.7760394E-1,-3.874425E-1,5.1981173E-3,-9.260044E-2,7.38081E-1,3.7894558E-4,-2.401293E-2,1.0197385E-1,-2.670418E-1,6.223601E-1,-1.4007305E-3,-5.0763685E-1,-1.3655184E-1,8.175571E-3,-1.9190824E-2,1.1981945E-2,4.1500732E-2,-1.7613148E-2,1.5429086E-2,1.1082716E-2,-1.8219402E-2,1.1783211E-2,3.599693E-2,-1.6929137E-3,-2.7695507E-2,-2.732035E-2,2.4076054E-2],"categories":[],"categories_nodes":[],"categories_segments":[],"categories_sizes":[],"default_left":[0,0,0,0,0,0,0,0,0,0,0,0,0,0,0,0,0,0,0,0,0,0,0,0,0,0,0,0,0,0,0,0,0,0,0],"id":36,"left_children":[1,3,5,7,9,11,13,15,17,19,-1,21,23,-1,-1,25,27,29,-1,31,33,-1,-1,-1,-1,-1,-1,-1,-1,-1,-1,-1,-1,-1,-1],"loss_changes":[1.7049041E0,1.4693211E0,2.1843576E0,2.0373523E0,5.719478E-1,1.5792997E0,2.3524469E-1,1.2244148E0,4.8325026E-1,7.009816E-1,0E0,3.6897647E-1,1.2037969E-1,0E0,0E0,1.4673116E0,1.2533145E0,1.8657923E-2,0E0,3.5180235E-1,2.7055526E0,0E0,0E0,0E0,0E0,0E0,0E0,0E0,0E0,0E0,0E0,0E0,0E0,0E0,0E0],"parents":[2147483647,0,0,1,1,2,2,3,3,4,4,5,5,6,6,7,7,8,8,9,9,11,11,12,12,15,15,16,16,17,17,19,19,20,20],"right_children":[2,4,6,8,10,12,14,16,18,20,-1,22,24,-1,-1,26,28,30,-1,32,34,-1,-1,-1,-1,-1,-1,-1,-1,-1,-1,-1,-1,-1,-1],"split_conditions":[8.9721787E-1,6.875977E-1,6.4736104E-1,6.6297334E-1,9.64897E-1,3.4629312E-1,9.791854E-1,6.9100493E-1,6.857395E-1,7.1079403E-1,5.1981173E-3,9.971318E-1,5.863357E-1,3.7894558E-4,-2.401293E-2,4.0319717E-1,4.6802843E-1,8.671074E-1,-1.4007305E-3,8.84635E-1,8.7530375E-1,8.175571E-3,-1.9190824E-2,1.1981945E-2,4.1500732E-2,-1.7613148E-2,1.5429086E-2,1.1082716E-2,-1.8219402E-2,1.1783211E-2,3.599693E-2,-1.6929137E-3,-2.7695507E-2,-2.732035E-2,2.4076054E-2],"split_indices":[6,8,4,8,8,4,1,0,8,5,0,0,5,0,0,4,8,0,0,2,0,0,0,0,0,0,0,0,0,0,0,0,0,0,0],"split_type":[0,0,0,0,0,0,0,0,0,0,0,0,0,0,0,0,0,0,0,0,0,0,0,0,0,0,0,0,0,0,0,0,0,0,0],"sum_hessian":[8.22309E1,6.923224E1,1.2998664E1,4.248835E1,2.6743889E1,9.073357E0,3.9253068E0,3.7124012E1,5.3643384E0,2.4544159E1,2.1997297E0,3.105687E0,5.96767E0,1.3195513E0,2.6057553E0,1.3476565E1,2.3647446E1,3.9908795E0,1.3734586E0,1.5902431E1,8.641728E0,1.8857625E0,1.2199246E0,1.4909182E0,4.476752E0,3.992934E0,9.483631E0,3.7159123E0,1.9931534E1,1.4922668E0,2.4986129E0,1.5690533E0,1.4333378E1,5.2658195E0,3.3759081E0],"tree_param":{"num_deleted":"0","num_feature":"10","num_nodes":"35","size_leaf_vector":"1"}},{"base_weights":[-9.040082E-3,-1.6659182E-1,1.8704501E-1,-3.5520667E-1,1.1753012E-1,2.3785228E-1,-2.2868024E-2,-2.2403687E-1,-5.2704895E-1,-2.1681597E-2,1.880738E-1,5.014047E-1,1.3448574E-1,-3.2675725E-1,1.6926967E-2,-8.317894E-3,-2.9350815E-2,3.187322E-2,6.3998476E-2,6.1795723E-1,-2.9281566E-3,-1.9769083E-1,3.4297556E-1,-1.9513762E-2,-2.7560194E-3,-3.372628E-3,2.7573893E-2,6.616216E-3,3.707341E-2,-3.0107355E-2,3.0837813E-3,2.5431028E-2,-9.321452E-3],"categories":[],"categories_nodes":[],"categories_segments":[],"categories_sizes":[],"default_left":[0,0,0,0,0,0,0,0,0,0,0,0,0,0,0,0,0,0,0,0,0,0,0,0,0,0,0,0,0,0,0,0,0],"id":37,"left_children":[1,3,5,7,9,11,-1,13,15,-1,17,19,21,23,-1,-1,-1,-1,25,27,-1,29,31,-1,-1,-1,-1,-1,-1,-1,-1,-1,-1],"loss_changes":[2.7078636E0,2.6446357E0,1.3880223E0,5.455229E-1,8.642441E-1,9.371209E-1,0E0,1.1759659E0,1.62009E-1,0E0,9.9316883E-1,6.9025373E-1,1.9967685E0,2.562375E-1,0E0,0E0,0E0,0E0,1.0396088E0,4.046216E-1,0E0,1.2303915E0,1.6275249E0,0E0,0E0,0E0,0E0,0E0,0E0,0E0,0E0,0E0,0E0],"parents":[2147483647,0,0,1,1,2,2,3,3,4,4,5,5,7,7,8,8,10,10,11,11,12,12,13,13,18,18,19,19,21,21,22,22],"right_children":[2,4,6,8,10,12,-1,14,16,-1,18,20,22,24,-1,-1,-1,-1,26,28,-1,30,32,-1,-1,-1,-1,-1,-1,-1,-1,-1,-1],"split_conditions":[6.9410455E-1,9.080422E-1,9.535834E-1,7.540431E-1,2.8051886E-1,4.2963105E-1,-2.2868024E-2,7.336132E-1,5.0725114E-1,-2.1681597E-2,5.551757E-1,9.63024E-1,6.864921E-1,5.042922E-1,1.6926967E-2,-8.317894E-3,-2.9350815E-2,3.187322E-2,7.77502E-1,7.209693E-1,-2.9281566E-3,5.2869165E-1,8.355457E-1,-1.9513762E-2,-2.7560194E-3,-3.372628E-3,2.7573893E-2,6.616216E-3,3.707341E-2,-3.0107355E-2,3.0837813E-3,2.5431028E-2,-9.321452E-3],"split_indices":[8,0,8,0,7,4,0,0,7,0,5,2,5,8,0,0,0,0,7,8,0,4,5,0,0,0,0,0,0,0,0,0,0],"split_type":[0,0,0,0,0,0,0,0,0,0,0,0,0,0,0,0,0,0,0,0,0,0,0,0,0,0,0,0,0,0,0,0,0],"sum_hessian":[8.56428E1,4.757075E1,3.8072052E1,2.844037E1,1.913038E1,3.5874474E1,2.1975772E0,1.7435402E1,1.1004969E1,1.5866659E0,1.7543715E1,9.021564E0,2.6852911E1,1.509787E1,2.3375323E0,2.1068501E0,8.898119E0,2.9005268E0,1.46431875E1,7.381589E0,1.639974E0,1.0374897E1,1.6478014E1,1.1882567E1,3.215302E0,1.221184E1,2.4313486E0,1.9166936E0,5.4648957E0,3.5372689E0,6.837628E0,1.2580859E1,3.897155E0],"tree_param":{"num_deleted":"0","num_feature":"10","num_nodes":"33","size_leaf_vector":"1"}},{"base_weights":[1.0463407E-1,3.1928858E-1,-3.6638018E-2,2.0481634E-1,6.438029E-1,-2.7507365E-1,5.0708372E-2,2.6708815E-1,-2.8011584E-1,3.8222216E-2,-7.221616E-4,2.123657E-1,-4.618737E-1,4.113362E-1,-1.1655117E-1,-1.1069536E-2,3.5672835E-1,-1.5563747E-3,-2.0732766E-2,3.3567056E-2,-1.9325356E-1,-5.286069E-1,1.3063725E-3,4.406148E-2,2.260708E-1,4.3374085E-1,-1.9305941E-1,1.5556651E-2,-2.5280112E-2,3.6303565E-2,1.069703E-2,1.9467463E-3,-1.7372897E-2,-4.854755E-3,-3.0348081E-2,2.990149E-2,-1.2724628E-2,3.4823462E-2,-1.2058181E-3,-1.5384676E-2,4.212277E-3],"categories":[],"categories_nodes":[],"categories_segments":[],"categories_sizes":[],"default_left":[0,0,0,0,0,0,0,0,0,0,0,0,0,0,0,0,0,0,0,0,0,0,0,0,0,0,0,0,0,0,0,0,0,0,0,0,0,0,0,0,0],"id":38,"left_children":[1,3,5,7,9,11,13,15,17,-1,-1,19,21,23,25,27,29,-1,-1,-1,31,33,-1,-1,35,37,39,-1,-1,-1,-1,-1,-1,-1,-1,-1,-1,-1,-1,-1,-1],"loss_changes":[2.725869E0,1.191649E0,1.156813E0,9.144343E-1,7.1177006E-1,1.451917E0,2.5214217E0,6.3109016E-1,1.0943729E-1,0E0,0E0,1.0241685E0,3.741231E-1,9.511018E-1,1.2959888E0,1.2886165E0,8.494201E-1,0E0,0E0,0E0,1.3264686E-1,2.7174544E-1,0E0,0E0,2.086666E0,4.7662026E-1,8.514947E-1,0E0,0E0,0E0,0E0,0E0,0E0,0E0,0E0,0E0,0E0,0E0,0E0,0E0,0E0],"parents":[2147483647,0,0,1,1,2,2,3,3,4,4,5,5,6,6,7,7,8,8,11,11,12,12,13,13,14,14,15,15,16,16,20,20,21,21,24,24,25,25,26,26],"right_children":[2,4,6,8,10,12,14,16,18,-1,-1,20,22,24,26,28,30,-1,-1,-1,32,34,-1,-1,36,38,40,-1,-1,-1,-1,-1,-1,-1,-1,-1,-1,-1,-1,-1,-1],"split_conditions":[8.7894857E-1,8.2044595E-1,8.97838E-1,6.6297334E-1,8.7853897E-1,7.1582884E-1,9.153799E-1,6.750919E-1,6.295131E-1,3.8222216E-2,-7.221616E-4,5.98521E-1,8.9751846E-1,5.4853237E-1,2.7600604E-1,4.3495685E-1,5.704801E-1,-1.5563747E-3,-2.0732766E-2,3.3567056E-2,6.9410455E-1,8.790731E-1,1.3063725E-3,4.406148E-2,6.4210665E-1,9.8947334E-1,9.746623E-1,1.5556651E-2,-2.5280112E-2,3.6303565E-2,1.069703E-2,1.9467463E-3,-1.7372897E-2,-4.854755E-3,-3.0348081E-2,2.990149E-2,-1.2724628E-2,3.4823462E-2,-1.2058181E-3,-1.5384676E-2,4.212277E-3],"split_indices":[2,0,2,8,4,8,0,0,4,0,0,5,0,4,4,4,4,0,0,0,8,0,0,0,8,0,1,0,0,0,0,0,0,0,0,0,0,0,0,0,0],"split_type":[0,0,0,0,0,0,0,0,0,0,0,0,0,0,0,0,0,0,0,0,0,0,0,0,0,0,0,0,0,0,0,0,0,0,0,0,0,0,0,0,0],"sum_hessian":[8.850367E1,3.4628155E1,5.387551E1,2.6804155E1,7.8240013E0,1.3868488E1,4.0007023E1,2.4151947E1,2.6522083E0,6.4758005E0,1.3482008E0,3.804389E0,1.0064099E1,1.2213741E1,2.7793282E1,6.0999694E0,1.8051977E1,1.3623359E0,1.2898725E0,1.4774688E0,2.3269203E0,8.780214E0,1.283885E0,2.3915114E0,9.822229E0,2.822562E0,2.497072E1,3.91808E0,2.1818895E0,3.8941574E0,1.4157819E1,1.2269654E0,1.0999548E0,1.6934258E0,7.0867887E0,5.3989635E0,4.4232664E0,1.4623083E0,1.3602538E0,1.7589766E1,7.3809547E0],"tree_param":{"num_deleted":"0","num_feature":"10","num_nodes":"41","size_leaf_vector":"1"}},{"base_weights":[-1.00121476E-1,-1.6140795E-1,2.1318647E-1,-4.5927923E-2,-3.3807108E-1,4.602604E-1,-3.4132028E-1,-1.3027528E-1,4.6351883E-1,-3.8072756E-1,5.1856833E-3,-9.367923E-2,7.2039396E-1,3.3625387E-4,-2.3632599E-2,9.960938E-2,-2.6098076E-1,6.049133E-1,-1.4498489E-3,-5.008302E-1,-1.3125211E-1,7.898462E-3,-1.9028803E-2,1.1659368E-2,4.0529322E-2,-1.7285457E-2,1.498684E-2,1.0863948E-2,-1.7871793E-2,1.1355206E-2,3.5068158E-2,-1.4817076E-3,-2.7371636E-2,-2.6993593E-2,2.3573449E-2],"categories":[],"categories_nodes":[],"categories_segments":[],"categories_sizes":[],"default_left":[0,0,0,0,0,0,0,0,0,0,0,0,0,0,0,0,0,0,0,0,0,0,0,0,0,0,0,0,0,0,0,0,0,0,0],"id":39,"left_children":[1,3,5,7,9,11,13,15,17,19,-1,21,23,-1,-1,25,27,29,-1,31,33,-1,-1,-1,-1,-1,-1,-1,-1,-1,-1,-1,-1,-1,-1],"loss_changes":[1.6202569E0,1.4053334E0,2.067367E0,1.9198635E0,5.55331E-1,1.5187323E0,2.2587198E-1,1.164997E0,4.6088338E-1,6.8862915E-1,0E0,3.5635442E-1,1.1717558E-1,0E0,0E0,1.3926766E0,1.2052282E0,2.2625327E-2,0E0,3.4917164E-1,2.6033192E0,0E0,0E0,0E0,0E0,0E0,0E0,0E0,0E0,0E0,0E0,0E0,0E0,0E0,0E0],"parents":[2147483647,0,0,1,1,2,2,3,3,4,4,5,5,6,6,7,7,8,8,9,9,11,11,12,12,15,15,16,16,17,17,19,19,20,20],"right_children":[2,4,6,8,10,12,14,16,18,20,-1,22,24,-1,-1,26,28,30,-1,32,34,-1,-1,-1,-1,-1,-1,-1,-1,-1,-1,-1,-1,-1,-1],"split_conditions":[8.9721787E-1,6.875977E-1,6.4736104E-1,6.6297334E-1,9.64897E-1,3.4629312E-1,9.791854E-1,6.9100493E-1,6.857395E-1,7.1079403E-1,5.1856833E-3,9.971318E-1,5.863357E-1,3.3625387E-4,-2.3632599E-2,4.0319717E-1,4.6802843E-1,8.671074E-1,-1.4498489E-3,8.84635E-1,8.7530375E-1,7.898462E-3,-1.9028803E-2,1.1659368E-2,4.0529322E-2,-1.7285457E-2,1.498684E-2,1.0863948E-2,-1.7871793E-2,1.1355206E-2,3.5068158E-2,-1.4817076E-3,-2.7371636E-2,-2.6993593E-2,2.3573449E-2],"split_indices":[6,8,4,8,8,4,1,0,8,5,0,0,5,0,0,4,8,0,0,2,0,0,0,0,0,0,0,0,0,0,0,0,0,0,0],"split_type":[0,0,0,0,0,0,0,0,0,0,0,0,0,0,0,0,0,0,0,0,0,0,0,0,0,0,0,0,0,0,0,0,0,0,0],"sum_hessian":[8.1589554E1,6.864639E1,1.2943163E1,4.2273376E1,2.6373016E1,9.071224E0,3.8719392E0,3.6907078E1,5.366298E0,2.417683E1,2.1961856E0,3.1031413E0,5.9680824E0,1.3207035E0,2.5512357E0,1.3464187E1,2.3442892E1,3.9920306E0,1.3742676E0,1.5639918E1,8.536913E0,1.8925223E0,1.210619E0,1.4923061E0,4.4757767E0,3.9491632E0,9.515024E0,3.7242167E0,1.9718676E1,1.4940879E0,2.4979427E0,1.5548438E0,1.4085074E1,5.149823E0,3.3870895E0],"tree_param":{"num_deleted":"0","num_feature":"10","num_nodes":"35","size_leaf_vector":"1"}},{"base_weights":[-9.395206E-3,-1.6287152E-1,1.8051577E-1,-3.4760883E-1,1.11999124E-1,2.299201E-1,-2.2615653E-2,-2.1692029E-1,-5.2025914E-1,-2.1514382E-2,1.8111962E-1,4.8568884E-1,1.2947813E-1,-3.1888112E-1,1.6657323E-2,-8.029049E-3,-2.9051004E-2,3.0923087E-2,6.0013443E-2,5.977796E-1,-2.7946401E-3,-1.958658E-1,3.328362E-1,-1.7783916E-2,3.4635514E-3,-3.408619E-3,2.6663838E-2,6.384779E-3,3.5869163E-2,-2.983582E-2,2.9742958E-3,2.4575125E-2,-8.992958E-3],"categories":[],"categories_nodes":[],"categories_segments":[],"categories_sizes":[],"default_left":[0,0,0,0,0,0,0,0,0,0,0,0,0,0,0,0,0,0,0,0,0,0,0,0,0,0,0,0,0,0,0,0,0],"id":40,"left_children":[1,3,5,7,9,11,-1,13,15,-1,17,19,21,23,-1,-1,-1,-1,25,27,-1,29,31,-1,-1,-1,-1,-1,-1,-1,-1,-1,-1],"loss_changes":[2.5420635E0,2.486608E0,1.3234483E0,5.4309726E-1,8.3251214E-1,8.836032E-1,0E0,1.1304426E0,1.647973E-1,0E0,9.458615E-1,6.420057E-1,1.9056424E0,2.5197792E-1,0E0,0E0,0E0,0E0,9.8527294E-1,3.8020134E-1,0E0,1.1951303E0,1.5110401E0,0E0,0E0,0E0,0E0,0E0,0E0,0E0,0E0,0E0,0E0],"parents":[2147483647,0,0,1,1,2,2,3,3,4,4,5,5,7,7,8,8,10,10,11,11,12,12,13,13,18,18,19,19,21,21,22,22],"right_children":[2,4,6,8,10,12,-1,14,16,-1,18,20,22,24,-1,-1,-1,-1,26,28,-1,30,32,-1,-1,-1,-1,-1,-1,-1,-1,-1,-1],"split_conditions":[6.9410455E-1,9.080422E-1,9.535834E-1,7.540431E-1,2.8051886E-1,4.2963105E-1,-2.2615653E-2,7.336132E-1,5.0725114E-1,-2.1514382E-2,5.551757E-1,9.63024E-1,6.864921E-1,5.640879E-1,1.6657323E-2,-8.029049E-3,-2.9051004E-2,3.0923087E-2,7.77502E-1,7.209693E-1,-2.7946401E-3,5.2869165E-1,8.355457E-1,-1.7783916E-2,3.4635514E-3,-3.408619E-3,2.6663838E-2,6.384779E-3,3.5869163E-2,-2.983582E-2,2.9742958E-3,2.4575125E-2,-8.992958E-3],"split_indices":[8,0,8,0,7,4,0,0,7,0,5,2,5,8,0,0,0,0,7,8,0,4,5,0,0,0,0,0,0,0,0,0,0],"split_type":[0,0,0,0,0,0,0,0,0,0,0,0,0,0,0,0,0,0,0,0,0,0,0,0,0,0,0,0,0,0,0,0,0],"sum_hessian":[8.520705E1,4.7202656E1,3.800439E1,2.8071505E1,1.9131153E1,3.584285E1,2.1615381E0,1.7261633E1,1.0809872E1,1.5720909E0,1.7559063E1,9.02522E0,2.681763E1,1.4916908E1,2.344724E0,2.0886738E0,8.721197E0,2.9172895E0,1.4641773E1,7.391616E0,1.6336035E0,1.032921E1,1.648842E1,1.3701642E1,